{"gradients/module.linear_out.bias": {"_type": "histogram", "values": [0.0, 0.0, 0.0, 0.0, 0.0, 0.0, 0.0, 0.0, 0.0, 0.0, 0.0, 0.0, 0.0, 0.0, 0.0, 0.0, 0.0, 0.0, 0.0, 0.0, 0.0, 0.0, 0.0, 0.0, 0.0, 0.0, 0.0, 0.0, 0.0, 0.0, 0.0, 0.0, 1.0, 0.0, 0.0, 0.0, 0.0, 0.0, 0.0, 0.0, 0.0, 0.0, 0.0, 0.0, 0.0, 0.0, 0.0, 0.0, 0.0, 0.0, 0.0, 0.0, 0.0, 0.0, 0.0, 0.0, 0.0, 0.0, 0.0, 0.0, 0.0, 0.0, 0.0, 0.0], "bins": [-21168.0, -21168.0, -21168.0, -21168.0, -21168.0, -21168.0, -21168.0, -21168.0, -21168.0, -21168.0, -21168.0, -21168.0, -21168.0, -21168.0, -21168.0, -21168.0, -21168.0, -21168.0, -21168.0, -21168.0, -21168.0, -21168.0, -21168.0, -21168.0, -21168.0, -21168.0, -21168.0, -21168.0, -21168.0, -21168.0, -21168.0, -21168.0, -21168.0, -21168.0, -21168.0, -21168.0, -21168.0, -21168.0, -21168.0, -21168.0, -21168.0, -21168.0, -21168.0, -21168.0, -21168.0, -21168.0, -21168.0, -21168.0, -21168.0, -21168.0, -21168.0, -21168.0, -21168.0, -21168.0, -21168.0, -21168.0, -21168.0, -21168.0, -21168.0, -21168.0, -21168.0, -21168.0, -21168.0, -21168.0, -21168.0]}, "_timestamp": 1669338707.8036807, "_runtime": 1173.3760876655579, "gradients/module.linear_out.weight": {"_type": "histogram", "values": [1.0, 0.0, 1.0, 0.0, 1.0, 1.0, 2.0, 2.0, 1.0, 0.0, 0.0, 0.0, 0.0, 0.0, 0.0, 0.0, 0.0, 3.0, 2.0, 7.0, 5.0, 11.0, 7.0, 7.0, 9.0, 9.0, 5.0, 2.0, 1.0, 0.0, 0.0, 0.0, 0.0, 0.0, 0.0, 0.0, 0.0, 0.0, 0.0, 0.0, 0.0, 0.0, 0.0, 0.0, 0.0, 0.0, 1.0, 1.0, 1.0, 1.0, 0.0, 1.0, 0.0, 0.0, 0.0, 0.0, 0.0, 0.0, 0.0, 3.0, 1.0, 8.0, 12.0, 22.0], "bins": [-11648.0, -11484.203125, -11320.40625, -11156.609375, -10992.8125, -10829.015625, -10665.21875, -10501.421875, -10337.625, -10173.828125, -10010.03125, -9846.234375, -9682.4375, -9518.640625, -9354.84375, -9191.046875, -9027.25, -8863.453125, -8699.65625, -8535.859375, -8372.0625, -8208.265625, -8044.46875, -7880.671875, -7716.875, -7553.078125, -7389.28125, -7225.484375, -7061.6875, -6897.890625, -6734.09375, -6570.296875, -6406.5, -6242.703125, -6078.90625, -5915.109375, -5751.3125, -5587.515625, -5423.71875, -5259.921875, -5096.125, -4932.328125, -4768.53125, -4604.734375, -4440.9375, -4277.140625, -4113.34375, -3949.546875, -3785.75, -3621.953125, -3458.15625, -3294.359375, -3130.5625, -2966.765625, -2802.96875, -2639.171875, -2475.375, -2311.578125, -2147.78125, -1983.984375, -1820.1875, -1656.390625, -1492.59375, -1328.796875, -1165.0]}, "gradients/module.bn4.weight": {"_type": "histogram", "values": [1.0, 0.0, 1.0, 0.0, 1.0, 0.0, 3.0, 0.0, 0.0, 3.0, 2.0, 2.0, 6.0, 2.0, 0.0, 0.0, 0.0, 1.0, 5.0, 0.0, 1.0, 2.0, 2.0, 1.0, 2.0, 5.0, 2.0, 2.0, 2.0, 1.0, 2.0, 1.0, 2.0, 3.0, 0.0, 0.0, 2.0, 4.0, 2.0, 3.0, 3.0, 3.0, 1.0, 1.0, 1.0, 1.0, 0.0, 0.0, 0.0, 0.0, 1.0, 0.0, 0.0, 0.0, 8.0, 9.0, 5.0, 10.0, 11.0, 5.0, 1.0, 0.0, 0.0, 2.0], "bins": [-2643.03955078125, -2594.44775390625, -2545.85595703125, -2497.26416015625, -2448.67236328125, -2400.08056640625, -2351.48876953125, -2302.897216796875, -2254.305419921875, -2205.713623046875, -2157.121826171875, -2108.530029296875, -2059.938232421875, -2011.3465576171875, -1962.7547607421875, -1914.1629638671875, -1865.5711669921875, -1816.9793701171875, -1768.3875732421875, -1719.7958984375, -1671.2041015625, -1622.6123046875, -1574.0205078125, -1525.4287109375, -1476.8369140625, -1428.2451171875, -1379.6533203125, -1331.0615234375, -1282.4698486328125, -1233.8780517578125, -1185.2862548828125, -1136.6944580078125, -1088.102783203125, -1039.510986328125, -990.9192504882812, -942.3274536132812, -893.7357177734375, -845.1439208984375, -796.5521240234375, -747.9603271484375, -699.3685302734375, -650.7767333984375, -602.1849975585938, -553.5932006835938, -505.0014343261719, -456.40966796875, -407.81787109375, -359.2261047363281, -310.6343688964844, -262.0426025390625, -213.45082092285156, -164.85903930664062, -116.26727294921875, -67.67550659179688, -19.083709716796875, 29.508056640625, 78.09982299804688, 126.69159698486328, 175.2833709716797, 223.87515258789062, 272.4669189453125, 321.0586853027344, 369.6504821777344, 418.24224853515625, 466.8340148925781]}, "gradients/module.bn4.bias": {"_type": "histogram", "values": [1.0, 2.0, 0.0, 2.0, 3.0, 6.0, 0.0, 6.0, 1.0, 0.0, 2.0, 4.0, 3.0, 1.0, 2.0, 7.0, 3.0, 3.0, 1.0, 3.0, 4.0, 1.0, 0.0, 3.0, 3.0, 7.0, 4.0, 2.0, 1.0, 1.0, 0.0, 0.0, 1.0, 0.0, 1.0, 4.0, 3.0, 2.0, 1.0, 5.0, 3.0, 2.0, 0.0, 2.0, 2.0, 0.0, 1.0, 0.0, 3.0, 0.0, 0.0, 0.0, 6.0, 1.0, 3.0, 3.0, 0.0, 3.0, 0.0, 2.0, 1.0, 0.0, 2.0, 1.0], "bins": [-2789.10009765625, -2709.536376953125, -2629.97265625, -2550.408935546875, -2470.84521484375, -2391.28173828125, -2311.7177734375, -2232.154296875, -2152.590576171875, -2073.02685546875, -1993.463134765625, -1913.8994140625, -1834.3358154296875, -1754.7720947265625, -1675.2083740234375, -1595.644775390625, -1516.0809326171875, -1436.5172119140625, -1356.9534912109375, -1277.389892578125, -1197.826171875, -1118.262451171875, -1038.69873046875, -959.1350708007812, -879.5713500976562, -800.0076293945312, -720.4439697265625, -640.8802490234375, -561.3165283203125, -481.75286865234375, -402.18914794921875, -322.62548828125, -243.061767578125, -163.49807739257812, -83.93437194824219, -4.37066650390625, 75.19302368164062, 154.7567138671875, 234.3204345703125, 313.88409423828125, 393.44781494140625, 473.0115051269531, 552.5751953125, 632.138916015625, 711.70263671875, 791.2662963867188, 870.8300170898438, 950.3936767578125, 1029.9573974609375, 1109.5211181640625, 1189.0848388671875, 1268.6484375, 1348.212158203125, 1427.77587890625, 1507.339599609375, 1586.9033203125, 1666.467041015625, 1746.03076171875, 1825.594482421875, 1905.158203125, 1984.7218017578125, 2064.28564453125, 2143.84912109375, 2223.412841796875, 2302.9765625]}, "gradients/module.linear1_4.bias": {"_type": "histogram", "values": [1.0, 0.0, 0.0, 0.0, 0.0, 0.0, 0.0, 0.0, 0.0, 0.0, 0.0, 0.0, 0.0, 0.0, 0.0, 0.0, 0.0, 0.0, 0.0, 0.0, 1.0, 0.0, 1.0, 1.0, 2.0, 0.0, 3.0, 1.0, 4.0, 3.0, 2.0, 7.0, 5.0, 15.0, 18.0, 13.0, 13.0, 9.0, 4.0, 2.0, 5.0, 1.0, 1.0, 2.0, 1.0, 3.0, 1.0, 3.0, 1.0, 0.0, 1.0, 0.0, 1.0, 0.0, 1.0, 0.0, 1.0, 0.0, 0.0, 0.0, 0.0, 0.0, 0.0, 1.0], "bins": [-0.0297698974609375, -0.02892279624938965, -0.028075695037841797, -0.027228593826293945, -0.026381492614746094, -0.025534391403198242, -0.02468729019165039, -0.02384018898010254, -0.022993087768554688, -0.022145986557006836, -0.021298885345458984, -0.020451784133911133, -0.01960468292236328, -0.01875758171081543, -0.017910480499267578, -0.017063379287719727, -0.016216278076171875, -0.015369176864624023, -0.014522075653076172, -0.01367497444152832, -0.012827873229980469, -0.011980772018432617, -0.011133670806884766, -0.010286569595336914, -0.009439468383789062, -0.008592367172241211, -0.007745265960693359, -0.006898164749145508, -0.006051063537597656, -0.005203962326049805, -0.004356861114501953, -0.0035097599029541016, -0.00266265869140625, -0.0018155574798583984, -0.0009684562683105469, -0.00012135505676269531, 0.0007257461547851562, 0.0015728473663330078, 0.0024199485778808594, 0.003267049789428711, 0.0041141510009765625, 0.004961252212524414, 0.005808353424072266, 0.006655454635620117, 0.007502555847167969, 0.00834965705871582, 0.009196758270263672, 0.010043859481811523, 0.010890960693359375, 0.011738061904907227, 0.012585163116455078, 0.01343226432800293, 0.014279365539550781, 0.015126466751098633, 0.015973567962646484, 0.016820669174194336, 0.017667770385742188, 0.01851487159729004, 0.01936197280883789, 0.020209074020385742, 0.021056175231933594, 0.021903276443481445, 0.022750377655029297, 0.02359747886657715, 0.024444580078125]}, "gradients/module.linear1_4.weight": {"_type": "histogram", "values": [2.0, 1.0, 2.0, 2.0, 8.0, 7.0, 6.0, 7.0, 6.0, 14.0, 8.0, 10.0, 12.0, 19.0, 14.0, 22.0, 20.0, 25.0, 27.0, 39.0, 29.0, 44.0, 47.0, 48.0, 71.0, 76.0, 93.0, 103.0, 121.0, 131.0, 147.0, 180.0, 248.0, 281.0, 359.0, 433.0, 659.0, 1027.0, 2127.0, 7373.0, 11180.0, 4018.0, 1635.0, 664.0, 364.0, 268.0, 217.0, 153.0, 102.0, 96.0, 64.0, 45.0, 34.0, 21.0, 15.0, 7.0, 6.0, 6.0, 8.0, 5.0, 2.0, 6.0, 2.0, 2.0], "bins": [-418.25, -407.794921875, -397.33984375, -386.884765625, -376.4296875, -365.974609375, -355.51953125, -345.064453125, -334.609375, -324.154296875, -313.69921875, -303.244140625, -292.7890625, -282.333984375, -271.87890625, -261.423828125, -250.96875, -240.513671875, -230.05859375, -219.603515625, -209.1484375, -198.693359375, -188.23828125, -177.783203125, -167.328125, -156.873046875, -146.41796875, -135.962890625, -125.5078125, -115.052734375, -104.59765625, -94.142578125, -83.6875, -73.232421875, -62.77734375, -52.322265625, -41.8671875, -31.412109375, -20.95703125, -10.501953125, -0.046875, 10.408203125, 20.86328125, 31.318359375, 41.7734375, 52.228515625, 62.68359375, 73.138671875, 83.59375, 94.048828125, 104.50390625, 114.958984375, 125.4140625, 135.869140625, 146.32421875, 156.779296875, 167.234375, 177.689453125, 188.14453125, 198.599609375, 209.0546875, 219.509765625, 229.96484375, 240.419921875, 250.875]}, "gradients/module.linear_mod_2.bias": {"_type": "histogram", "values": [1.0, 0.0, 0.0, 0.0, 0.0, 0.0, 0.0, 0.0, 0.0, 0.0, 0.0, 0.0, 0.0, 0.0, 0.0, 0.0, 0.0, 0.0, 0.0, 0.0, 0.0, 0.0, 0.0, 0.0, 0.0, 0.0, 0.0, 0.0, 0.0, 0.0, 0.0, 0.0, 0.0, 0.0, 0.0, 0.0, 0.0, 0.0, 0.0, 0.0, 0.0, 0.0, 0.0, 0.0, 0.0, 0.0, 0.0, 0.0, 0.0, 0.0, 0.0, 0.0, 0.0, 0.0, 0.0, 0.0, 0.0, 0.0, 0.0, 0.0, 0.0, 0.0, 0.0, 1.0], "bins": [-13.2890625, -12.873779296875, -12.45849609375, -12.043212890625, -11.6279296875, -11.212646484375, -10.79736328125, -10.382080078125, -9.966796875, -9.551513671875, -9.13623046875, -8.720947265625, -8.3056640625, -7.890380859375, -7.47509765625, -7.059814453125, -6.64453125, -6.229248046875, -5.81396484375, -5.398681640625, -4.9833984375, -4.568115234375, -4.15283203125, -3.737548828125, -3.322265625, -2.906982421875, -2.49169921875, -2.076416015625, -1.6611328125, -1.245849609375, -0.83056640625, -0.415283203125, 0.0, 0.415283203125, 0.83056640625, 1.245849609375, 1.6611328125, 2.076416015625, 2.49169921875, 2.906982421875, 3.322265625, 3.737548828125, 4.15283203125, 4.568115234375, 4.9833984375, 5.398681640625, 5.81396484375, 6.229248046875, 6.64453125, 7.059814453125, 7.47509765625, 7.890380859375, 8.3056640625, 8.720947265625, 9.13623046875, 9.551513671875, 9.966796875, 10.382080078125, 10.79736328125, 11.212646484375, 11.6279296875, 12.043212890625, 12.45849609375, 12.873779296875, 13.2890625]}, "gradients/module.linear_mod_2.weight": {"_type": "histogram", "values": [1.0, 0.0, 1.0, 0.0, 0.0, 0.0, 2.0, 0.0, 1.0, 0.0, 0.0, 0.0, 1.0, 3.0, 2.0, 0.0, 0.0, 1.0, 2.0, 0.0, 0.0, 5.0, 4.0, 2.0, 3.0, 2.0, 2.0, 13.0, 16.0, 14.0, 20.0, 33.0, 33.0, 20.0, 14.0, 16.0, 13.0, 2.0, 2.0, 3.0, 2.0, 4.0, 5.0, 0.0, 0.0, 2.0, 1.0, 0.0, 0.0, 2.0, 3.0, 1.0, 0.0, 0.0, 0.0, 1.0, 0.0, 2.0, 0.0, 0.0, 0.0, 1.0, 0.0, 1.0], "bins": [-21.5, -20.828125, -20.15625, -19.484375, -18.8125, -18.140625, -17.46875, -16.796875, -16.125, -15.453125, -14.78125, -14.109375, -13.4375, -12.765625, -12.09375, -11.421875, -10.75, -10.078125, -9.40625, -8.734375, -8.0625, -7.390625, -6.71875, -6.046875, -5.375, -4.703125, -4.03125, -3.359375, -2.6875, -2.015625, -1.34375, -0.671875, 0.0, 0.671875, 1.34375, 2.015625, 2.6875, 3.359375, 4.03125, 4.703125, 5.375, 6.046875, 6.71875, 7.390625, 8.0625, 8.734375, 9.40625, 10.078125, 10.75, 11.421875, 12.09375, 12.765625, 13.4375, 14.109375, 14.78125, 15.453125, 16.125, 16.796875, 17.46875, 18.140625, 18.8125, 19.484375, 20.15625, 20.828125, 21.5]}, "gradients/module.linear_mod_1.bias": {"_type": "histogram", "values": [1.0, 1.0, 1.0, 0.0, 1.0, 0.0, 1.0, 2.0, 3.0, 2.0, 1.0, 1.0, 1.0, 2.0, 2.0, 2.0, 5.0, 1.0, 2.0, 1.0, 5.0, 1.0, 4.0, 5.0, 4.0, 5.0, 10.0, 4.0, 9.0, 5.0, 6.0, 2.0, 6.0, 5.0, 3.0, 2.0, 2.0, 2.0, 2.0, 1.0, 1.0, 0.0, 1.0, 0.0, 2.0, 1.0, 1.0, 0.0, 0.0, 2.0, 1.0, 1.0, 0.0, 0.0, 2.0, 1.0, 0.0, 0.0, 0.0, 0.0, 1.0, 0.0, 0.0, 1.0], "bins": [-2.375, -2.288055419921875, -2.20111083984375, -2.114166259765625, -2.0272216796875, -1.940277099609375, -1.85333251953125, -1.766387939453125, -1.679443359375, -1.592498779296875, -1.50555419921875, -1.418609619140625, -1.3316650390625, -1.244720458984375, -1.15777587890625, -1.070831298828125, -0.98388671875, -0.896942138671875, -0.80999755859375, -0.723052978515625, -0.6361083984375, -0.549163818359375, -0.46221923828125, -0.375274658203125, -0.288330078125, -0.201385498046875, -0.11444091796875, -0.027496337890625, 0.0594482421875, 0.146392822265625, 0.23333740234375, 0.320281982421875, 0.4072265625, 0.494171142578125, 0.58111572265625, 0.668060302734375, 0.7550048828125, 0.841949462890625, 0.92889404296875, 1.015838623046875, 1.102783203125, 1.189727783203125, 1.27667236328125, 1.363616943359375, 1.4505615234375, 1.537506103515625, 1.62445068359375, 1.711395263671875, 1.79833984375, 1.885284423828125, 1.97222900390625, 2.059173583984375, 2.1461181640625, 2.233062744140625, 2.32000732421875, 2.406951904296875, 2.493896484375, 2.580841064453125, 2.66778564453125, 2.754730224609375, 2.8416748046875, 2.928619384765625, 3.01556396484375, 3.102508544921875, 3.189453125]}, "gradients/module.linear_mod_1.weight": {"_type": "histogram", "values": [2.0, 0.0, 3.0, 2.0, 1.0, 6.0, 7.0, 5.0, 8.0, 19.0, 22.0, 32.0, 39.0, 60.0, 77.0, 98.0, 104.0, 148.0, 187.0, 246.0, 359.0, 428.0, 523.0, 771.0, 1138.0, 1833.0, 3007.0, 6728.0, 7280.0, 3253.0, 1841.0, 1227.0, 881.0, 567.0, 425.0, 298.0, 229.0, 177.0, 145.0, 111.0, 82.0, 71.0, 56.0, 54.0, 41.0, 49.0, 29.0, 18.0, 14.0, 8.0, 9.0, 9.0, 11.0, 6.0, 2.0, 7.0, 4.0, 3.0, 4.0, 3.0, 0.0, 0.0, 0.0, 1.0], "bins": [-3.94921875, -3.808349609375, -3.66748046875, -3.526611328125, -3.3857421875, -3.244873046875, -3.10400390625, -2.963134765625, -2.822265625, -2.681396484375, -2.54052734375, -2.399658203125, -2.2587890625, -2.117919921875, -1.97705078125, -1.836181640625, -1.6953125, -1.554443359375, -1.41357421875, -1.272705078125, -1.1318359375, -0.990966796875, -0.85009765625, -0.709228515625, -0.568359375, -0.427490234375, -0.28662109375, -0.145751953125, -0.0048828125, 0.135986328125, 0.27685546875, 0.417724609375, 0.55859375, 0.699462890625, 0.84033203125, 0.981201171875, 1.1220703125, 1.262939453125, 1.40380859375, 1.544677734375, 1.685546875, 1.826416015625, 1.96728515625, 2.108154296875, 2.2490234375, 2.389892578125, 2.53076171875, 2.671630859375, 2.8125, 2.953369140625, 3.09423828125, 3.235107421875, 3.3759765625, 3.516845703125, 3.65771484375, 3.798583984375, 3.939453125, 4.080322265625, 4.22119140625, 4.362060546875, 4.5029296875, 4.643798828125, 4.78466796875, 4.925537109375, 5.06640625]}, "gradients/module.linear_miss_clv_3.bias": {"_type": "histogram", "values": [1.0, 0.0, 0.0, 0.0, 0.0, 0.0, 0.0, 0.0, 0.0, 0.0, 0.0, 0.0, 0.0, 0.0, 0.0, 0.0, 0.0, 0.0, 0.0, 0.0, 0.0, 0.0, 0.0, 0.0, 0.0, 0.0, 0.0, 0.0, 0.0, 0.0, 0.0, 0.0, 0.0, 0.0, 0.0, 0.0, 0.0, 0.0, 0.0, 0.0, 0.0, 0.0, 0.0, 0.0, 0.0, 1.0, 0.0, 0.0, 0.0, 0.0, 0.0, 0.0, 0.0, 0.0, 0.0, 0.0, 0.0, 0.0, 0.0, 0.0, 0.0, 0.0, 0.0, 1.0], "bins": [-28.15625, -27.38330078125, -26.6103515625, -25.83740234375, -25.064453125, -24.29150390625, -23.5185546875, -22.74560546875, -21.97265625, -21.19970703125, -20.4267578125, -19.65380859375, -18.880859375, -18.10791015625, -17.3349609375, -16.56201171875, -15.7890625, -15.01611328125, -14.2431640625, -13.47021484375, -12.697265625, -11.92431640625, -11.1513671875, -10.37841796875, -9.60546875, -8.83251953125, -8.0595703125, -7.28662109375, -6.513671875, -5.74072265625, -4.9677734375, -4.19482421875, -3.421875, -2.64892578125, -1.8759765625, -1.10302734375, -0.330078125, 0.44287109375, 1.2158203125, 1.98876953125, 2.76171875, 3.53466796875, 4.3076171875, 5.08056640625, 5.853515625, 6.62646484375, 7.3994140625, 8.17236328125, 8.9453125, 9.71826171875, 10.4912109375, 11.26416015625, 12.037109375, 12.81005859375, 13.5830078125, 14.35595703125, 15.12890625, 15.90185546875, 16.6748046875, 17.44775390625, 18.220703125, 18.99365234375, 19.7666015625, 20.53955078125, 21.3125]}, "gradients/module.linear_miss_clv_3.weight": {"_type": "histogram", "values": [1.0, 0.0, 0.0, 1.0, 0.0, 0.0, 1.0, 0.0, 2.0, 1.0, 0.0, 1.0, 1.0, 0.0, 3.0, 2.0, 0.0, 0.0, 2.0, 2.0, 1.0, 2.0, 3.0, 6.0, 0.0, 2.0, 5.0, 11.0, 9.0, 8.0, 12.0, 12.0, 23.0, 34.0, 37.0, 43.0, 32.0, 24.0, 20.0, 11.0, 18.0, 6.0, 8.0, 5.0, 4.0, 2.0, 2.0, 2.0, 1.0, 3.0, 1.0, 3.0, 3.0, 2.0, 1.0, 2.0, 2.0, 1.0, 1.0, 0.0, 2.0, 1.0, 0.0, 2.0], "bins": [-20.859375, -20.267333984375, -19.67529296875, -19.083251953125, -18.4912109375, -17.899169921875, -17.30712890625, -16.715087890625, -16.123046875, -15.531005859375, -14.93896484375, -14.346923828125, -13.7548828125, -13.162841796875, -12.57080078125, -11.978759765625, -11.38671875, -10.794677734375, -10.20263671875, -9.610595703125, -9.0185546875, -8.426513671875, -7.83447265625, -7.242431640625, -6.650390625, -6.058349609375, -5.46630859375, -4.874267578125, -4.2822265625, -3.690185546875, -3.09814453125, -2.506103515625, -1.9140625, -1.322021484375, -0.72998046875, -0.137939453125, 0.4541015625, 1.046142578125, 1.63818359375, 2.230224609375, 2.822265625, 3.414306640625, 4.00634765625, 4.598388671875, 5.1904296875, 5.782470703125, 6.37451171875, 6.966552734375, 7.55859375, 8.150634765625, 8.74267578125, 9.334716796875, 9.9267578125, 10.518798828125, 11.11083984375, 11.702880859375, 12.294921875, 12.886962890625, 13.47900390625, 14.071044921875, 14.6630859375, 15.255126953125, 15.84716796875, 16.439208984375, 17.03125]}, "gradients/module.linear_miss_clv_2.bias": {"_type": "histogram", "values": [2.0, 1.0, 1.0, 1.0, 0.0, 0.0, 2.0, 1.0, 2.0, 1.0, 0.0, 3.0, 0.0, 4.0, 1.0, 3.0, 4.0, 6.0, 4.0, 9.0, 9.0, 8.0, 7.0, 9.0, 5.0, 6.0, 10.0, 2.0, 3.0, 2.0, 2.0, 5.0, 1.0, 1.0, 2.0, 2.0, 1.0, 2.0, 0.0, 0.0, 0.0, 1.0, 0.0, 0.0, 0.0, 0.0, 1.0, 0.0, 0.0, 1.0, 0.0, 1.0, 0.0, 0.0, 0.0, 0.0, 0.0, 0.0, 0.0, 1.0, 0.0, 0.0, 0.0, 1.0], "bins": [-4.35546875, -4.1668701171875, -3.978271484375, -3.7896728515625, -3.60107421875, -3.4124755859375, -3.223876953125, -3.0352783203125, -2.8466796875, -2.6580810546875, -2.469482421875, -2.2808837890625, -2.09228515625, -1.9036865234375, -1.715087890625, -1.5264892578125, -1.337890625, -1.1492919921875, -0.960693359375, -0.7720947265625, -0.58349609375, -0.3948974609375, -0.206298828125, -0.0177001953125, 0.1708984375, 0.3594970703125, 0.548095703125, 0.7366943359375, 0.92529296875, 1.1138916015625, 1.302490234375, 1.4910888671875, 1.6796875, 1.8682861328125, 2.056884765625, 2.2454833984375, 2.43408203125, 2.6226806640625, 2.811279296875, 2.9998779296875, 3.1884765625, 3.3770751953125, 3.565673828125, 3.7542724609375, 3.94287109375, 4.1314697265625, 4.320068359375, 4.5086669921875, 4.697265625, 4.8858642578125, 5.074462890625, 5.2630615234375, 5.45166015625, 5.6402587890625, 5.828857421875, 6.0174560546875, 6.2060546875, 6.3946533203125, 6.583251953125, 6.7718505859375, 6.96044921875, 7.1490478515625, 7.337646484375, 7.5262451171875, 7.71484375]}, "gradients/module.linear_miss_clv_2.weight": {"_type": "histogram", "values": [1.0, 4.0, 5.0, 7.0, 7.0, 5.0, 9.0, 13.0, 17.0, 32.0, 47.0, 52.0, 71.0, 82.0, 148.0, 175.0, 278.0, 305.0, 408.0, 721.0, 1157.0, 2183.0, 4748.0, 10787.0, 4924.0, 2268.0, 1317.0, 843.0, 638.0, 372.0, 242.0, 169.0, 126.0, 102.0, 78.0, 60.0, 68.0, 43.0, 32.0, 43.0, 34.0, 25.0, 22.0, 23.0, 9.0, 16.0, 7.0, 8.0, 8.0, 4.0, 6.0, 5.0, 4.0, 4.0, 2.0, 1.0, 0.0, 0.0, 1.0, 0.0, 0.0, 0.0, 0.0, 2.0], "bins": [-6.328125, -6.059326171875, -5.79052734375, -5.521728515625, -5.2529296875, -4.984130859375, -4.71533203125, -4.446533203125, -4.177734375, -3.908935546875, -3.64013671875, -3.371337890625, -3.1025390625, -2.833740234375, -2.56494140625, -2.296142578125, -2.02734375, -1.758544921875, -1.48974609375, -1.220947265625, -0.9521484375, -0.683349609375, -0.41455078125, -0.145751953125, 0.123046875, 0.391845703125, 0.66064453125, 0.929443359375, 1.1982421875, 1.467041015625, 1.73583984375, 2.004638671875, 2.2734375, 2.542236328125, 2.81103515625, 3.079833984375, 3.3486328125, 3.617431640625, 3.88623046875, 4.155029296875, 4.423828125, 4.692626953125, 4.96142578125, 5.230224609375, 5.4990234375, 5.767822265625, 6.03662109375, 6.305419921875, 6.57421875, 6.843017578125, 7.11181640625, 7.380615234375, 7.6494140625, 7.918212890625, 8.18701171875, 8.455810546875, 8.724609375, 8.993408203125, 9.26220703125, 9.531005859375, 9.7998046875, 10.068603515625, 10.33740234375, 10.606201171875, 10.875]}, "gradients/module.bn3.weight": {"_type": "histogram", "values": [1.0, 0.0, 1.0, 0.0, 0.0, 0.0, 0.0, 0.0, 0.0, 0.0, 0.0, 1.0, 0.0, 0.0, 0.0, 1.0, 0.0, 1.0, 3.0, 2.0, 0.0, 1.0, 1.0, 1.0, 2.0, 0.0, 1.0, 2.0, 3.0, 2.0, 3.0, 6.0, 3.0, 4.0, 4.0, 3.0, 2.0, 6.0, 8.0, 15.0, 14.0, 35.0, 31.0, 24.0, 17.0, 16.0, 4.0, 4.0, 5.0, 3.0, 6.0, 0.0, 0.0, 3.0, 5.0, 2.0, 3.0, 0.0, 0.0, 1.0, 0.0, 0.0, 2.0, 4.0], "bins": [-222.8321533203125, -217.4187469482422, -212.00535583496094, -206.59194946289062, -201.17855834960938, -195.76515197753906, -190.35174560546875, -184.9383544921875, -179.5249481201172, -174.11154174804688, -168.69815063476562, -163.2847442626953, -157.871337890625, -152.45794677734375, -147.04454040527344, -141.63113403320312, -136.21774291992188, -130.80433654785156, -125.39094543457031, -119.9775390625, -114.56414031982422, -109.15074157714844, -103.73733520507812, -98.32393646240234, -92.91053771972656, -87.49713897705078, -82.083740234375, -76.67033386230469, -71.2569351196289, -65.84353637695312, -60.43013381958008, -55.01673126220703, -49.60333251953125, -44.18993377685547, -38.77653121948242, -33.363128662109375, -27.949729919433594, -22.53632926940918, -17.122928619384766, -11.709526062011719, -6.2961273193359375, -0.8827266693115234, 4.530673980712891, 9.944074630737305, 15.357475280761719, 20.770875930786133, 26.184276580810547, 31.597679138183594, 37.011077880859375, 42.424476623535156, 47.8378791809082, 53.25128173828125, 58.66468048095703, 64.07807922363281, 69.49148559570312, 74.9048843383789, 80.31828308105469, 85.73168182373047, 91.14508056640625, 96.55848693847656, 101.97188568115234, 107.38528442382812, 112.79869079589844, 118.21208953857422, 123.62548828125]}, "gradients/module.bn3.bias": {"_type": "histogram", "values": [1.0, 0.0, 0.0, 0.0, 1.0, 0.0, 1.0, 0.0, 0.0, 1.0, 4.0, 2.0, 2.0, 3.0, 2.0, 5.0, 9.0, 6.0, 4.0, 8.0, 9.0, 9.0, 7.0, 10.0, 10.0, 12.0, 15.0, 13.0, 13.0, 13.0, 8.0, 5.0, 8.0, 11.0, 14.0, 7.0, 7.0, 8.0, 0.0, 5.0, 5.0, 1.0, 2.0, 3.0, 3.0, 3.0, 0.0, 3.0, 0.0, 0.0, 0.0, 0.0, 1.0, 0.0, 1.0, 0.0, 0.0, 0.0, 0.0, 0.0, 0.0, 0.0, 0.0, 1.0], "bins": [-49.298072814941406, -46.94441604614258, -44.59075927734375, -42.23710250854492, -39.883445739746094, -37.529788970947266, -35.17613220214844, -32.82247543334961, -30.46881866455078, -28.115161895751953, -25.761505126953125, -23.407848358154297, -21.05419158935547, -18.70053482055664, -16.346878051757812, -13.993221282958984, -11.639564514160156, -9.285907745361328, -6.9322509765625, -4.578594207763672, -2.2249374389648438, 0.12871932983398438, 2.4823760986328125, 4.836032867431641, 7.189689636230469, 9.543346405029297, 11.897003173828125, 14.250659942626953, 16.60431671142578, 18.95797348022461, 21.311630249023438, 23.665287017822266, 26.018951416015625, 28.372608184814453, 30.72626495361328, 33.07992172241211, 35.43357849121094, 37.787235260009766, 40.140892028808594, 42.49454879760742, 44.84820556640625, 47.20186233520508, 49.555519104003906, 51.909175872802734, 54.26283264160156, 56.61648941040039, 58.97014617919922, 61.32380294799805, 63.677459716796875, 66.03111267089844, 68.38477325439453, 70.73843383789062, 73.09208679199219, 75.44573974609375, 77.79940032958984, 80.15306091308594, 82.5067138671875, 84.86036682128906, 87.21402740478516, 89.56768798828125, 91.92134094238281, 94.27499389648438, 96.62865447998047, 98.98231506347656, 101.33596801757812]}, "gradients/module.linear1_3.bias": {"_type": "histogram", "values": [1.0, 0.0, 1.0, 3.0, 1.0, 0.0, 0.0, 1.0, 0.0, 1.0, 1.0, 0.0, 0.0, 1.0, 2.0, 2.0, 2.0, 2.0, 5.0, 2.0, 1.0, 4.0, 5.0, 7.0, 12.0, 19.0, 25.0, 6.0, 7.0, 21.0, 15.0, 16.0, 10.0, 14.0, 15.0, 9.0, 4.0, 9.0, 4.0, 5.0, 6.0, 1.0, 1.0, 2.0, 2.0, 1.0, 1.0, 1.0, 0.0, 1.0, 3.0, 1.0, 1.0, 0.0, 0.0, 0.0, 0.0, 0.0, 0.0, 0.0, 1.0, 0.0, 0.0, 1.0], "bins": [-0.0117034912109375, -0.011307001113891602, -0.010910511016845703, -0.010514020919799805, -0.010117530822753906, -0.009721040725708008, -0.00932455062866211, -0.008928060531616211, -0.008531570434570312, -0.008135080337524414, -0.007738590240478516, -0.007342100143432617, -0.006945610046386719, -0.00654911994934082, -0.006152629852294922, -0.0057561397552490234, -0.005359649658203125, -0.0049631595611572266, -0.004566669464111328, -0.00417017936706543, -0.0037736892700195312, -0.003377199172973633, -0.0029807090759277344, -0.002584218978881836, -0.0021877288818359375, -0.001791238784790039, -0.0013947486877441406, -0.0009982585906982422, -0.0006017684936523438, -0.0002052783966064453, 0.00019121170043945312, 0.0005877017974853516, 0.00098419189453125, 0.0013806819915771484, 0.0017771720886230469, 0.0021736621856689453, 0.0025701522827148438, 0.002966642379760742, 0.0033631324768066406, 0.003759622573852539, 0.0041561126708984375, 0.004552602767944336, 0.004949092864990234, 0.005345582962036133, 0.005742073059082031, 0.00613856315612793, 0.006535053253173828, 0.0069315433502197266, 0.007328033447265625, 0.0077245235443115234, 0.008121013641357422, 0.00851750373840332, 0.008913993835449219, 0.009310483932495117, 0.009706974029541016, 0.010103464126586914, 0.010499954223632812, 0.010896444320678711, 0.01129293441772461, 0.011689424514770508, 0.012085914611816406, 0.012482404708862305, 0.012878894805908203, 0.013275384902954102, 0.013671875]}, "gradients/module.linear1_3.weight": {"_type": "histogram", "values": [2.0, 2.0, 1.0, 0.0, 1.0, 1.0, 1.0, 0.0, 2.0, 3.0, 2.0, 4.0, 11.0, 3.0, 11.0, 10.0, 14.0, 18.0, 39.0, 44.0, 52.0, 103.0, 113.0, 171.0, 252.0, 398.0, 594.0, 887.0, 1395.0, 2358.0, 4359.0, 10316.0, 41660.0, 47129.0, 10327.0, 3595.0, 1979.0, 1306.0, 914.0, 682.0, 483.0, 425.0, 325.0, 254.0, 196.0, 161.0, 121.0, 96.0, 83.0, 54.0, 31.0, 28.0, 22.0, 19.0, 4.0, 3.0, 4.0, 1.0, 0.0, 2.0, 0.0, 0.0, 0.0, 1.0], "bins": [-238.0, -230.78515625, -223.5703125, -216.35546875, -209.140625, -201.92578125, -194.7109375, -187.49609375, -180.28125, -173.06640625, -165.8515625, -158.63671875, -151.421875, -144.20703125, -136.9921875, -129.77734375, -122.5625, -115.34765625, -108.1328125, -100.91796875, -93.703125, -86.48828125, -79.2734375, -72.05859375, -64.84375, -57.62890625, -50.4140625, -43.19921875, -35.984375, -28.76953125, -21.5546875, -14.33984375, -7.125, 0.08984375, 7.3046875, 14.51953125, 21.734375, 28.94921875, 36.1640625, 43.37890625, 50.59375, 57.80859375, 65.0234375, 72.23828125, 79.453125, 86.66796875, 93.8828125, 101.09765625, 108.3125, 115.52734375, 122.7421875, 129.95703125, 137.171875, 144.38671875, 151.6015625, 158.81640625, 166.03125, 173.24609375, 180.4609375, 187.67578125, 194.890625, 202.10546875, 209.3203125, 216.53515625, 223.75]}, "gradients/module.bn2.weight": {"_type": "histogram", "values": [1.0, 0.0, 0.0, 0.0, 0.0, 0.0, 0.0, 4.0, 2.0, 3.0, 1.0, 1.0, 1.0, 4.0, 3.0, 3.0, 3.0, 4.0, 8.0, 11.0, 11.0, 12.0, 10.0, 11.0, 12.0, 20.0, 21.0, 18.0, 32.0, 20.0, 34.0, 31.0, 37.0, 32.0, 35.0, 17.0, 21.0, 11.0, 15.0, 9.0, 5.0, 8.0, 6.0, 4.0, 3.0, 3.0, 6.0, 4.0, 3.0, 3.0, 1.0, 0.0, 0.0, 0.0, 1.0, 4.0, 1.0, 0.0, 0.0, 1.0, 0.0, 0.0, 0.0, 1.0], "bins": [-69.94966125488281, -67.67977905273438, -65.40990447998047, -63.1400260925293, -60.870147705078125, -58.60026550292969, -56.330387115478516, -54.060508728027344, -51.79063034057617, -49.520751953125, -47.25087356567383, -44.980995178222656, -42.71111297607422, -40.44123840332031, -38.171356201171875, -35.9014778137207, -33.63159942626953, -31.36172103881836, -29.091842651367188, -26.821962356567383, -24.55208396911621, -22.28220558166504, -20.012325286865234, -17.742446899414062, -15.47256851196289, -13.202690124511719, -10.93281078338623, -8.662931442260742, -6.39305305480957, -4.123174667358398, -1.8532953262329102, 0.4165840148925781, 2.68646240234375, 4.95634126663208, 7.22622013092041, 9.496099472045898, 11.76597785949707, 14.035856246948242, 16.305736541748047, 18.57561492919922, 20.84549331665039, 23.115371704101562, 25.385250091552734, 27.65513038635254, 29.92500877380371, 32.19488525390625, 34.46476745605469, 36.73464584350586, 39.00452423095703, 41.2744026184082, 43.544281005859375, 45.81415939331055, 48.08403778076172, 50.353919982910156, 52.62379837036133, 54.8936767578125, 57.16355514526367, 59.433433532714844, 61.703311920166016, 63.97319030761719, 66.24307250976562, 68.51294708251953, 70.78282928466797, 73.05270385742188, 75.32258605957031]}, "gradients/module.bn2.bias": {"_type": "histogram", "values": [2.0, 3.0, 2.0, 1.0, 3.0, 3.0, 3.0, 8.0, 5.0, 5.0, 2.0, 6.0, 6.0, 5.0, 12.0, 3.0, 14.0, 15.0, 15.0, 20.0, 20.0, 31.0, 24.0, 22.0, 26.0, 30.0, 27.0, 23.0, 36.0, 13.0, 12.0, 25.0, 11.0, 8.0, 3.0, 4.0, 13.0, 4.0, 5.0, 6.0, 2.0, 5.0, 6.0, 5.0, 0.0, 2.0, 4.0, 0.0, 2.0, 2.0, 1.0, 3.0, 0.0, 2.0, 0.0, 0.0, 1.0, 0.0, 0.0, 0.0, 0.0, 0.0, 0.0, 1.0], "bins": [-44.3177490234375, -42.407005310058594, -40.49626159667969, -38.58551788330078, -36.674774169921875, -34.76403045654297, -32.85328674316406, -30.942541122436523, -29.031797409057617, -27.12105369567871, -25.210309982299805, -23.299564361572266, -21.38882064819336, -19.478076934814453, -17.567333221435547, -15.65658950805664, -13.745845794677734, -11.835102081298828, -9.924358367919922, -8.0136137008667, -6.102869987487793, -4.192126274108887, -2.281381607055664, -0.3706378936767578, 1.5401058197021484, 3.450849771499634, 5.361593723297119, 7.272337913513184, 9.18308162689209, 11.093825340270996, 13.004570007324219, 14.915313720703125, 16.82605743408203, 18.736801147460938, 20.647544860839844, 22.55828857421875, 24.469032287597656, 26.379776000976562, 28.2905216217041, 30.201265335083008, 32.11200714111328, 34.02275085449219, 35.933494567871094, 37.84423828125, 39.754981994628906, 41.66572570800781, 43.57646942138672, 45.487213134765625, 47.3979606628418, 49.3087043762207, 51.21944808959961, 53.130191802978516, 55.04093551635742, 56.95167922973633, 58.8624267578125, 60.773170471191406, 62.68391418457031, 64.59465789794922, 66.50540161132812, 68.41614532470703, 70.32688903808594, 72.23763275146484, 74.14837646484375, 76.05912017822266, 77.96986389160156]}, "gradients/module.linear_ch_3.bias": {"_type": "histogram", "values": [1.0, 0.0, 0.0, 0.0, 0.0, 0.0, 0.0, 0.0, 0.0, 0.0, 1.0, 0.0, 0.0, 0.0, 0.0, 2.0, 0.0, 0.0, 5.0, 1.0, 0.0, 2.0, 3.0, 1.0, 4.0, 6.0, 6.0, 5.0, 8.0, 12.0, 16.0, 26.0, 26.0, 22.0, 31.0, 45.0, 28.0, 29.0, 51.0, 38.0, 27.0, 18.0, 20.0, 11.0, 15.0, 17.0, 9.0, 7.0, 2.0, 4.0, 2.0, 3.0, 3.0, 1.0, 1.0, 0.0, 1.0, 0.0, 0.0, 0.0, 0.0, 1.0, 0.0, 1.0], "bins": [-0.0125732421875, -0.012230873107910156, -0.011888504028320312, -0.011546134948730469, -0.011203765869140625, -0.010861396789550781, -0.010519027709960938, -0.010176658630371094, -0.00983428955078125, -0.009491920471191406, -0.009149551391601562, -0.008807182312011719, -0.008464813232421875, -0.008122444152832031, -0.0077800750732421875, -0.007437705993652344, -0.0070953369140625, -0.006752967834472656, -0.0064105987548828125, -0.006068229675292969, -0.005725860595703125, -0.005383491516113281, -0.0050411224365234375, -0.004698753356933594, -0.00435638427734375, -0.004014015197753906, -0.0036716461181640625, -0.0033292770385742188, -0.002986907958984375, -0.0026445388793945312, -0.0023021697998046875, -0.0019598007202148438, -0.001617431640625, -0.0012750625610351562, -0.0009326934814453125, -0.0005903244018554688, -0.000247955322265625, 9.441375732421875e-05, 0.0004367828369140625, 0.0007791519165039062, 0.00112152099609375, 0.0014638900756835938, 0.0018062591552734375, 0.0021486282348632812, 0.002490997314453125, 0.0028333663940429688, 0.0031757354736328125, 0.0035181045532226562, 0.0038604736328125, 0.004202842712402344, 0.0045452117919921875, 0.004887580871582031, 0.005229949951171875, 0.005572319030761719, 0.0059146881103515625, 0.006257057189941406, 0.00659942626953125, 0.006941795349121094, 0.0072841644287109375, 0.007626533508300781, 0.007968902587890625, 0.008311271667480469, 0.008653640747070312, 0.008996009826660156, 0.00933837890625]}, "gradients/module.linear_ch_3.weight": {"_type": "histogram", "values": [1.0, 0.0, 0.0, 0.0, 0.0, 0.0, 1.0, 2.0, 1.0, 2.0, 1.0, 0.0, 3.0, 4.0, 8.0, 3.0, 10.0, 11.0, 12.0, 15.0, 17.0, 29.0, 52.0, 70.0, 88.0, 134.0, 157.0, 251.0, 358.0, 532.0, 851.0, 1270.0, 2329.0, 3942.0, 6619.0, 11124.0, 17085.0, 22444.0, 22153.0, 16124.0, 10158.0, 6091.0, 3671.0, 2113.0, 1285.0, 763.0, 461.0, 300.0, 181.0, 105.0, 92.0, 47.0, 25.0, 30.0, 15.0, 12.0, 3.0, 7.0, 3.0, 5.0, 0.0, 1.0, 0.0, 1.0], "bins": [-85.5, -83.2392578125, -80.978515625, -78.7177734375, -76.45703125, -74.1962890625, -71.935546875, -69.6748046875, -67.4140625, -65.1533203125, -62.892578125, -60.6318359375, -58.37109375, -56.1103515625, -53.849609375, -51.5888671875, -49.328125, -47.0673828125, -44.806640625, -42.5458984375, -40.28515625, -38.0244140625, -35.763671875, -33.5029296875, -31.2421875, -28.9814453125, -26.720703125, -24.4599609375, -22.19921875, -19.9384765625, -17.677734375, -15.4169921875, -13.15625, -10.8955078125, -8.634765625, -6.3740234375, -4.11328125, -1.8525390625, 0.408203125, 2.6689453125, 4.9296875, 7.1904296875, 9.451171875, 11.7119140625, 13.97265625, 16.2333984375, 18.494140625, 20.7548828125, 23.015625, 25.2763671875, 27.537109375, 29.7978515625, 32.05859375, 34.3193359375, 36.580078125, 38.8408203125, 41.1015625, 43.3623046875, 45.623046875, 47.8837890625, 50.14453125, 52.4052734375, 54.666015625, 56.9267578125, 59.1875]}, "gradients/module.bn_ch_2.weight": {"_type": "histogram", "values": [1.0, 0.0, 0.0, 0.0, 0.0, 0.0, 0.0, 0.0, 0.0, 0.0, 0.0, 0.0, 0.0, 1.0, 1.0, 1.0, 0.0, 0.0, 0.0, 0.0, 1.0, 1.0, 2.0, 3.0, 3.0, 3.0, 2.0, 6.0, 5.0, 4.0, 4.0, 3.0, 3.0, 11.0, 6.0, 16.0, 8.0, 6.0, 13.0, 18.0, 15.0, 14.0, 13.0, 14.0, 8.0, 12.0, 13.0, 6.0, 9.0, 9.0, 7.0, 3.0, 0.0, 0.0, 2.0, 1.0, 1.0, 1.0, 0.0, 3.0, 1.0, 1.0, 0.0, 1.0], "bins": [-77.27935791015625, -75.33584594726562, -73.39232635498047, -71.44881439208984, -69.50529479980469, -67.56178283691406, -65.61827087402344, -63.67475128173828, -61.731239318847656, -59.787723541259766, -57.844207763671875, -55.90069580078125, -53.95718002319336, -52.01366424560547, -50.07014846801758, -48.12663269042969, -46.1831169128418, -44.239601135253906, -42.296085357666016, -40.352569580078125, -38.4090576171875, -36.46554183959961, -34.52202606201172, -32.57851028442383, -30.63499641418457, -28.69148063659668, -26.747966766357422, -24.80445098876953, -22.86093521118164, -20.917421340942383, -18.973905563354492, -17.030391693115234, -15.086875915527344, -13.14336109161377, -11.199846267700195, -9.256330490112305, -7.3128156661987305, -5.369300842285156, -3.4257850646972656, -1.4822702407836914, 0.4612445831298828, 2.404759645462036, 4.3482747077941895, 6.291790008544922, 8.235304832458496, 10.17881965637207, 12.122335433959961, 14.065850257873535, 16.00936508178711, 17.952880859375, 19.896394729614258, 21.83991050720215, 23.783424377441406, 25.726940155029297, 27.670455932617188, 29.613971710205078, 31.557485580444336, 33.500999450683594, 35.444515228271484, 37.388031005859375, 39.331546783447266, 41.275062561035156, 43.21857452392578, 45.16209030151367, 47.10560607910156]}, "gradients/module.bn_ch_2.bias": {"_type": "histogram", "values": [1.0, 0.0, 0.0, 0.0, 0.0, 1.0, 3.0, 1.0, 0.0, 1.0, 0.0, 1.0, 1.0, 1.0, 2.0, 2.0, 2.0, 3.0, 3.0, 1.0, 4.0, 3.0, 5.0, 9.0, 8.0, 5.0, 5.0, 5.0, 12.0, 7.0, 9.0, 10.0, 12.0, 11.0, 9.0, 7.0, 8.0, 12.0, 9.0, 12.0, 10.0, 13.0, 8.0, 8.0, 9.0, 6.0, 4.0, 1.0, 3.0, 1.0, 2.0, 1.0, 3.0, 0.0, 0.0, 0.0, 0.0, 0.0, 0.0, 0.0, 0.0, 0.0, 0.0, 2.0], "bins": [-52.89262390136719, -51.290931701660156, -49.689239501953125, -48.087547302246094, -46.48585510253906, -44.88416290283203, -43.282470703125, -41.680782318115234, -40.0790901184082, -38.47739791870117, -36.87570571899414, -35.27401351928711, -33.67232131958008, -32.07063293457031, -30.46893882751465, -28.86724853515625, -27.265554428100586, -25.663862228393555, -24.062170028686523, -22.460479736328125, -20.858787536621094, -19.257095336914062, -17.65540313720703, -16.0537109375, -14.452019691467285, -12.850327491760254, -11.248636245727539, -9.646944046020508, -8.045251846313477, -6.443560600280762, -4.8418684005737305, -3.2401771545410156, -1.6384849548339844, -0.03679311275482178, 1.5648987293243408, 3.166590690612793, 4.768282413482666, 6.369974136352539, 7.97166633605957, 9.573357582092285, 11.175049781799316, 12.776741981506348, 14.378433227539062, 15.980125427246094, 17.581817626953125, 19.183509826660156, 20.785202026367188, 22.386892318725586, 23.988584518432617, 25.59027671813965, 27.19196891784668, 28.793659210205078, 30.39535140991211, 31.99704360961914, 33.59873580932617, 35.2004280090332, 36.802120208740234, 38.403812408447266, 40.0055046081543, 41.60719680786133, 43.20888900756836, 44.810577392578125, 46.412269592285156, 48.01396179199219, 49.61565399169922]}, "gradients/module.linear_ch_2.bias": {"_type": "histogram", "values": [1.0, 0.0, 0.0, 0.0, 0.0, 0.0, 1.0, 0.0, 0.0, 0.0, 0.0, 1.0, 2.0, 0.0, 1.0, 1.0, 2.0, 6.0, 5.0, 2.0, 1.0, 1.0, 10.0, 3.0, 0.0, 6.0, 8.0, 11.0, 5.0, 13.0, 9.0, 12.0, 11.0, 15.0, 9.0, 11.0, 14.0, 6.0, 12.0, 5.0, 9.0, 6.0, 3.0, 7.0, 3.0, 8.0, 7.0, 2.0, 3.0, 3.0, 2.0, 5.0, 3.0, 2.0, 2.0, 1.0, 0.0, 1.0, 1.0, 1.0, 2.0, 0.0, 0.0, 1.0], "bins": [-0.0219573974609375, -0.02133345603942871, -0.020709514617919922, -0.020085573196411133, -0.019461631774902344, -0.018837690353393555, -0.018213748931884766, -0.017589807510375977, -0.016965866088867188, -0.0163419246673584, -0.01571798324584961, -0.01509404182434082, -0.014470100402832031, -0.013846158981323242, -0.013222217559814453, -0.012598276138305664, -0.011974334716796875, -0.011350393295288086, -0.010726451873779297, -0.010102510452270508, -0.009478569030761719, -0.00885462760925293, -0.00823068618774414, -0.0076067447662353516, -0.0069828033447265625, -0.0063588619232177734, -0.005734920501708984, -0.005110979080200195, -0.004487037658691406, -0.003863096237182617, -0.003239154815673828, -0.002615213394165039, -0.00199127197265625, -0.001367330551147461, -0.0007433891296386719, -0.00011944770812988281, 0.0005044937133789062, 0.0011284351348876953, 0.0017523765563964844, 0.0023763179779052734, 0.0030002593994140625, 0.0036242008209228516, 0.004248142242431641, 0.00487208366394043, 0.005496025085449219, 0.006119966506958008, 0.006743907928466797, 0.007367849349975586, 0.007991790771484375, 0.008615732192993164, 0.009239673614501953, 0.009863615036010742, 0.010487556457519531, 0.01111149787902832, 0.01173543930053711, 0.012359380722045898, 0.012983322143554688, 0.013607263565063477, 0.014231204986572266, 0.014855146408081055, 0.015479087829589844, 0.016103029251098633, 0.016726970672607422, 0.01735091209411621, 0.017974853515625]}, "gradients/module.linear_ch_2.weight": {"_type": "histogram", "values": [4.0, 0.0, 1.0, 3.0, 1.0, 4.0, 3.0, 8.0, 4.0, 6.0, 5.0, 15.0, 14.0, 20.0, 24.0, 34.0, 60.0, 55.0, 86.0, 114.0, 173.0, 239.0, 377.0, 589.0, 849.0, 1224.0, 1821.0, 2532.0, 3134.0, 3935.0, 4101.0, 3461.0, 2826.0, 2069.0, 1505.0, 1006.0, 714.0, 527.0, 350.0, 253.0, 176.0, 109.0, 89.0, 62.0, 51.0, 36.0, 22.0, 14.0, 20.0, 10.0, 13.0, 5.0, 4.0, 4.0, 3.0, 1.0, 0.0, 1.0, 1.0, 0.0, 0.0, 0.0, 0.0, 1.0], "bins": [-148.5, -143.57421875, -138.6484375, -133.72265625, -128.796875, -123.87109375, -118.9453125, -114.01953125, -109.09375, -104.16796875, -99.2421875, -94.31640625, -89.390625, -84.46484375, -79.5390625, -74.61328125, -69.6875, -64.76171875, -59.8359375, -54.91015625, -49.984375, -45.05859375, -40.1328125, -35.20703125, -30.28125, -25.35546875, -20.4296875, -15.50390625, -10.578125, -5.65234375, -0.7265625, 4.19921875, 9.125, 14.05078125, 18.9765625, 23.90234375, 28.828125, 33.75390625, 38.6796875, 43.60546875, 48.53125, 53.45703125, 58.3828125, 63.30859375, 68.234375, 73.16015625, 78.0859375, 83.01171875, 87.9375, 92.86328125, 97.7890625, 102.71484375, 107.640625, 112.56640625, 117.4921875, 122.41796875, 127.34375, 132.26953125, 137.1953125, 142.12109375, 147.046875, 151.97265625, 156.8984375, 161.82421875, 166.75]}, "gradients/module.bn_ch_1.weight": {"_type": "histogram", "values": [3.0, 0.0, 1.0, 1.0, 1.0, 1.0, 1.0, 1.0, 3.0, 1.0, 1.0, 1.0, 0.0, 0.0, 1.0, 2.0, 1.0, 2.0, 1.0, 2.0, 2.0, 3.0, 2.0, 1.0, 1.0, 3.0, 3.0, 6.0, 0.0, 5.0, 5.0, 3.0, 5.0, 8.0, 5.0, 3.0, 5.0, 6.0, 4.0, 4.0, 4.0, 4.0, 3.0, 1.0, 1.0, 3.0, 1.0, 1.0, 1.0, 1.0, 1.0, 1.0, 1.0, 1.0, 0.0, 1.0, 1.0, 0.0, 0.0, 1.0, 0.0, 2.0, 0.0, 1.0], "bins": [-109.36573791503906, -105.8836669921875, -102.4015884399414, -98.91951751708984, -95.43744659423828, -91.95536804199219, -88.47329711914062, -84.99122619628906, -81.5091552734375, -78.02708435058594, -74.54500579833984, -71.06293487548828, -67.58086395263672, -64.09878540039062, -60.61671447753906, -57.1346435546875, -53.65256881713867, -50.170494079589844, -46.68842315673828, -43.20634841918945, -39.72427749633789, -36.24220275878906, -32.7601318359375, -29.278057098388672, -25.795984268188477, -22.31391143798828, -18.831838607788086, -15.349764823913574, -11.867691993713379, -8.385618209838867, -4.903545379638672, -1.4214725494384766, 2.0606002807617188, 5.542673110961914, 9.02474594116211, 12.506819725036621, 15.988892555236816, 19.470966339111328, 22.953039169311523, 26.43511199951172, 29.917184829711914, 33.39925765991211, 36.88133239746094, 40.3634033203125, 43.84547805786133, 47.327552795410156, 50.80962371826172, 54.29169464111328, 57.77376937866211, 61.25584411621094, 64.7379150390625, 68.21998596191406, 71.70206451416016, 75.18413543701172, 78.66620635986328, 82.14828491210938, 85.63035583496094, 89.1124267578125, 92.5945053100586, 96.07657623291016, 99.55864715576172, 103.04072570800781, 106.52279663085938, 110.00486755371094, 113.4869384765625]}, "gradients/module.bn_ch_1.bias": {"_type": "histogram", "values": [1.0, 0.0, 0.0, 1.0, 0.0, 0.0, 0.0, 1.0, 1.0, 1.0, 1.0, 0.0, 1.0, 0.0, 0.0, 1.0, 2.0, 2.0, 3.0, 4.0, 1.0, 3.0, 2.0, 7.0, 3.0, 9.0, 9.0, 3.0, 8.0, 3.0, 9.0, 1.0, 6.0, 3.0, 6.0, 5.0, 6.0, 6.0, 3.0, 2.0, 1.0, 2.0, 0.0, 2.0, 2.0, 0.0, 1.0, 0.0, 0.0, 1.0, 1.0, 0.0, 2.0, 0.0, 0.0, 1.0, 0.0, 0.0, 0.0, 0.0, 0.0, 0.0, 0.0, 1.0], "bins": [-165.02841186523438, -159.44996643066406, -153.8715057373047, -148.29306030273438, -142.714599609375, -137.1361541748047, -131.55770874023438, -125.97925567626953, -120.40080261230469, -114.82234954833984, -109.243896484375, -103.66545104980469, -98.08699798583984, -92.508544921875, -86.93009948730469, -81.35164642333984, -75.773193359375, -70.19474029541016, -64.61628723144531, -59.037841796875, -53.459388732910156, -47.88093566894531, -42.302486419677734, -36.724037170410156, -31.145584106445312, -25.5671329498291, -19.98868179321289, -14.41023063659668, -8.831779479980469, -3.253328323364258, 2.325122833251953, 7.903572082519531, 13.482025146484375, 19.060476303100586, 24.638927459716797, 30.217378616333008, 35.79582977294922, 41.37428283691406, 46.95273208618164, 52.53118133544922, 58.10963439941406, 63.688087463378906, 69.26654052734375, 74.84498596191406, 80.4234390258789, 86.00189208984375, 91.58033752441406, 97.1587905883789, 102.73724365234375, 108.3156967163086, 113.89414978027344, 119.47259521484375, 125.0510482788086, 130.62950134277344, 136.20794677734375, 141.78640747070312, 147.36485290527344, 152.94329833984375, 158.52175903320312, 164.10020446777344, 169.67864990234375, 175.25711059570312, 180.83555603027344, 186.41400146484375, 191.99246215820312]}, "gradients/module.linear_ch_1.bias": {"_type": "histogram", "values": [1.0, 0.0, 0.0, 0.0, 0.0, 0.0, 0.0, 0.0, 0.0, 0.0, 0.0, 0.0, 0.0, 0.0, 0.0, 0.0, 0.0, 0.0, 0.0, 0.0, 0.0, 0.0, 0.0, 1.0, 1.0, 0.0, 0.0, 2.0, 2.0, 4.0, 1.0, 2.0, 0.0, 1.0, 1.0, 2.0, 3.0, 7.0, 10.0, 5.0, 10.0, 7.0, 10.0, 9.0, 7.0, 7.0, 4.0, 5.0, 3.0, 9.0, 2.0, 1.0, 2.0, 1.0, 3.0, 1.0, 1.0, 1.0, 0.0, 0.0, 0.0, 1.0, 0.0, 1.0], "bins": [-0.241455078125, -0.23569488525390625, -0.2299346923828125, -0.22417449951171875, -0.218414306640625, -0.21265411376953125, -0.2068939208984375, -0.20113372802734375, -0.19537353515625, -0.18961334228515625, -0.1838531494140625, -0.17809295654296875, -0.172332763671875, -0.16657257080078125, -0.1608123779296875, -0.15505218505859375, -0.1492919921875, -0.14353179931640625, -0.1377716064453125, -0.13201141357421875, -0.126251220703125, -0.12049102783203125, -0.1147308349609375, -0.10897064208984375, -0.10321044921875, -0.09745025634765625, -0.0916900634765625, -0.08592987060546875, -0.080169677734375, -0.07440948486328125, -0.0686492919921875, -0.06288909912109375, -0.05712890625, -0.05136871337890625, -0.0456085205078125, -0.03984832763671875, -0.034088134765625, -0.02832794189453125, -0.0225677490234375, -0.01680755615234375, -0.01104736328125, -0.00528717041015625, 0.0004730224609375, 0.00623321533203125, 0.011993408203125, 0.01775360107421875, 0.0235137939453125, 0.02927398681640625, 0.0350341796875, 0.04079437255859375, 0.0465545654296875, 0.05231475830078125, 0.058074951171875, 0.06383514404296875, 0.0695953369140625, 0.07535552978515625, 0.08111572265625, 0.08687591552734375, 0.0926361083984375, 0.09839630126953125, 0.104156494140625, 0.10991668701171875, 0.1156768798828125, 0.12143707275390625, 0.127197265625]}, "gradients/module.linear_ch_1.weight": {"_type": "histogram", "values": [1.0, 0.0, 1.0, 0.0, 0.0, 1.0, 0.0, 1.0, 0.0, 0.0, 1.0, 1.0, 1.0, 2.0, 2.0, 3.0, 4.0, 10.0, 10.0, 6.0, 16.0, 17.0, 30.0, 35.0, 41.0, 71.0, 71.0, 88.0, 162.0, 193.0, 210.0, 269.0, 1427.0, 258.0, 207.0, 152.0, 93.0, 72.0, 68.0, 41.0, 32.0, 33.0, 13.0, 15.0, 15.0, 12.0, 6.0, 3.0, 6.0, 1.0, 1.0, 1.0, 3.0, 1.0, 0.0, 2.0, 0.0, 0.0, 0.0, 0.0, 1.0, 0.0, 0.0, 2.0], "bins": [-746.5, -723.4921875, -700.484375, -677.4765625, -654.46875, -631.4609375, -608.453125, -585.4453125, -562.4375, -539.4296875, -516.421875, -493.4140625, -470.40625, -447.3984375, -424.390625, -401.3828125, -378.375, -355.3671875, -332.359375, -309.3515625, -286.34375, -263.3359375, -240.328125, -217.3203125, -194.3125, -171.3046875, -148.296875, -125.2890625, -102.28125, -79.2734375, -56.265625, -33.2578125, -10.25, 12.7578125, 35.765625, 58.7734375, 81.78125, 104.7890625, 127.796875, 150.8046875, 173.8125, 196.8203125, 219.828125, 242.8359375, 265.84375, 288.8515625, 311.859375, 334.8671875, 357.875, 380.8828125, 403.890625, 426.8984375, 449.90625, 472.9140625, 495.921875, 518.9296875, 541.9375, 564.9453125, 587.953125, 610.9609375, 633.96875, 656.9765625, 679.984375, 702.9921875, 726.0]}, "gradients/module.linear1_2.bias": {"_type": "histogram", "values": [1.0, 0.0, 0.0, 0.0, 0.0, 0.0, 0.0, 0.0, 0.0, 0.0, 1.0, 0.0, 0.0, 0.0, 0.0, 2.0, 0.0, 0.0, 5.0, 1.0, 0.0, 2.0, 3.0, 1.0, 4.0, 6.0, 6.0, 5.0, 8.0, 12.0, 16.0, 26.0, 26.0, 22.0, 31.0, 45.0, 28.0, 29.0, 51.0, 38.0, 27.0, 18.0, 20.0, 11.0, 15.0, 17.0, 9.0, 7.0, 2.0, 4.0, 2.0, 3.0, 3.0, 1.0, 1.0, 0.0, 1.0, 0.0, 0.0, 0.0, 0.0, 1.0, 0.0, 1.0], "bins": [-0.0125732421875, -0.012230873107910156, -0.011888504028320312, -0.011546134948730469, -0.011203765869140625, -0.010861396789550781, -0.010519027709960938, -0.010176658630371094, -0.00983428955078125, -0.009491920471191406, -0.009149551391601562, -0.008807182312011719, -0.008464813232421875, -0.008122444152832031, -0.0077800750732421875, -0.007437705993652344, -0.0070953369140625, -0.006752967834472656, -0.0064105987548828125, -0.006068229675292969, -0.005725860595703125, -0.005383491516113281, -0.0050411224365234375, -0.004698753356933594, -0.00435638427734375, -0.004014015197753906, -0.0036716461181640625, -0.0033292770385742188, -0.002986907958984375, -0.0026445388793945312, -0.0023021697998046875, -0.0019598007202148438, -0.001617431640625, -0.0012750625610351562, -0.0009326934814453125, -0.0005903244018554688, -0.000247955322265625, 9.441375732421875e-05, 0.0004367828369140625, 0.0007791519165039062, 0.00112152099609375, 0.0014638900756835938, 0.0018062591552734375, 0.0021486282348632812, 0.002490997314453125, 0.0028333663940429688, 0.0031757354736328125, 0.0035181045532226562, 0.0038604736328125, 0.004202842712402344, 0.0045452117919921875, 0.004887580871582031, 0.005229949951171875, 0.005572319030761719, 0.0059146881103515625, 0.006257057189941406, 0.00659942626953125, 0.006941795349121094, 0.0072841644287109375, 0.007626533508300781, 0.007968902587890625, 0.008311271667480469, 0.008653640747070312, 0.008996009826660156, 0.00933837890625]}, "gradients/module.linear1_2.weight": {"_type": "histogram", "values": [1.0, 0.0, 2.0, 0.0, 1.0, 2.0, 6.0, 3.0, 7.0, 10.0, 18.0, 16.0, 29.0, 35.0, 57.0, 86.0, 114.0, 160.0, 214.0, 289.0, 424.0, 637.0, 1022.0, 1507.0, 2349.0, 3846.0, 6208.0, 11243.0, 21975.0, 50541.0, 124982.0, 156459.0, 73040.0, 31084.0, 15005.0, 8017.0, 4628.0, 2933.0, 2008.0, 1396.0, 986.0, 742.0, 527.0, 390.0, 324.0, 244.0, 196.0, 138.0, 111.0, 79.0, 59.0, 39.0, 23.0, 22.0, 19.0, 8.0, 10.0, 6.0, 5.0, 3.0, 0.0, 0.0, 0.0, 3.0], "bins": [-137.875, -133.4609375, -129.046875, -124.6328125, -120.21875, -115.8046875, -111.390625, -106.9765625, -102.5625, -98.1484375, -93.734375, -89.3203125, -84.90625, -80.4921875, -76.078125, -71.6640625, -67.25, -62.8359375, -58.421875, -54.0078125, -49.59375, -45.1796875, -40.765625, -36.3515625, -31.9375, -27.5234375, -23.109375, -18.6953125, -14.28125, -9.8671875, -5.453125, -1.0390625, 3.375, 7.7890625, 12.203125, 16.6171875, 21.03125, 25.4453125, 29.859375, 34.2734375, 38.6875, 43.1015625, 47.515625, 51.9296875, 56.34375, 60.7578125, 65.171875, 69.5859375, 74.0, 78.4140625, 82.828125, 87.2421875, 91.65625, 96.0703125, 100.484375, 104.8984375, 109.3125, 113.7265625, 118.140625, 122.5546875, 126.96875, 131.3828125, 135.796875, 140.2109375, 144.625]}, "gradients/module.bn1.weight": {"_type": "histogram", "values": [1.0, 0.0, 1.0, 0.0, 0.0, 0.0, 1.0, 2.0, 2.0, 1.0, 4.0, 2.0, 7.0, 2.0, 4.0, 6.0, 10.0, 11.0, 16.0, 14.0, 27.0, 26.0, 35.0, 36.0, 47.0, 60.0, 78.0, 63.0, 74.0, 56.0, 56.0, 51.0, 59.0, 54.0, 31.0, 36.0, 30.0, 18.0, 18.0, 11.0, 15.0, 8.0, 9.0, 7.0, 11.0, 3.0, 2.0, 3.0, 2.0, 3.0, 1.0, 2.0, 1.0, 0.0, 1.0, 2.0, 1.0, 1.0, 1.0, 0.0, 0.0, 0.0, 0.0, 1.0], "bins": [-43.12913513183594, -41.6541862487793, -40.17923355102539, -38.70428466796875, -37.22933578491211, -35.75438690185547, -34.27943420410156, -32.80448532104492, -31.32953453063965, -29.854583740234375, -28.379634857177734, -26.90468406677246, -25.429733276367188, -23.954784393310547, -22.479833602905273, -21.0048828125, -19.52993392944336, -18.054983139038086, -16.580034255981445, -15.105083465576172, -13.630133628845215, -12.155183792114258, -10.680233001708984, -9.205283164978027, -7.73033332824707, -6.255383491516113, -4.780433177947998, -3.305482864379883, -1.8305330276489258, -0.35558319091796875, 1.1193675994873047, 2.5943174362182617, 4.069267272949219, 5.544217109680176, 7.019167423248291, 8.494117736816406, 9.969067573547363, 11.44401741027832, 12.918968200683594, 14.39391803741455, 15.868867874145508, 17.34381866455078, 18.818767547607422, 20.293718338012695, 21.76866912841797, 23.24361801147461, 24.718568801879883, 26.193519592285156, 27.668468475341797, 29.14341926574707, 30.61836814880371, 32.093318939208984, 33.568267822265625, 35.04322052001953, 36.51816940307617, 37.99311828613281, 39.46807098388672, 40.94301986694336, 42.417972564697266, 43.892921447753906, 45.36787033081055, 46.84281921386719, 48.317771911621094, 49.792720794677734, 51.267669677734375]}, "gradients/module.bn1.bias": {"_type": "histogram", "values": [1.0, 0.0, 0.0, 1.0, 1.0, 3.0, 1.0, 0.0, 4.0, 3.0, 0.0, 4.0, 3.0, 7.0, 4.0, 6.0, 10.0, 9.0, 10.0, 17.0, 20.0, 26.0, 37.0, 29.0, 34.0, 33.0, 37.0, 51.0, 40.0, 46.0, 41.0, 49.0, 61.0, 41.0, 55.0, 48.0, 39.0, 36.0, 42.0, 33.0, 18.0, 15.0, 25.0, 22.0, 13.0, 5.0, 8.0, 6.0, 2.0, 7.0, 3.0, 2.0, 2.0, 5.0, 4.0, 2.0, 0.0, 0.0, 0.0, 0.0, 1.0, 1.0, 0.0, 1.0], "bins": [-27.774185180664062, -26.886371612548828, -25.998559951782227, -25.110746383666992, -24.22293472290039, -23.335121154785156, -22.447307586669922, -21.559494018554688, -20.671682357788086, -19.78386878967285, -18.89605712890625, -18.008243560791016, -17.12042999267578, -16.23261833190918, -15.344804763793945, -14.456992149353027, -13.56917953491211, -12.681366920471191, -11.793554306030273, -10.905740737915039, -10.017928123474121, -9.130115509033203, -8.242301940917969, -7.354489326477051, -6.466676712036133, -5.578864097595215, -4.691051006317139, -3.8032381534576416, -2.9154253005981445, -2.0276126861572266, -1.1397995948791504, -0.2519865036010742, 0.6358242034912109, 1.523637056350708, 2.411449909210205, 3.299262762069702, 4.187075614929199, 5.074888229370117, 5.962701320648193, 6.8505144119262695, 7.7383270263671875, 8.626139640808105, 9.513952255249023, 10.401765823364258, 11.289578437805176, 12.177391052246094, 13.065204620361328, 13.953017234802246, 14.840829849243164, 15.728642463684082, 16.616455078125, 17.504268646240234, 18.39208221435547, 19.27989387512207, 20.167707443237305, 21.055519104003906, 21.94333267211914, 22.831146240234375, 23.718957901000977, 24.60677146911621, 25.494583129882812, 26.382396697998047, 27.27021026611328, 28.158023834228516, 29.045835494995117]}, "gradients/module.linear1_1.bias": {"_type": "histogram", "values": [1.0, 0.0, 0.0, 0.0, 1.0, 0.0, 0.0, 0.0, 0.0, 0.0, 0.0, 1.0, 0.0, 4.0, 4.0, 2.0, 1.0, 2.0, 3.0, 11.0, 11.0, 16.0, 22.0, 26.0, 31.0, 46.0, 55.0, 66.0, 76.0, 76.0, 92.0, 90.0, 80.0, 60.0, 55.0, 40.0, 39.0, 24.0, 27.0, 18.0, 8.0, 8.0, 5.0, 6.0, 3.0, 4.0, 2.0, 0.0, 1.0, 2.0, 2.0, 0.0, 0.0, 1.0, 1.0, 0.0, 0.0, 0.0, 0.0, 0.0, 0.0, 0.0, 0.0, 1.0], "bins": [-0.00608062744140625, -0.005882680416107178, -0.0056847333908081055, -0.005486786365509033, -0.005288839340209961, -0.005090892314910889, -0.004892945289611816, -0.004694998264312744, -0.004497051239013672, -0.0042991042137146, -0.004101157188415527, -0.003903210163116455, -0.003705263137817383, -0.0035073161125183105, -0.0033093690872192383, -0.003111422061920166, -0.0029134750366210938, -0.0027155280113220215, -0.0025175809860229492, -0.002319633960723877, -0.0021216869354248047, -0.0019237399101257324, -0.0017257928848266602, -0.0015278458595275879, -0.0013298988342285156, -0.0011319518089294434, -0.0009340047836303711, -0.0007360577583312988, -0.0005381107330322266, -0.0003401637077331543, -0.00014221668243408203, 5.5730342864990234e-05, 0.0002536773681640625, 0.00045162439346313477, 0.000649571418762207, 0.0008475184440612793, 0.0010454654693603516, 0.0012434124946594238, 0.001441359519958496, 0.0016393065452575684, 0.0018372535705566406, 0.002035200595855713, 0.002233147621154785, 0.0024310946464538574, 0.0026290416717529297, 0.002826988697052002, 0.0030249357223510742, 0.0032228827476501465, 0.0034208297729492188, 0.003618776798248291, 0.0038167238235473633, 0.0040146708488464355, 0.004212617874145508, 0.00441056489944458, 0.004608511924743652, 0.004806458950042725, 0.005004405975341797, 0.005202353000640869, 0.005400300025939941, 0.005598247051239014, 0.005796194076538086, 0.005994141101837158, 0.0061920881271362305, 0.006390035152435303, 0.006587982177734375]}, "gradients/module.linear1_1.weight": {"_type": "histogram", "values": [1.0, 0.0, 0.0, 0.0, 1.0, 0.0, 1.0, 1.0, 0.0, 2.0, 2.0, 1.0, 5.0, 4.0, 2.0, 8.0, 12.0, 12.0, 15.0, 27.0, 28.0, 43.0, 73.0, 95.0, 142.0, 231.0, 483.0, 1284.0, 7243.0, 51106036.0, 79708.0, 2693.0, 805.0, 385.0, 190.0, 135.0, 85.0, 70.0, 45.0, 26.0, 20.0, 17.0, 13.0, 6.0, 5.0, 9.0, 5.0, 7.0, 6.0, 2.0, 3.0, 3.0, 1.0, 3.0, 0.0, 1.0, 0.0, 0.0, 0.0, 0.0, 0.0, 0.0, 0.0, 1.0], "bins": [-4164.0, -4024.1875, -3884.375, -3744.5625, -3604.75, -3464.9375, -3325.125, -3185.3125, -3045.5, -2905.6875, -2765.875, -2626.0625, -2486.25, -2346.4375, -2206.625, -2066.8125, -1927.0, -1787.1875, -1647.375, -1507.5625, -1367.75, -1227.9375, -1088.125, -948.3125, -808.5, -668.6875, -528.875, -389.0625, -249.25, -109.4375, 30.375, 170.1875, 310.0, 449.8125, 589.625, 729.4375, 869.25, 1009.0625, 1148.875, 1288.6875, 1428.5, 1568.3125, 1708.125, 1847.9375, 1987.75, 2127.5625, 2267.375, 2407.1875, 2547.0, 2686.8125, 2826.625, 2966.4375, 3106.25, 3246.0625, 3385.875, 3525.6875, 3665.5, 3805.3125, 3945.125, 4084.9375, 4224.75, 4364.5625, 4504.375, 4644.1875, 4784.0]}, "Train loss": 73.10213670252496, "Train Accuracy Margin-0": 7.341673895463099, "Train Accuracy Margin-1": 21.459397358048857, "Train Accuracy Margin-2": 35.485994174698234, "Train Accuracy Missed Cleavages": 43.104810590070805, "Train Accuracy Modifications": 55.50994069036681, "Test loss": 16.44646886028821, "Test Accuracy Margin-0": 17.551954477981198, "Test Accuracy Margin-1": 48.15520369454066, "Test Accuracy Margin-2": 72.83523008411677, "Test Accuracy Missed Cleavages": 60.56510803232723, "Test Accuracy Modifications": 65.65602836879432, "_step": 0, "_wandb": {"runtime": 1173}}