{"gradients/module.linear_out.bias": {"_type": "histogram", "values": [0.0, 0.0, 0.0, 0.0, 0.0, 0.0, 0.0, 0.0, 0.0, 0.0, 0.0, 0.0, 0.0, 0.0, 0.0, 0.0, 0.0, 0.0, 0.0, 0.0, 0.0, 0.0, 0.0, 0.0, 0.0, 0.0, 0.0, 0.0, 0.0, 0.0, 0.0, 0.0, 1.0, 0.0, 0.0, 0.0, 0.0, 0.0, 0.0, 0.0, 0.0, 0.0, 0.0, 0.0, 0.0, 0.0, 0.0, 0.0, 0.0, 0.0, 0.0, 0.0, 0.0, 0.0, 0.0, 0.0, 0.0, 0.0, 0.0, 0.0, 0.0, 0.0, 0.0, 0.0], "bins": [1910.0, 1910.0, 1910.0, 1910.0, 1910.0, 1910.0, 1910.0, 1910.0, 1910.0, 1910.0, 1910.0, 1910.0, 1910.0, 1910.0, 1910.0, 1910.0, 1910.0, 1910.0, 1910.0, 1910.0, 1910.0, 1910.0, 1910.0, 1910.0, 1910.0, 1910.0, 1910.0, 1910.0, 1910.0, 1910.0, 1910.0, 1910.0, 1910.0, 1910.0, 1910.0, 1910.0, 1910.0, 1910.0, 1910.0, 1910.0, 1910.0, 1910.0, 1910.0, 1910.0, 1910.0, 1910.0, 1910.0, 1910.0, 1910.0, 1910.0, 1910.0, 1910.0, 1910.0, 1910.0, 1910.0, 1910.0, 1910.0, 1910.0, 1910.0, 1910.0, 1910.0, 1910.0, 1910.0, 1910.0, 1910.0]}, "_timestamp": 1669576731.7473624, "_runtime": 237761.8397603035, "gradients/module.linear_out.weight": {"_type": "histogram", "values": [1.0, 1.0, 1.0, 1.0, 1.0, 0.0, 1.0, 0.0, 1.0, 0.0, 1.0, 1.0, 0.0, 2.0, 2.0, 2.0, 1.0, 3.0, 0.0, 1.0, 1.0, 3.0, 0.0, 0.0, 0.0, 3.0, 0.0, 0.0, 4.0, 0.0, 2.0, 4.0, 3.0, 2.0, 6.0, 0.0, 1.0, 2.0, 4.0, 3.0, 4.0, 6.0, 3.0, 6.0, 3.0, 2.0, 4.0, 5.0, 2.0, 6.0, 1.0, 7.0, 5.0, 3.0, 3.0, 4.0, 2.0, 2.0, 0.0, 1.0, 0.0, 0.0, 0.0, 1.0], "bins": [11.875, 13.189453125, 14.50390625, 15.818359375, 17.1328125, 18.447265625, 19.76171875, 21.076171875, 22.390625, 23.705078125, 25.01953125, 26.333984375, 27.6484375, 28.962890625, 30.27734375, 31.591796875, 32.90625, 34.220703125, 35.53515625, 36.849609375, 38.1640625, 39.478515625, 40.79296875, 42.107421875, 43.421875, 44.736328125, 46.05078125, 47.365234375, 48.6796875, 49.994140625, 51.30859375, 52.623046875, 53.9375, 55.251953125, 56.56640625, 57.880859375, 59.1953125, 60.509765625, 61.82421875, 63.138671875, 64.453125, 65.767578125, 67.08203125, 68.396484375, 69.7109375, 71.025390625, 72.33984375, 73.654296875, 74.96875, 76.283203125, 77.59765625, 78.912109375, 80.2265625, 81.541015625, 82.85546875, 84.169921875, 85.484375, 86.798828125, 88.11328125, 89.427734375, 90.7421875, 92.056640625, 93.37109375, 94.685546875, 96.0]}, "gradients/module.bn4.weight": {"_type": "histogram", "values": [1.0, 0.0, 0.0, 0.0, 0.0, 0.0, 0.0, 0.0, 0.0, 1.0, 1.0, 1.0, 0.0, 1.0, 1.0, 4.0, 0.0, 1.0, 0.0, 0.0, 1.0, 2.0, 1.0, 1.0, 0.0, 0.0, 0.0, 0.0, 0.0, 0.0, 0.0, 0.0, 0.0, 0.0, 0.0, 0.0, 0.0, 0.0, 0.0, 0.0, 0.0, 0.0, 0.0, 0.0, 0.0, 1.0, 5.0, 5.0, 1.0, 6.0, 12.0, 10.0, 11.0, 8.0, 9.0, 12.0, 9.0, 9.0, 6.0, 2.0, 1.0, 1.0, 1.0, 3.0], "bins": [-2849.788330078125, -2762.553466796875, -2675.318359375, -2588.08349609375, -2500.8486328125, -2413.61376953125, -2326.378662109375, -2239.143798828125, -2151.90869140625, -2064.673828125, -1977.4388427734375, -1890.203857421875, -1802.968994140625, -1715.7340087890625, -1628.4990234375, -1541.26416015625, -1454.029296875, -1366.7943115234375, -1279.5594482421875, -1192.324462890625, -1105.089599609375, -1017.8546142578125, -930.61962890625, -843.3847045898438, -756.1497802734375, -668.9148559570312, -581.679931640625, -494.4449462890625, -407.21002197265625, -319.97509765625, -232.7401123046875, -145.50518798828125, -58.270263671875, 28.964675903320312, 116.19961547851562, 203.4345703125, 290.66949462890625, 377.9044189453125, 465.139404296875, 552.3743286132812, 639.6092529296875, 726.8441772460938, 814.0791015625, 901.3140869140625, 988.5490112304688, 1075.783935546875, 1163.0189208984375, 1250.25390625, 1337.48876953125, 1424.7237548828125, 1511.9586181640625, 1599.193603515625, 1686.428466796875, 1773.6634521484375, 1860.8984375, 1948.13330078125, 2035.3682861328125, 2122.603271484375, 2209.838134765625, 2297.0732421875, 2384.30810546875, 2471.54296875, 2558.77783203125, 2646.012939453125, 2733.247802734375]}, "gradients/module.bn4.bias": {"_type": "histogram", "values": [2.0, 0.0, 1.0, 0.0, 0.0, 1.0, 2.0, 1.0, 2.0, 2.0, 1.0, 0.0, 0.0, 0.0, 0.0, 0.0, 1.0, 0.0, 0.0, 0.0, 0.0, 0.0, 0.0, 0.0, 0.0, 0.0, 0.0, 0.0, 0.0, 0.0, 0.0, 0.0, 0.0, 0.0, 0.0, 0.0, 0.0, 0.0, 0.0, 0.0, 0.0, 1.0, 0.0, 1.0, 0.0, 3.0, 1.0, 1.0, 5.0, 7.0, 7.0, 11.0, 5.0, 7.0, 9.0, 9.0, 12.0, 15.0, 8.0, 7.0, 5.0, 0.0, 0.0, 1.0], "bins": [-2101.72021484375, -2020.8939208984375, -1940.0675048828125, -1859.2412109375, -1778.414794921875, -1697.5885009765625, -1616.76220703125, -1535.935791015625, -1455.1094970703125, -1374.283203125, -1293.456787109375, -1212.6304931640625, -1131.80419921875, -1050.977783203125, -970.1514892578125, -889.3251342773438, -808.498779296875, -727.6724243164062, -646.8460693359375, -566.019775390625, -485.19342041015625, -404.3670654296875, -323.5407409667969, -242.71441650390625, -161.8880615234375, -81.06172180175781, -0.235382080078125, 80.59095764160156, 161.41729736328125, 242.24365234375, 323.0699768066406, 403.89630126953125, 484.722900390625, 565.5492553710938, 646.3756103515625, 727.201904296875, 808.0282592773438, 888.8546142578125, 969.680908203125, 1050.50732421875, 1131.3336181640625, 1212.159912109375, 1292.986328125, 1373.8126220703125, 1454.638916015625, 1535.46533203125, 1616.2916259765625, 1697.117919921875, 1777.9443359375, 1858.7706298828125, 1939.5970458984375, 2020.42333984375, 2101.249755859375, 2182.076171875, 2262.90234375, 2343.728759765625, 2424.55517578125, 2505.381591796875, 2586.207763671875, 2667.0341796875, 2747.860595703125, 2828.68701171875, 2909.51318359375, 2990.339599609375, 3071.165771484375]}, "gradients/module.linear1_4.bias": {"_type": "histogram", "values": [1.0, 0.0, 0.0, 0.0, 0.0, 0.0, 0.0, 0.0, 0.0, 0.0, 0.0, 0.0, 0.0, 0.0, 0.0, 0.0, 0.0, 0.0, 0.0, 0.0, 0.0, 0.0, 0.0, 1.0, 1.0, 1.0, 0.0, 0.0, 0.0, 2.0, 4.0, 0.0, 2.0, 0.0, 3.0, 3.0, 2.0, 1.0, 2.0, 7.0, 3.0, 11.0, 14.0, 9.0, 8.0, 9.0, 12.0, 8.0, 6.0, 4.0, 3.0, 4.0, 2.0, 0.0, 1.0, 0.0, 1.0, 1.0, 0.0, 0.0, 0.0, 0.0, 1.0, 1.0], "bins": [-1.365234375, -1.3343734741210938, -1.3035125732421875, -1.2726516723632812, -1.241790771484375, -1.2109298706054688, -1.1800689697265625, -1.1492080688476562, -1.11834716796875, -1.0874862670898438, -1.0566253662109375, -1.0257644653320312, -0.994903564453125, -0.9640426635742188, -0.9331817626953125, -0.9023208618164062, -0.8714599609375, -0.8405990600585938, -0.8097381591796875, -0.7788772583007812, -0.748016357421875, -0.7171554565429688, -0.6862945556640625, -0.6554336547851562, -0.62457275390625, -0.5937118530273438, -0.5628509521484375, -0.5319900512695312, -0.501129150390625, -0.47026824951171875, -0.4394073486328125, -0.40854644775390625, -0.377685546875, -0.34682464599609375, -0.3159637451171875, -0.28510284423828125, -0.254241943359375, -0.22338104248046875, -0.1925201416015625, -0.16165924072265625, -0.13079833984375, -0.09993743896484375, -0.0690765380859375, -0.03821563720703125, -0.007354736328125, 0.02350616455078125, 0.0543670654296875, 0.08522796630859375, 0.1160888671875, 0.14694976806640625, 0.1778106689453125, 0.20867156982421875, 0.239532470703125, 0.27039337158203125, 0.3012542724609375, 0.33211517333984375, 0.36297607421875, 0.39383697509765625, 0.4246978759765625, 0.45555877685546875, 0.486419677734375, 0.5172805786132812, 0.5481414794921875, 0.5790023803710938, 0.60986328125]}, "gradients/module.linear1_4.weight": {"_type": "histogram", "values": [3.0, 0.0, 1.0, 0.0, 2.0, 1.0, 0.0, 2.0, 2.0, 5.0, 6.0, 6.0, 14.0, 16.0, 32.0, 53.0, 141.0, 250.0, 768.0, 4018.0, 23388.0, 2386.0, 824.0, 409.0, 195.0, 76.0, 49.0, 36.0, 13.0, 19.0, 13.0, 13.0, 5.0, 1.0, 3.0, 2.0, 2.0, 2.0, 0.0, 2.0, 0.0, 1.0, 2.0, 0.0, 0.0, 1.0, 1.0, 1.0, 0.0, 1.0, 0.0, 0.0, 0.0, 0.0, 1.0, 0.0, 1.0, 0.0, 0.0, 0.0, 0.0, 0.0, 0.0, 1.0], "bins": [-316.5, -300.984375, -285.46875, -269.953125, -254.4375, -238.921875, -223.40625, -207.890625, -192.375, -176.859375, -161.34375, -145.828125, -130.3125, -114.796875, -99.28125, -83.765625, -68.25, -52.734375, -37.21875, -21.703125, -6.1875, 9.328125, 24.84375, 40.359375, 55.875, 71.390625, 86.90625, 102.421875, 117.9375, 133.453125, 148.96875, 164.484375, 180.0, 195.515625, 211.03125, 226.546875, 242.0625, 257.578125, 273.09375, 288.609375, 304.125, 319.640625, 335.15625, 350.671875, 366.1875, 381.703125, 397.21875, 412.734375, 428.25, 443.765625, 459.28125, 474.796875, 490.3125, 505.828125, 521.34375, 536.859375, 552.375, 567.890625, 583.40625, 598.921875, 614.4375, 629.953125, 645.46875, 660.984375, 676.5]}, "gradients/module.linear_mod_2.bias": {"_type": "histogram", "values": [1.0, 0.0, 0.0, 0.0, 0.0, 0.0, 0.0, 0.0, 0.0, 0.0, 0.0, 0.0, 0.0, 0.0, 0.0, 0.0, 0.0, 0.0, 0.0, 0.0, 0.0, 0.0, 0.0, 0.0, 0.0, 0.0, 0.0, 0.0, 0.0, 0.0, 0.0, 0.0, 0.0, 0.0, 0.0, 0.0, 0.0, 0.0, 0.0, 0.0, 0.0, 0.0, 0.0, 0.0, 0.0, 0.0, 0.0, 0.0, 0.0, 0.0, 0.0, 0.0, 0.0, 0.0, 0.0, 0.0, 0.0, 0.0, 0.0, 0.0, 0.0, 0.0, 0.0, 1.0], "bins": [-6.9453125, -6.728271484375, -6.51123046875, -6.294189453125, -6.0771484375, -5.860107421875, -5.64306640625, -5.426025390625, -5.208984375, -4.991943359375, -4.77490234375, -4.557861328125, -4.3408203125, -4.123779296875, -3.90673828125, -3.689697265625, -3.47265625, -3.255615234375, -3.03857421875, -2.821533203125, -2.6044921875, -2.387451171875, -2.17041015625, -1.953369140625, -1.736328125, -1.519287109375, -1.30224609375, -1.085205078125, -0.8681640625, -0.651123046875, -0.43408203125, -0.217041015625, 0.0, 0.217041015625, 0.43408203125, 0.651123046875, 0.8681640625, 1.085205078125, 1.30224609375, 1.519287109375, 1.736328125, 1.953369140625, 2.17041015625, 2.387451171875, 2.6044921875, 2.821533203125, 3.03857421875, 3.255615234375, 3.47265625, 3.689697265625, 3.90673828125, 4.123779296875, 4.3408203125, 4.557861328125, 4.77490234375, 4.991943359375, 5.208984375, 5.426025390625, 5.64306640625, 5.860107421875, 6.0771484375, 6.294189453125, 6.51123046875, 6.728271484375, 6.9453125]}, "gradients/module.linear_mod_2.weight": {"_type": "histogram", "values": [1.0, 1.0, 0.0, 0.0, 1.0, 4.0, 2.0, 0.0, 0.0, 1.0, 1.0, 0.0, 2.0, 3.0, 4.0, 5.0, 3.0, 4.0, 5.0, 8.0, 2.0, 8.0, 6.0, 4.0, 6.0, 7.0, 4.0, 7.0, 2.0, 10.0, 9.0, 7.0, 29.0, 9.0, 10.0, 2.0, 7.0, 4.0, 7.0, 6.0, 4.0, 6.0, 8.0, 2.0, 8.0, 5.0, 4.0, 3.0, 5.0, 4.0, 3.0, 2.0, 0.0, 1.0, 1.0, 0.0, 0.0, 2.0, 4.0, 1.0, 0.0, 0.0, 1.0, 1.0], "bins": [-0.6806640625, -0.659393310546875, -0.63812255859375, -0.616851806640625, -0.5955810546875, -0.574310302734375, -0.55303955078125, -0.531768798828125, -0.510498046875, -0.489227294921875, -0.46795654296875, -0.446685791015625, -0.4254150390625, -0.404144287109375, -0.38287353515625, -0.361602783203125, -0.34033203125, -0.319061279296875, -0.29779052734375, -0.276519775390625, -0.2552490234375, -0.233978271484375, -0.21270751953125, -0.191436767578125, -0.170166015625, -0.148895263671875, -0.12762451171875, -0.106353759765625, -0.0850830078125, -0.063812255859375, -0.04254150390625, -0.021270751953125, 0.0, 0.021270751953125, 0.04254150390625, 0.063812255859375, 0.0850830078125, 0.106353759765625, 0.12762451171875, 0.148895263671875, 0.170166015625, 0.191436767578125, 0.21270751953125, 0.233978271484375, 0.2552490234375, 0.276519775390625, 0.29779052734375, 0.319061279296875, 0.34033203125, 0.361602783203125, 0.38287353515625, 0.404144287109375, 0.4254150390625, 0.446685791015625, 0.46795654296875, 0.489227294921875, 0.510498046875, 0.531768798828125, 0.55303955078125, 0.574310302734375, 0.5955810546875, 0.616851806640625, 0.63812255859375, 0.659393310546875, 0.6806640625]}, "gradients/module.linear_mod_1.bias": {"_type": "histogram", "values": [1.0, 0.0, 2.0, 0.0, 0.0, 0.0, 1.0, 0.0, 1.0, 1.0, 1.0, 4.0, 0.0, 6.0, 1.0, 2.0, 1.0, 4.0, 3.0, 1.0, 2.0, 2.0, 3.0, 0.0, 1.0, 0.0, 2.0, 1.0, 1.0, 1.0, 4.0, 0.0, 1.0, 3.0, 11.0, 0.0, 1.0, 2.0, 2.0, 1.0, 2.0, 2.0, 3.0, 3.0, 4.0, 3.0, 5.0, 1.0, 3.0, 6.0, 2.0, 7.0, 3.0, 3.0, 3.0, 1.0, 2.0, 0.0, 1.0, 0.0, 3.0, 1.0, 1.0, 2.0], "bins": [-20.609375, -20.01904296875, -19.4287109375, -18.83837890625, -18.248046875, -17.65771484375, -17.0673828125, -16.47705078125, -15.88671875, -15.29638671875, -14.7060546875, -14.11572265625, -13.525390625, -12.93505859375, -12.3447265625, -11.75439453125, -11.1640625, -10.57373046875, -9.9833984375, -9.39306640625, -8.802734375, -8.21240234375, -7.6220703125, -7.03173828125, -6.44140625, -5.85107421875, -5.2607421875, -4.67041015625, -4.080078125, -3.48974609375, -2.8994140625, -2.30908203125, -1.71875, -1.12841796875, -0.5380859375, 0.05224609375, 0.642578125, 1.23291015625, 1.8232421875, 2.41357421875, 3.00390625, 3.59423828125, 4.1845703125, 4.77490234375, 5.365234375, 5.95556640625, 6.5458984375, 7.13623046875, 7.7265625, 8.31689453125, 8.9072265625, 9.49755859375, 10.087890625, 10.67822265625, 11.2685546875, 11.85888671875, 12.44921875, 13.03955078125, 13.6298828125, 14.22021484375, 14.810546875, 15.40087890625, 15.9912109375, 16.58154296875, 17.171875]}, "gradients/module.linear_mod_1.weight": {"_type": "histogram", "values": [1.0, 1.0, 0.0, 0.0, 0.0, 0.0, 1.0, 0.0, 3.0, 2.0, 6.0, 5.0, 6.0, 10.0, 7.0, 13.0, 11.0, 15.0, 12.0, 18.0, 18.0, 38.0, 38.0, 67.0, 39.0, 58.0, 59.0, 111.0, 168.0, 262.0, 345.0, 501.0, 786.0, 1441.0, 3263.0, 11035.0, 7500.0, 3164.0, 1475.0, 769.0, 502.0, 242.0, 142.0, 98.0, 67.0, 51.0, 48.0, 55.0, 41.0, 67.0, 54.0, 47.0, 23.0, 23.0, 16.0, 14.0, 10.0, 4.0, 3.0, 4.0, 4.0, 1.0, 1.0, 3.0], "bins": [-1.341796875, -1.3043975830078125, -1.266998291015625, -1.2295989990234375, -1.19219970703125, -1.1548004150390625, -1.117401123046875, -1.0800018310546875, -1.0426025390625, -1.0052032470703125, -0.967803955078125, -0.9304046630859375, -0.89300537109375, -0.8556060791015625, -0.818206787109375, -0.7808074951171875, -0.743408203125, -0.7060089111328125, -0.668609619140625, -0.6312103271484375, -0.59381103515625, -0.5564117431640625, -0.519012451171875, -0.4816131591796875, -0.4442138671875, -0.4068145751953125, -0.369415283203125, -0.3320159912109375, -0.29461669921875, -0.2572174072265625, -0.219818115234375, -0.1824188232421875, -0.14501953125, -0.1076202392578125, -0.070220947265625, -0.0328216552734375, 0.00457763671875, 0.0419769287109375, 0.079376220703125, 0.1167755126953125, 0.1541748046875, 0.1915740966796875, 0.228973388671875, 0.2663726806640625, 0.30377197265625, 0.3411712646484375, 0.378570556640625, 0.4159698486328125, 0.453369140625, 0.4907684326171875, 0.528167724609375, 0.5655670166015625, 0.60296630859375, 0.6403656005859375, 0.677764892578125, 0.7151641845703125, 0.7525634765625, 0.7899627685546875, 0.827362060546875, 0.8647613525390625, 0.90216064453125, 0.9395599365234375, 0.976959228515625, 1.0143585205078125, 1.0517578125]}, "gradients/module.linear_miss_clv_3.bias": {"_type": "histogram", "values": [1.0, 0.0, 0.0, 0.0, 0.0, 0.0, 0.0, 0.0, 0.0, 0.0, 0.0, 0.0, 0.0, 0.0, 0.0, 0.0, 0.0, 0.0, 0.0, 0.0, 0.0, 0.0, 0.0, 0.0, 0.0, 0.0, 0.0, 0.0, 0.0, 0.0, 0.0, 0.0, 0.0, 0.0, 0.0, 0.0, 0.0, 0.0, 0.0, 0.0, 0.0, 0.0, 0.0, 0.0, 0.0, 1.0, 0.0, 0.0, 0.0, 0.0, 0.0, 0.0, 0.0, 0.0, 0.0, 0.0, 0.0, 0.0, 0.0, 0.0, 0.0, 0.0, 0.0, 1.0], "bins": [-19.5, -18.9659423828125, -18.431884765625, -17.8978271484375, -17.36376953125, -16.8297119140625, -16.295654296875, -15.7615966796875, -15.2275390625, -14.6934814453125, -14.159423828125, -13.6253662109375, -13.09130859375, -12.5572509765625, -12.023193359375, -11.4891357421875, -10.955078125, -10.4210205078125, -9.886962890625, -9.3529052734375, -8.81884765625, -8.2847900390625, -7.750732421875, -7.2166748046875, -6.6826171875, -6.1485595703125, -5.614501953125, -5.0804443359375, -4.54638671875, -4.0123291015625, -3.478271484375, -2.9442138671875, -2.41015625, -1.8760986328125, -1.342041015625, -0.8079833984375, -0.27392578125, 0.2601318359375, 0.794189453125, 1.3282470703125, 1.8623046875, 2.3963623046875, 2.930419921875, 3.4644775390625, 3.99853515625, 4.5325927734375, 5.066650390625, 5.6007080078125, 6.134765625, 6.6688232421875, 7.202880859375, 7.7369384765625, 8.27099609375, 8.8050537109375, 9.339111328125, 9.8731689453125, 10.4072265625, 10.9412841796875, 11.475341796875, 12.0093994140625, 12.54345703125, 13.0775146484375, 13.611572265625, 14.1456298828125, 14.6796875]}, "gradients/module.linear_miss_clv_3.weight": {"_type": "histogram", "values": [1.0, 1.0, 1.0, 2.0, 0.0, 1.0, 0.0, 3.0, 2.0, 2.0, 0.0, 1.0, 2.0, 1.0, 5.0, 1.0, 1.0, 0.0, 0.0, 2.0, 7.0, 5.0, 5.0, 6.0, 11.0, 11.0, 8.0, 11.0, 11.0, 12.0, 7.0, 4.0, 8.0, 12.0, 13.0, 29.0, 33.0, 20.0, 40.0, 23.0, 19.0, 12.0, 8.0, 5.0, 1.0, 7.0, 5.0, 2.0, 2.0, 2.0, 3.0, 1.0, 2.0, 1.0, 1.0, 3.0, 2.0, 0.0, 1.0, 2.0, 2.0, 0.0, 0.0, 1.0], "bins": [-3.27734375, -3.181732177734375, -3.08612060546875, -2.990509033203125, -2.8948974609375, -2.799285888671875, -2.70367431640625, -2.608062744140625, -2.512451171875, -2.416839599609375, -2.32122802734375, -2.225616455078125, -2.1300048828125, -2.034393310546875, -1.93878173828125, -1.843170166015625, -1.74755859375, -1.651947021484375, -1.55633544921875, -1.460723876953125, -1.3651123046875, -1.269500732421875, -1.17388916015625, -1.078277587890625, -0.982666015625, -0.887054443359375, -0.79144287109375, -0.695831298828125, -0.6002197265625, -0.504608154296875, -0.40899658203125, -0.313385009765625, -0.2177734375, -0.122161865234375, -0.02655029296875, 0.069061279296875, 0.1646728515625, 0.260284423828125, 0.35589599609375, 0.451507568359375, 0.547119140625, 0.642730712890625, 0.73834228515625, 0.833953857421875, 0.9295654296875, 1.025177001953125, 1.12078857421875, 1.216400146484375, 1.31201171875, 1.407623291015625, 1.50323486328125, 1.598846435546875, 1.6944580078125, 1.790069580078125, 1.88568115234375, 1.981292724609375, 2.076904296875, 2.172515869140625, 2.26812744140625, 2.363739013671875, 2.4593505859375, 2.554962158203125, 2.65057373046875, 2.746185302734375, 2.841796875]}, "gradients/module.linear_miss_clv_2.bias": {"_type": "histogram", "values": [1.0, 0.0, 1.0, 1.0, 0.0, 2.0, 1.0, 0.0, 0.0, 2.0, 0.0, 1.0, 1.0, 0.0, 3.0, 2.0, 1.0, 2.0, 2.0, 1.0, 0.0, 1.0, 0.0, 4.0, 2.0, 4.0, 3.0, 6.0, 8.0, 6.0, 7.0, 1.0, 6.0, 0.0, 1.0, 1.0, 1.0, 2.0, 1.0, 1.0, 0.0, 0.0, 1.0, 1.0, 2.0, 2.0, 3.0, 1.0, 2.0, 3.0, 2.0, 4.0, 6.0, 3.0, 7.0, 2.0, 1.0, 4.0, 1.0, 4.0, 1.0, 1.0, 0.0, 1.0], "bins": [-43.21875, -42.00146484375, -40.7841796875, -39.56689453125, -38.349609375, -37.13232421875, -35.9150390625, -34.69775390625, -33.48046875, -32.26318359375, -31.0458984375, -29.82861328125, -28.611328125, -27.39404296875, -26.1767578125, -24.95947265625, -23.7421875, -22.52490234375, -21.3076171875, -20.09033203125, -18.873046875, -17.65576171875, -16.4384765625, -15.22119140625, -14.00390625, -12.78662109375, -11.5693359375, -10.35205078125, -9.134765625, -7.91748046875, -6.7001953125, -5.48291015625, -4.265625, -3.04833984375, -1.8310546875, -0.61376953125, 0.603515625, 1.82080078125, 3.0380859375, 4.25537109375, 5.47265625, 6.68994140625, 7.9072265625, 9.12451171875, 10.341796875, 11.55908203125, 12.7763671875, 13.99365234375, 15.2109375, 16.42822265625, 17.6455078125, 18.86279296875, 20.080078125, 21.29736328125, 22.5146484375, 23.73193359375, 24.94921875, 26.16650390625, 27.3837890625, 28.60107421875, 29.818359375, 31.03564453125, 32.2529296875, 33.47021484375, 34.6875]}, "gradients/module.linear_miss_clv_2.weight": {"_type": "histogram", "values": [1.0, 1.0, 1.0, 0.0, 1.0, 0.0, 0.0, 0.0, 1.0, 4.0, 2.0, 2.0, 0.0, 9.0, 6.0, 6.0, 8.0, 7.0, 12.0, 7.0, 15.0, 18.0, 20.0, 18.0, 32.0, 41.0, 63.0, 108.0, 164.0, 244.0, 354.0, 457.0, 670.0, 949.0, 1736.0, 3976.0, 10483.0, 5995.0, 2334.0, 1649.0, 1041.0, 759.0, 562.0, 346.0, 243.0, 119.0, 61.0, 37.0, 25.0, 33.0, 18.0, 20.0, 19.0, 20.0, 7.0, 13.0, 8.0, 11.0, 7.0, 12.0, 5.0, 3.0, 3.0, 2.0], "bins": [-1.77734375, -1.729034423828125, -1.68072509765625, -1.632415771484375, -1.5841064453125, -1.535797119140625, -1.48748779296875, -1.439178466796875, -1.390869140625, -1.342559814453125, -1.29425048828125, -1.245941162109375, -1.1976318359375, -1.149322509765625, -1.10101318359375, -1.052703857421875, -1.00439453125, -0.956085205078125, -0.90777587890625, -0.859466552734375, -0.8111572265625, -0.762847900390625, -0.71453857421875, -0.666229248046875, -0.617919921875, -0.569610595703125, -0.52130126953125, -0.472991943359375, -0.4246826171875, -0.376373291015625, -0.32806396484375, -0.279754638671875, -0.2314453125, -0.183135986328125, -0.13482666015625, -0.086517333984375, -0.0382080078125, 0.010101318359375, 0.05841064453125, 0.106719970703125, 0.155029296875, 0.203338623046875, 0.25164794921875, 0.299957275390625, 0.3482666015625, 0.396575927734375, 0.44488525390625, 0.493194580078125, 0.54150390625, 0.589813232421875, 0.63812255859375, 0.686431884765625, 0.7347412109375, 0.783050537109375, 0.83135986328125, 0.879669189453125, 0.927978515625, 0.976287841796875, 1.02459716796875, 1.072906494140625, 1.1212158203125, 1.169525146484375, 1.21783447265625, 1.266143798828125, 1.314453125]}, "gradients/module.bn3.weight": {"_type": "histogram", "values": [6.0, 0.0, 2.0, 0.0, 0.0, 1.0, 3.0, 0.0, 3.0, 0.0, 1.0, 0.0, 2.0, 3.0, 1.0, 2.0, 2.0, 4.0, 3.0, 0.0, 3.0, 1.0, 4.0, 7.0, 3.0, 6.0, 6.0, 9.0, 4.0, 11.0, 31.0, 11.0, 12.0, 7.0, 14.0, 11.0, 11.0, 6.0, 5.0, 5.0, 3.0, 6.0, 4.0, 3.0, 4.0, 8.0, 3.0, 5.0, 2.0, 1.0, 2.0, 0.0, 5.0, 3.0, 1.0, 2.0, 0.0, 1.0, 0.0, 0.0, 1.0, 1.0, 0.0, 1.0], "bins": [-6040.6279296875, -5843.9970703125, -5647.3662109375, -5450.7353515625, -5254.1044921875, -5057.4736328125, -4860.8427734375, -4664.2119140625, -4467.5810546875, -4270.9501953125, -4074.3193359375, -3877.6884765625, -3681.0576171875, -3484.4267578125, -3287.795654296875, -3091.164794921875, -2894.53369140625, -2697.90283203125, -2501.27197265625, -2304.64111328125, -2108.01025390625, -1911.3792724609375, -1714.748291015625, -1518.117431640625, -1321.486572265625, -1124.855712890625, -928.2247924804688, -731.5938720703125, -534.9630126953125, -338.3321533203125, -141.701171875, 54.9296875, 251.56005859375, 448.1909484863281, 644.8218383789062, 841.4527587890625, 1038.0836181640625, 1234.7144775390625, 1431.345458984375, 1627.976318359375, 1824.607177734375, 2021.238037109375, 2217.868896484375, 2414.5, 2611.130859375, 2807.76171875, 3004.392578125, 3201.0234375, 3397.654296875, 3594.28515625, 3790.916015625, 3987.546875, 4184.177734375, 4380.80859375, 4577.439453125, 4774.0703125, 4970.701171875, 5167.33203125, 5363.962890625, 5560.59375, 5757.224609375, 5953.85546875, 6150.486328125, 6347.1171875, 6543.74853515625]}, "gradients/module.bn3.bias": {"_type": "histogram", "values": [2.0, 3.0, 1.0, 1.0, 3.0, 3.0, 1.0, 0.0, 1.0, 5.0, 1.0, 3.0, 3.0, 7.0, 6.0, 5.0, 12.0, 16.0, 11.0, 15.0, 16.0, 14.0, 13.0, 1.0, 8.0, 10.0, 9.0, 9.0, 7.0, 12.0, 5.0, 6.0, 7.0, 3.0, 6.0, 2.0, 5.0, 6.0, 4.0, 2.0, 1.0, 2.0, 2.0, 3.0, 0.0, 1.0, 0.0, 0.0, 0.0, 0.0, 0.0, 0.0, 0.0, 0.0, 1.0, 0.0, 0.0, 0.0, 0.0, 0.0, 1.0, 0.0, 0.0, 1.0], "bins": [-3929.20654296875, -3726.357666015625, -3523.5087890625, -3320.66015625, -3117.811279296875, -2914.96240234375, -2712.11376953125, -2509.264892578125, -2306.416015625, -2103.567138671875, -1900.7183837890625, -1697.86962890625, -1495.020751953125, -1292.171875, -1089.3231201171875, -886.474365234375, -683.62548828125, -480.77667236328125, -277.9278564453125, -75.07904052734375, 127.769775390625, 330.61859130859375, 533.4674072265625, 736.316162109375, 939.1650390625, 1142.013916015625, 1344.8626708984375, 1547.71142578125, 1750.560302734375, 1953.4091796875, 2156.2578125, 2359.106689453125, 2561.9560546875, 2764.804931640625, 2967.65380859375, 3170.50244140625, 3373.351318359375, 3576.2001953125, 3779.048828125, 3981.897705078125, 4184.74658203125, 4387.59521484375, 4590.4443359375, 4793.29296875, 4996.1416015625, 5198.99072265625, 5401.83935546875, 5604.6884765625, 5807.537109375, 6010.3857421875, 6213.23486328125, 6416.08349609375, 6618.9326171875, 6821.78125, 7024.6298828125, 7227.478515625, 7430.32763671875, 7633.17626953125, 7836.025390625, 8038.8740234375, 8241.72265625, 8444.5712890625, 8647.4208984375, 8850.26953125, 9053.1181640625]}, "gradients/module.linear1_3.bias": {"_type": "histogram", "values": [1.0, 0.0, 0.0, 0.0, 0.0, 0.0, 0.0, 0.0, 0.0, 0.0, 0.0, 0.0, 0.0, 0.0, 0.0, 0.0, 0.0, 0.0, 0.0, 0.0, 0.0, 0.0, 0.0, 0.0, 0.0, 0.0, 0.0, 0.0, 0.0, 0.0, 0.0, 0.0, 0.0, 3.0, 2.0, 5.0, 1.0, 5.0, 4.0, 8.0, 8.0, 16.0, 14.0, 18.0, 17.0, 29.0, 24.0, 20.0, 15.0, 11.0, 9.0, 4.0, 10.0, 8.0, 11.0, 6.0, 3.0, 0.0, 1.0, 0.0, 1.0, 1.0, 0.0, 1.0], "bins": [-2.171875, -2.124603271484375, -2.07733154296875, -2.030059814453125, -1.9827880859375, -1.935516357421875, -1.88824462890625, -1.840972900390625, -1.793701171875, -1.746429443359375, -1.69915771484375, -1.651885986328125, -1.6046142578125, -1.557342529296875, -1.51007080078125, -1.462799072265625, -1.41552734375, -1.368255615234375, -1.32098388671875, -1.273712158203125, -1.2264404296875, -1.179168701171875, -1.13189697265625, -1.084625244140625, -1.037353515625, -0.990081787109375, -0.94281005859375, -0.895538330078125, -0.8482666015625, -0.800994873046875, -0.75372314453125, -0.706451416015625, -0.6591796875, -0.611907958984375, -0.56463623046875, -0.517364501953125, -0.4700927734375, -0.422821044921875, -0.37554931640625, -0.328277587890625, -0.281005859375, -0.233734130859375, -0.18646240234375, -0.139190673828125, -0.0919189453125, -0.044647216796875, 0.00262451171875, 0.049896240234375, 0.09716796875, 0.144439697265625, 0.19171142578125, 0.238983154296875, 0.2862548828125, 0.333526611328125, 0.38079833984375, 0.428070068359375, 0.475341796875, 0.522613525390625, 0.56988525390625, 0.617156982421875, 0.6644287109375, 0.711700439453125, 0.75897216796875, 0.806243896484375, 0.853515625]}, "gradients/module.linear1_3.weight": {"_type": "histogram", "values": [1.0, 0.0, 0.0, 0.0, 0.0, 0.0, 0.0, 0.0, 0.0, 0.0, 0.0, 0.0, 0.0, 0.0, 0.0, 0.0, 0.0, 0.0, 1.0, 0.0, 0.0, 0.0, 0.0, 0.0, 0.0, 0.0, 0.0, 0.0, 0.0, 1.0, 1.0, 1.0, 0.0, 1.0, 1.0, 2.0, 2.0, 3.0, 3.0, 6.0, 9.0, 16.0, 25.0, 25.0, 59.0, 143.0, 274.0, 557.0, 1179.0, 3296.0, 17703.0, 95479.0, 9694.0, 1691.0, 511.0, 218.0, 76.0, 43.0, 25.0, 15.0, 5.0, 5.0, 0.0, 1.0], "bins": [-453.0, -444.185546875, -435.37109375, -426.556640625, -417.7421875, -408.927734375, -400.11328125, -391.298828125, -382.484375, -373.669921875, -364.85546875, -356.041015625, -347.2265625, -338.412109375, -329.59765625, -320.783203125, -311.96875, -303.154296875, -294.33984375, -285.525390625, -276.7109375, -267.896484375, -259.08203125, -250.267578125, -241.453125, -232.638671875, -223.82421875, -215.009765625, -206.1953125, -197.380859375, -188.56640625, -179.751953125, -170.9375, -162.123046875, -153.30859375, -144.494140625, -135.6796875, -126.865234375, -118.05078125, -109.236328125, -100.421875, -91.607421875, -82.79296875, -73.978515625, -65.1640625, -56.349609375, -47.53515625, -38.720703125, -29.90625, -21.091796875, -12.27734375, -3.462890625, 5.3515625, 14.166015625, 22.98046875, 31.794921875, 40.609375, 49.423828125, 58.23828125, 67.052734375, 75.8671875, 84.681640625, 93.49609375, 102.310546875, 111.125]}, "gradients/module.bn2.weight": {"_type": "histogram", "values": [1.0, 0.0, 0.0, 0.0, 0.0, 0.0, 0.0, 0.0, 0.0, 0.0, 0.0, 0.0, 0.0, 0.0, 0.0, 0.0, 0.0, 0.0, 0.0, 0.0, 0.0, 0.0, 0.0, 0.0, 0.0, 0.0, 0.0, 0.0, 0.0, 0.0, 0.0, 0.0, 0.0, 0.0, 0.0, 0.0, 0.0, 0.0, 0.0, 0.0, 0.0, 0.0, 0.0, 0.0, 0.0, 0.0, 0.0, 0.0, 0.0, 0.0, 0.0, 0.0, 1.0, 0.0, 0.0, 0.0, 1.0, 0.0, 2.0, 10.0, 129.0, 249.0, 102.0, 17.0], "bins": [-56519.37109375, -55596.7109375, -54674.046875, -53751.38671875, -52828.7265625, -51906.0625, -50983.40234375, -50060.7421875, -49138.078125, -48215.41796875, -47292.75390625, -46370.09375, -45447.43359375, -44524.76953125, -43602.109375, -42679.4453125, -41756.78515625, -40834.125, -39911.4609375, -38988.80078125, -38066.140625, -37143.4765625, -36220.81640625, -35298.15625, -34375.4921875, -33452.83203125, -32530.169921875, -31607.5078125, -30684.845703125, -29762.18359375, -28839.5234375, -27916.861328125, -26994.201171875, -26071.5390625, -25148.87890625, -24226.216796875, -23303.5546875, -22380.89453125, -21458.232421875, -20535.5703125, -19612.908203125, -18690.24609375, -17767.5859375, -16844.923828125, -15922.26171875, -14999.6005859375, -14076.939453125, -13154.27734375, -12231.615234375, -11308.9541015625, -10386.2919921875, -9463.630859375, -8540.96875, -7618.3076171875, -6695.64599609375, -5772.984375, -4850.3232421875, -3927.66162109375, -3005.0, -2082.338623046875, -1159.677001953125, -237.015625, 685.64599609375, 1608.3076171875, 2530.96923828125]}, "gradients/module.bn2.bias": {"_type": "histogram", "values": [1.0, 0.0, 0.0, 0.0, 0.0, 0.0, 0.0, 0.0, 0.0, 0.0, 0.0, 0.0, 0.0, 0.0, 0.0, 0.0, 0.0, 0.0, 0.0, 0.0, 0.0, 0.0, 0.0, 0.0, 0.0, 0.0, 0.0, 0.0, 0.0, 0.0, 0.0, 0.0, 0.0, 0.0, 0.0, 0.0, 0.0, 0.0, 0.0, 0.0, 0.0, 0.0, 0.0, 0.0, 0.0, 0.0, 0.0, 1.0, 0.0, 1.0, 5.0, 10.0, 12.0, 25.0, 59.0, 85.0, 102.0, 79.0, 58.0, 37.0, 17.0, 14.0, 3.0, 3.0], "bins": [-24521.5703125, -24085.427734375, -23649.28515625, -23213.14453125, -22777.001953125, -22340.859375, -21904.71875, -21468.576171875, -21032.43359375, -20596.291015625, -20160.1484375, -19724.0078125, -19287.865234375, -18851.72265625, -18415.58203125, -17979.439453125, -17543.296875, -17107.154296875, -16671.01171875, -16234.87109375, -15798.728515625, -15362.5859375, -14926.4443359375, -14490.302734375, -14054.16015625, -13618.017578125, -13181.8759765625, -12745.734375, -12309.591796875, -11873.44921875, -11437.3076171875, -11001.166015625, -10565.0234375, -10128.880859375, -9692.7392578125, -9256.59765625, -8820.455078125, -8384.3125, -7948.1708984375, -7512.02880859375, -7075.88720703125, -6639.7451171875, -6203.60302734375, -5767.4609375, -5331.31884765625, -4895.1767578125, -4459.03466796875, -4022.892578125, -3586.75048828125, -3150.6083984375, -2714.46630859375, -2278.32421875, -1842.18212890625, -1406.0400390625, -969.89794921875, -533.755859375, -97.61376953125, 338.5283203125, 774.67041015625, 1210.8125, 1646.95458984375, 2083.0966796875, 2519.23876953125, 2955.380859375, 3391.52294921875]}, "gradients/module.linear_ch_3.bias": {"_type": "histogram", "values": [1.0, 0.0, 0.0, 0.0, 1.0, 0.0, 0.0, 1.0, 0.0, 0.0, 1.0, 1.0, 1.0, 1.0, 0.0, 2.0, 3.0, 3.0, 5.0, 6.0, 11.0, 10.0, 24.0, 20.0, 20.0, 27.0, 36.0, 48.0, 52.0, 53.0, 45.0, 20.0, 33.0, 17.0, 15.0, 13.0, 10.0, 5.0, 6.0, 3.0, 3.0, 4.0, 3.0, 5.0, 1.0, 0.0, 0.0, 0.0, 0.0, 0.0, 0.0, 0.0, 0.0, 0.0, 1.0, 0.0, 0.0, 0.0, 0.0, 0.0, 0.0, 0.0, 0.0, 1.0], "bins": [-1.1044921875, -1.065826416015625, -1.02716064453125, -0.988494873046875, -0.9498291015625, -0.911163330078125, -0.87249755859375, -0.833831787109375, -0.795166015625, -0.756500244140625, -0.71783447265625, -0.679168701171875, -0.6405029296875, -0.601837158203125, -0.56317138671875, -0.524505615234375, -0.48583984375, -0.447174072265625, -0.40850830078125, -0.369842529296875, -0.3311767578125, -0.292510986328125, -0.25384521484375, -0.215179443359375, -0.176513671875, -0.137847900390625, -0.09918212890625, -0.060516357421875, -0.0218505859375, 0.016815185546875, 0.05548095703125, 0.094146728515625, 0.1328125, 0.171478271484375, 0.21014404296875, 0.248809814453125, 0.2874755859375, 0.326141357421875, 0.36480712890625, 0.403472900390625, 0.442138671875, 0.480804443359375, 0.51947021484375, 0.558135986328125, 0.5968017578125, 0.635467529296875, 0.67413330078125, 0.712799072265625, 0.75146484375, 0.790130615234375, 0.82879638671875, 0.867462158203125, 0.9061279296875, 0.944793701171875, 0.98345947265625, 1.022125244140625, 1.060791015625, 1.099456787109375, 1.13812255859375, 1.176788330078125, 1.2154541015625, 1.254119873046875, 1.29278564453125, 1.331451416015625, 1.3701171875]}, "gradients/module.linear_ch_3.weight": {"_type": "histogram", "values": [1.0, 0.0, 0.0, 0.0, 0.0, 0.0, 0.0, 0.0, 1.0, 0.0, 1.0, 3.0, 0.0, 0.0, 0.0, 3.0, 1.0, 5.0, 4.0, 3.0, 2.0, 1.0, 5.0, 8.0, 22.0, 32.0, 97.0, 337.0, 2224.0, 53130.0, 72017.0, 2606.0, 357.0, 99.0, 23.0, 17.0, 7.0, 12.0, 3.0, 1.0, 9.0, 5.0, 2.0, 2.0, 3.0, 3.0, 3.0, 0.0, 3.0, 1.0, 3.0, 3.0, 2.0, 1.0, 1.0, 0.0, 3.0, 1.0, 1.0, 0.0, 1.0, 1.0, 1.0, 1.0], "bins": [-282.25, -272.84765625, -263.4453125, -254.04296875, -244.640625, -235.23828125, -225.8359375, -216.43359375, -207.03125, -197.62890625, -188.2265625, -178.82421875, -169.421875, -160.01953125, -150.6171875, -141.21484375, -131.8125, -122.41015625, -113.0078125, -103.60546875, -94.203125, -84.80078125, -75.3984375, -65.99609375, -56.59375, -47.19140625, -37.7890625, -28.38671875, -18.984375, -9.58203125, -0.1796875, 9.22265625, 18.625, 28.02734375, 37.4296875, 46.83203125, 56.234375, 65.63671875, 75.0390625, 84.44140625, 93.84375, 103.24609375, 112.6484375, 122.05078125, 131.453125, 140.85546875, 150.2578125, 159.66015625, 169.0625, 178.46484375, 187.8671875, 197.26953125, 206.671875, 216.07421875, 225.4765625, 234.87890625, 244.28125, 253.68359375, 263.0859375, 272.48828125, 281.890625, 291.29296875, 300.6953125, 310.09765625, 319.5]}, "gradients/module.bn_ch_2.weight": {"_type": "histogram", "values": [1.0, 1.0, 0.0, 0.0, 0.0, 0.0, 1.0, 1.0, 1.0, 0.0, 2.0, 4.0, 3.0, 1.0, 2.0, 3.0, 4.0, 5.0, 5.0, 2.0, 2.0, 3.0, 2.0, 3.0, 3.0, 3.0, 3.0, 4.0, 7.0, 2.0, 2.0, 3.0, 6.0, 4.0, 10.0, 4.0, 9.0, 15.0, 7.0, 11.0, 17.0, 11.0, 7.0, 6.0, 12.0, 7.0, 5.0, 8.0, 1.0, 5.0, 6.0, 5.0, 5.0, 3.0, 5.0, 3.0, 3.0, 2.0, 3.0, 1.0, 1.0, 0.0, 0.0, 1.0], "bins": [-3133.51220703125, -3049.986328125, -2966.460693359375, -2882.934814453125, -2799.408935546875, -2715.883056640625, -2632.357421875, -2548.83154296875, -2465.3056640625, -2381.77978515625, -2298.254150390625, -2214.728271484375, -2131.202392578125, -2047.6766357421875, -1964.15087890625, -1880.625, -1797.0992431640625, -1713.573486328125, -1630.047607421875, -1546.5218505859375, -1462.9959716796875, -1379.47021484375, -1295.9443359375, -1212.4185791015625, -1128.892822265625, -1045.3670654296875, -961.8411865234375, -878.3154296875, -794.78955078125, -711.2637939453125, -627.7379760742188, -544.212158203125, -460.686279296875, -377.16046142578125, -293.6346435546875, -210.10885620117188, -126.58303833007812, -43.057220458984375, 40.46856689453125, 123.994384765625, 207.52020263671875, 291.0460205078125, 374.57183837890625, 458.0976257324219, 541.6234130859375, 625.1492919921875, 708.675048828125, 792.2008666992188, 875.7266845703125, 959.2525024414062, 1042.7783203125, 1126.3040771484375, 1209.8299560546875, 1293.355712890625, 1376.881591796875, 1460.4073486328125, 1543.93310546875, 1627.4588623046875, 1710.9847412109375, 1794.510498046875, 1878.036376953125, 1961.5621337890625, 2045.087890625, 2128.61376953125, 2212.1396484375]}, "gradients/module.bn_ch_2.bias": {"_type": "histogram", "values": [2.0, 0.0, 1.0, 1.0, 1.0, 0.0, 4.0, 1.0, 1.0, 6.0, 6.0, 9.0, 5.0, 7.0, 17.0, 9.0, 13.0, 16.0, 27.0, 11.0, 17.0, 20.0, 13.0, 7.0, 12.0, 8.0, 6.0, 15.0, 5.0, 3.0, 2.0, 1.0, 0.0, 0.0, 1.0, 0.0, 1.0, 2.0, 1.0, 1.0, 0.0, 0.0, 0.0, 0.0, 1.0, 0.0, 0.0, 0.0, 0.0, 0.0, 0.0, 1.0, 0.0, 0.0, 0.0, 0.0, 0.0, 1.0, 0.0, 0.0, 0.0, 0.0, 0.0, 1.0], "bins": [-2609.58935546875, -2471.33349609375, -2333.07763671875, -2194.82177734375, -2056.56591796875, -1918.3099365234375, -1780.053955078125, -1641.798095703125, -1503.542236328125, -1365.286376953125, -1227.030517578125, -1088.7745361328125, -950.5186767578125, -812.2628173828125, -674.0068969726562, -535.7509765625, -397.4951171875, -259.2392272949219, -120.98333740234375, 17.272552490234375, 155.5284423828125, 293.7843017578125, 432.04022216796875, 570.296142578125, 708.552001953125, 846.807861328125, 985.0637817382812, 1123.3197021484375, 1261.5755615234375, 1399.8314208984375, 1538.08740234375, 1676.34326171875, 1814.5986328125, 1952.8544921875, 2091.1103515625, 2229.3662109375, 2367.6220703125, 2505.8779296875, 2644.134033203125, 2782.389892578125, 2920.645751953125, 3058.901611328125, 3197.157470703125, 3335.413330078125, 3473.66943359375, 3611.92529296875, 3750.18115234375, 3888.43701171875, 4026.69287109375, 4164.94873046875, 4303.20458984375, 4441.46044921875, 4579.71630859375, 4717.97216796875, 4856.22802734375, 4994.484375, 5132.740234375, 5270.99609375, 5409.251953125, 5547.5078125, 5685.763671875, 5824.01953125, 5962.275390625, 6100.53125, 6238.787109375]}, "gradients/module.linear_ch_2.bias": {"_type": "histogram", "values": [1.0, 0.0, 0.0, 0.0, 0.0, 0.0, 0.0, 0.0, 1.0, 0.0, 0.0, 0.0, 0.0, 0.0, 0.0, 0.0, 0.0, 0.0, 0.0, 2.0, 1.0, 1.0, 1.0, 2.0, 3.0, 6.0, 7.0, 2.0, 8.0, 7.0, 8.0, 7.0, 9.0, 18.0, 19.0, 29.0, 27.0, 16.0, 16.0, 13.0, 10.0, 7.0, 9.0, 4.0, 7.0, 1.0, 5.0, 0.0, 2.0, 2.0, 0.0, 2.0, 0.0, 0.0, 0.0, 0.0, 0.0, 0.0, 0.0, 0.0, 1.0, 0.0, 1.0, 1.0], "bins": [-0.802734375, -0.780120849609375, -0.75750732421875, -0.734893798828125, -0.7122802734375, -0.689666748046875, -0.66705322265625, -0.644439697265625, -0.621826171875, -0.599212646484375, -0.57659912109375, -0.553985595703125, -0.5313720703125, -0.508758544921875, -0.48614501953125, -0.463531494140625, -0.44091796875, -0.418304443359375, -0.39569091796875, -0.373077392578125, -0.3504638671875, -0.327850341796875, -0.30523681640625, -0.282623291015625, -0.260009765625, -0.237396240234375, -0.21478271484375, -0.192169189453125, -0.1695556640625, -0.146942138671875, -0.12432861328125, -0.101715087890625, -0.0791015625, -0.056488037109375, -0.03387451171875, -0.011260986328125, 0.0113525390625, 0.033966064453125, 0.05657958984375, 0.079193115234375, 0.101806640625, 0.124420166015625, 0.14703369140625, 0.169647216796875, 0.1922607421875, 0.214874267578125, 0.23748779296875, 0.260101318359375, 0.28271484375, 0.305328369140625, 0.32794189453125, 0.350555419921875, 0.3731689453125, 0.395782470703125, 0.41839599609375, 0.441009521484375, 0.463623046875, 0.486236572265625, 0.50885009765625, 0.531463623046875, 0.5540771484375, 0.576690673828125, 0.59930419921875, 0.621917724609375, 0.64453125]}, "gradients/module.linear_ch_2.weight": {"_type": "histogram", "values": [1.0, 2.0, 3.0, 4.0, 12.0, 13.0, 15.0, 19.0, 34.0, 47.0, 83.0, 130.0, 222.0, 358.0, 660.0, 1518.0, 3878.0, 15963.0, 6044.0, 2035.0, 829.0, 355.0, 177.0, 101.0, 70.0, 41.0, 32.0, 22.0, 23.0, 20.0, 11.0, 7.0, 7.0, 12.0, 5.0, 3.0, 4.0, 2.0, 0.0, 0.0, 2.0, 1.0, 1.0, 0.0, 0.0, 0.0, 0.0, 0.0, 0.0, 0.0, 0.0, 0.0, 0.0, 0.0, 0.0, 0.0, 0.0, 0.0, 0.0, 1.0, 0.0, 0.0, 0.0, 1.0], "bins": [-59.78125, -56.39599609375, -53.0107421875, -49.62548828125, -46.240234375, -42.85498046875, -39.4697265625, -36.08447265625, -32.69921875, -29.31396484375, -25.9287109375, -22.54345703125, -19.158203125, -15.77294921875, -12.3876953125, -9.00244140625, -5.6171875, -2.23193359375, 1.1533203125, 4.53857421875, 7.923828125, 11.30908203125, 14.6943359375, 18.07958984375, 21.46484375, 24.85009765625, 28.2353515625, 31.62060546875, 35.005859375, 38.39111328125, 41.7763671875, 45.16162109375, 48.546875, 51.93212890625, 55.3173828125, 58.70263671875, 62.087890625, 65.47314453125, 68.8583984375, 72.24365234375, 75.62890625, 79.01416015625, 82.3994140625, 85.78466796875, 89.169921875, 92.55517578125, 95.9404296875, 99.32568359375, 102.7109375, 106.09619140625, 109.4814453125, 112.86669921875, 116.251953125, 119.63720703125, 123.0224609375, 126.40771484375, 129.79296875, 133.17822265625, 136.5634765625, 139.94873046875, 143.333984375, 146.71923828125, 150.1044921875, 153.48974609375, 156.875]}, "gradients/module.bn_ch_1.weight": {"_type": "histogram", "values": [1.0, 0.0, 0.0, 0.0, 0.0, 0.0, 0.0, 0.0, 0.0, 0.0, 0.0, 0.0, 0.0, 0.0, 0.0, 0.0, 0.0, 0.0, 0.0, 0.0, 0.0, 0.0, 0.0, 0.0, 0.0, 0.0, 0.0, 0.0, 0.0, 0.0, 0.0, 0.0, 0.0, 0.0, 0.0, 0.0, 0.0, 0.0, 0.0, 1.0, 0.0, 0.0, 0.0, 0.0, 0.0, 0.0, 0.0, 0.0, 0.0, 0.0, 0.0, 0.0, 0.0, 2.0, 2.0, 7.0, 10.0, 20.0, 23.0, 17.0, 16.0, 15.0, 10.0, 4.0], "bins": [-17507.466796875, -17208.990234375, -16910.513671875, -16612.037109375, -16313.560546875, -16015.083984375, -15716.607421875, -15418.130859375, -15119.654296875, -14821.177734375, -14522.701171875, -14224.224609375, -13925.748046875, -13627.271484375, -13328.794921875, -13030.318359375, -12731.841796875, -12433.365234375, -12134.888671875, -11836.412109375, -11537.935546875, -11239.458984375, -10940.982421875, -10642.505859375, -10344.0283203125, -10045.5517578125, -9747.0751953125, -9448.5986328125, -9150.1220703125, -8851.6455078125, -8553.1689453125, -8254.6923828125, -7956.216796875, -7657.740234375, -7359.263671875, -7060.787109375, -6762.310546875, -6463.833984375, -6165.357421875, -5866.880859375, -5568.40380859375, -5269.92724609375, -4971.45068359375, -4672.97412109375, -4374.49755859375, -4076.02099609375, -3777.544189453125, -3479.067626953125, -3180.59130859375, -2882.11474609375, -2583.63818359375, -2285.16162109375, -1986.6849365234375, -1688.2083740234375, -1389.731689453125, -1091.255126953125, -792.7784423828125, -494.3018493652344, -195.82525634765625, 102.6513671875, 401.1279296875, 699.6044921875, 998.0811767578125, 1296.5577392578125, 1595.0343017578125]}, "gradients/module.bn_ch_1.bias": {"_type": "histogram", "values": [1.0, 0.0, 0.0, 0.0, 0.0, 0.0, 0.0, 0.0, 0.0, 0.0, 0.0, 0.0, 0.0, 0.0, 0.0, 0.0, 0.0, 0.0, 0.0, 0.0, 0.0, 0.0, 0.0, 0.0, 0.0, 0.0, 0.0, 0.0, 0.0, 0.0, 0.0, 0.0, 0.0, 0.0, 0.0, 0.0, 0.0, 0.0, 0.0, 0.0, 0.0, 0.0, 0.0, 0.0, 0.0, 0.0, 0.0, 0.0, 0.0, 1.0, 0.0, 1.0, 0.0, 0.0, 1.0, 9.0, 25.0, 37.0, 30.0, 13.0, 4.0, 0.0, 4.0, 2.0], "bins": [-29340.80078125, -28829.70703125, -28318.615234375, -27807.521484375, -27296.4296875, -26785.3359375, -26274.2421875, -25763.150390625, -25252.056640625, -24740.962890625, -24229.87109375, -23718.77734375, -23207.68359375, -22696.591796875, -22185.498046875, -21674.40625, -21163.3125, -20652.21875, -20141.126953125, -19630.033203125, -19118.94140625, -18607.84765625, -18096.75390625, -17585.662109375, -17074.568359375, -16563.474609375, -16052.3828125, -15541.2890625, -15030.1962890625, -14519.103515625, -14008.009765625, -13496.9169921875, -12985.8251953125, -12474.732421875, -11963.638671875, -11452.5458984375, -10941.453125, -10430.3603515625, -9919.267578125, -9408.173828125, -8897.0810546875, -8385.98828125, -7874.89501953125, -7363.8017578125, -6852.708984375, -6341.6162109375, -5830.52294921875, -5319.4296875, -4808.3369140625, -4297.244140625, -3786.15087890625, -3275.057861328125, -2763.96484375, -2252.871826171875, -1741.77880859375, -1230.685791015625, -719.5927734375, -208.499755859375, 302.59326171875, 813.686279296875, 1324.779296875, 1835.872314453125, 2346.96533203125, 2858.058349609375, 3369.1513671875]}, "gradients/module.linear_ch_1.bias": {"_type": "histogram", "values": [1.0, 0.0, 0.0, 0.0, 0.0, 0.0, 0.0, 0.0, 0.0, 0.0, 0.0, 0.0, 0.0, 0.0, 0.0, 0.0, 0.0, 0.0, 0.0, 0.0, 0.0, 0.0, 0.0, 0.0, 0.0, 0.0, 0.0, 0.0, 0.0, 0.0, 0.0, 0.0, 0.0, 0.0, 0.0, 0.0, 0.0, 0.0, 0.0, 0.0, 0.0, 0.0, 0.0, 0.0, 0.0, 0.0, 0.0, 0.0, 0.0, 0.0, 0.0, 0.0, 0.0, 0.0, 0.0, 0.0, 1.0, 0.0, 6.0, 46.0, 66.0, 4.0, 1.0, 3.0], "bins": [-0.57275390625, -0.5632500648498535, -0.553746223449707, -0.5442423820495605, -0.5347385406494141, -0.5252346992492676, -0.5157308578491211, -0.5062270164489746, -0.4967231750488281, -0.48721933364868164, -0.47771549224853516, -0.46821165084838867, -0.4587078094482422, -0.4492039680480957, -0.4397001266479492, -0.43019628524780273, -0.42069244384765625, -0.41118860244750977, -0.4016847610473633, -0.3921809196472168, -0.3826770782470703, -0.37317323684692383, -0.36366939544677734, -0.35416555404663086, -0.3446617126464844, -0.3351578712463379, -0.3256540298461914, -0.3161501884460449, -0.30664634704589844, -0.29714250564575195, -0.28763866424560547, -0.278134822845459, -0.2686309814453125, -0.259127140045166, -0.24962329864501953, -0.24011945724487305, -0.23061561584472656, -0.22111177444458008, -0.2116079330444336, -0.2021040916442871, -0.19260025024414062, -0.18309640884399414, -0.17359256744384766, -0.16408872604370117, -0.1545848846435547, -0.1450810432434082, -0.13557720184326172, -0.12607336044311523, -0.11656951904296875, -0.10706567764282227, -0.09756183624267578, -0.0880579948425293, -0.07855415344238281, -0.06905031204223633, -0.059546470642089844, -0.05004262924194336, -0.040538787841796875, -0.03103494644165039, -0.021531105041503906, -0.012027263641357422, -0.0025234222412109375, 0.006980419158935547, 0.01648426055908203, 0.025988101959228516, 0.035491943359375]}, "gradients/module.linear_ch_1.weight": {"_type": "histogram", "values": [1.0, 0.0, 1.0, 0.0, 0.0, 0.0, 1.0, 0.0, 0.0, 0.0, 0.0, 0.0, 0.0, 0.0, 0.0, 0.0, 1.0, 0.0, 0.0, 0.0, 0.0, 1.0, 0.0, 0.0, 2.0, 0.0, 0.0, 0.0, 0.0, 1.0, 1.0, 1.0, 10.0, 264.0, 3382.0, 31.0, 6.0, 1.0, 1.0, 1.0, 0.0, 1.0, 0.0, 1.0, 1.0, 0.0, 0.0, 0.0, 0.0, 1.0, 0.0, 0.0, 0.0, 0.0, 1.0, 0.0, 0.0, 0.0, 0.0, 0.0, 0.0, 0.0, 0.0, 1.0], "bins": [-2732.0, -2652.25, -2572.5, -2492.75, -2413.0, -2333.25, -2253.5, -2173.75, -2094.0, -2014.25, -1934.5, -1854.75, -1775.0, -1695.25, -1615.5, -1535.75, -1456.0, -1376.25, -1296.5, -1216.75, -1137.0, -1057.25, -977.5, -897.75, -818.0, -738.25, -658.5, -578.75, -499.0, -419.25, -339.5, -259.75, -180.0, -100.25, -20.5, 59.25, 139.0, 218.75, 298.5, 378.25, 458.0, 537.75, 617.5, 697.25, 777.0, 856.75, 936.5, 1016.25, 1096.0, 1175.75, 1255.5, 1335.25, 1415.0, 1494.75, 1574.5, 1654.25, 1734.0, 1813.75, 1893.5, 1973.25, 2053.0, 2132.75, 2212.5, 2292.25, 2372.0]}, "gradients/module.linear1_2.bias": {"_type": "histogram", "values": [1.0, 0.0, 0.0, 0.0, 1.0, 0.0, 0.0, 1.0, 0.0, 0.0, 1.0, 1.0, 1.0, 1.0, 0.0, 2.0, 3.0, 3.0, 5.0, 6.0, 11.0, 10.0, 24.0, 20.0, 20.0, 27.0, 36.0, 48.0, 52.0, 53.0, 45.0, 20.0, 33.0, 17.0, 15.0, 13.0, 10.0, 5.0, 6.0, 3.0, 3.0, 4.0, 3.0, 5.0, 1.0, 0.0, 0.0, 0.0, 0.0, 0.0, 0.0, 0.0, 0.0, 0.0, 1.0, 0.0, 0.0, 0.0, 0.0, 0.0, 0.0, 0.0, 0.0, 1.0], "bins": [-1.1044921875, -1.065826416015625, -1.02716064453125, -0.988494873046875, -0.9498291015625, -0.911163330078125, -0.87249755859375, -0.833831787109375, -0.795166015625, -0.756500244140625, -0.71783447265625, -0.679168701171875, -0.6405029296875, -0.601837158203125, -0.56317138671875, -0.524505615234375, -0.48583984375, -0.447174072265625, -0.40850830078125, -0.369842529296875, -0.3311767578125, -0.292510986328125, -0.25384521484375, -0.215179443359375, -0.176513671875, -0.137847900390625, -0.09918212890625, -0.060516357421875, -0.0218505859375, 0.016815185546875, 0.05548095703125, 0.094146728515625, 0.1328125, 0.171478271484375, 0.21014404296875, 0.248809814453125, 0.2874755859375, 0.326141357421875, 0.36480712890625, 0.403472900390625, 0.442138671875, 0.480804443359375, 0.51947021484375, 0.558135986328125, 0.5968017578125, 0.635467529296875, 0.67413330078125, 0.712799072265625, 0.75146484375, 0.790130615234375, 0.82879638671875, 0.867462158203125, 0.9061279296875, 0.944793701171875, 0.98345947265625, 1.022125244140625, 1.060791015625, 1.099456787109375, 1.13812255859375, 1.176788330078125, 1.2154541015625, 1.254119873046875, 1.29278564453125, 1.331451416015625, 1.3701171875]}, "gradients/module.linear1_2.weight": {"_type": "histogram", "values": [1.0, 0.0, 0.0, 0.0, 1.0, 2.0, 5.0, 9.0, 28.0, 34.0, 108.0, 333.0, 1400.0, 13928.0, 452743.0, 50338.0, 3284.0, 860.0, 429.0, 280.0, 195.0, 91.0, 70.0, 53.0, 30.0, 15.0, 15.0, 12.0, 3.0, 4.0, 2.0, 1.0, 6.0, 0.0, 1.0, 1.0, 0.0, 2.0, 0.0, 0.0, 0.0, 0.0, 0.0, 1.0, 0.0, 0.0, 0.0, 0.0, 0.0, 0.0, 0.0, 2.0, 0.0, 0.0, 0.0, 0.0, 0.0, 0.0, 0.0, 0.0, 0.0, 0.0, 0.0, 1.0], "bins": [-95.875, -89.341796875, -82.80859375, -76.275390625, -69.7421875, -63.208984375, -56.67578125, -50.142578125, -43.609375, -37.076171875, -30.54296875, -24.009765625, -17.4765625, -10.943359375, -4.41015625, 2.123046875, 8.65625, 15.189453125, 21.72265625, 28.255859375, 34.7890625, 41.322265625, 47.85546875, 54.388671875, 60.921875, 67.455078125, 73.98828125, 80.521484375, 87.0546875, 93.587890625, 100.12109375, 106.654296875, 113.1875, 119.720703125, 126.25390625, 132.787109375, 139.3203125, 145.853515625, 152.38671875, 158.919921875, 165.453125, 171.986328125, 178.51953125, 185.052734375, 191.5859375, 198.119140625, 204.65234375, 211.185546875, 217.71875, 224.251953125, 230.78515625, 237.318359375, 243.8515625, 250.384765625, 256.91796875, 263.451171875, 269.984375, 276.517578125, 283.05078125, 289.583984375, 296.1171875, 302.650390625, 309.18359375, 315.716796875, 322.25]}, "gradients/module.bn1.weight": {"_type": "histogram", "values": [1.0, 0.0, 0.0, 0.0, 1.0, 2.0, 2.0, 0.0, 2.0, 1.0, 2.0, 4.0, 3.0, 10.0, 11.0, 12.0, 10.0, 19.0, 17.0, 18.0, 14.0, 26.0, 29.0, 30.0, 41.0, 45.0, 38.0, 43.0, 46.0, 48.0, 54.0, 48.0, 53.0, 41.0, 41.0, 39.0, 43.0, 38.0, 23.0, 28.0, 22.0, 14.0, 21.0, 8.0, 14.0, 9.0, 17.0, 6.0, 6.0, 4.0, 3.0, 3.0, 1.0, 3.0, 1.0, 0.0, 4.0, 0.0, 1.0, 1.0, 0.0, 0.0, 0.0, 3.0], "bins": [-3065.36181640625, -2965.2802734375, -2865.198486328125, -2765.116943359375, -2665.035400390625, -2564.95361328125, -2464.8720703125, -2364.79052734375, -2264.708984375, -2164.62744140625, -2064.545654296875, -1964.464111328125, -1864.382568359375, -1764.3009033203125, -1664.21923828125, -1564.1376953125, -1464.055908203125, -1363.9742431640625, -1263.8927001953125, -1163.81103515625, -1063.7294921875, -963.6478271484375, -863.566162109375, -763.4845581054688, -663.4029541015625, -563.3213500976562, -463.2397155761719, -363.1580810546875, -263.07647705078125, -162.994873046875, -62.9132080078125, 37.16839599609375, 137.250244140625, 237.3318634033203, 337.4134826660156, 437.4951171875, 537.5767211914062, 637.6583251953125, 737.739990234375, 837.8215942382812, 937.9031982421875, 1037.98486328125, 1138.06640625, 1238.1480712890625, 1338.229736328125, 1438.311279296875, 1538.3929443359375, 1638.474609375, 1738.55615234375, 1838.6378173828125, 1938.7193603515625, 2038.801025390625, 2138.882568359375, 2238.96435546875, 2339.0458984375, 2439.12744140625, 2539.208984375, 2639.29052734375, 2739.372314453125, 2839.453857421875, 2939.535400390625, 3039.6171875, 3139.69873046875, 3239.7802734375, 3339.862060546875]}, "gradients/module.bn1.bias": {"_type": "histogram", "values": [2.0, 0.0, 0.0, 0.0, 1.0, 0.0, 0.0, 1.0, 1.0, 1.0, 0.0, 1.0, 1.0, 1.0, 7.0, 2.0, 6.0, 6.0, 8.0, 11.0, 17.0, 16.0, 14.0, 25.0, 21.0, 26.0, 31.0, 44.0, 28.0, 39.0, 45.0, 60.0, 51.0, 56.0, 43.0, 51.0, 50.0, 34.0, 51.0, 34.0, 29.0, 28.0, 33.0, 34.0, 19.0, 15.0, 13.0, 11.0, 12.0, 10.0, 10.0, 5.0, 4.0, 3.0, 1.0, 4.0, 3.0, 1.0, 0.0, 0.0, 1.0, 0.0, 0.0, 3.0], "bins": [-2820.72216796875, -2737.427001953125, -2654.131591796875, -2570.83642578125, -2487.541015625, -2404.245849609375, -2320.95068359375, -2237.6552734375, -2154.360107421875, -2071.06494140625, -1987.76953125, -1904.474365234375, -1821.1790771484375, -1737.8837890625, -1654.5885009765625, -1571.293212890625, -1487.9979248046875, -1404.70263671875, -1321.4073486328125, -1238.112060546875, -1154.81689453125, -1071.5216064453125, -988.226318359375, -904.9310913085938, -821.6358032226562, -738.3405151367188, -655.0452880859375, -571.75, -488.4547424316406, -405.15948486328125, -321.86419677734375, -238.5689697265625, -155.273681640625, -71.9784164428711, 11.316848754882812, 94.61212158203125, 177.90737915039062, 261.20263671875, 344.4979248046875, 427.79315185546875, 511.08843994140625, 594.3837280273438, 677.678955078125, 760.9742431640625, 844.26953125, 927.5647583007812, 1010.8600463867188, 1094.1552734375, 1177.4505615234375, 1260.745849609375, 1344.0411376953125, 1427.33642578125, 1510.631591796875, 1593.9268798828125, 1677.22216796875, 1760.517333984375, 1843.812744140625, 1927.1080322265625, 2010.4033203125, 2093.698486328125, 2176.993896484375, 2260.2890625, 2343.58447265625, 2426.879638671875, 2510.1748046875]}, "gradients/module.linear1_1.bias": {"_type": "histogram", "values": [1.0, 0.0, 1.0, 0.0, 0.0, 2.0, 0.0, 2.0, 2.0, 3.0, 4.0, 4.0, 3.0, 7.0, 11.0, 10.0, 11.0, 12.0, 13.0, 23.0, 31.0, 34.0, 34.0, 37.0, 58.0, 58.0, 63.0, 68.0, 68.0, 71.0, 57.0, 48.0, 48.0, 38.0, 35.0, 27.0, 34.0, 28.0, 17.0, 10.0, 12.0, 4.0, 11.0, 3.0, 3.0, 2.0, 3.0, 7.0, 1.0, 1.0, 0.0, 1.0, 0.0, 0.0, 1.0, 0.0, 1.0, 0.0, 0.0, 0.0, 0.0, 0.0, 0.0, 1.0], "bins": [-0.0013885498046875, -0.001340031623840332, -0.001291513442993164, -0.001242995262145996, -0.0011944770812988281, -0.0011459589004516602, -0.0010974407196044922, -0.0010489225387573242, -0.0010004043579101562, -0.0009518861770629883, -0.0009033679962158203, -0.0008548498153686523, -0.0008063316345214844, -0.0007578134536743164, -0.0007092952728271484, -0.0006607770919799805, -0.0006122589111328125, -0.0005637407302856445, -0.0005152225494384766, -0.0004667043685913086, -0.0004181861877441406, -0.00036966800689697266, -0.0003211498260498047, -0.0002726316452026367, -0.00022411346435546875, -0.00017559528350830078, -0.0001270771026611328, -7.855892181396484e-05, -3.0040740966796875e-05, 1.8477439880371094e-05, 6.699562072753906e-05, 0.00011551380157470703, 0.000164031982421875, 0.00021255016326904297, 0.00026106834411621094, 0.0003095865249633789, 0.0003581047058105469, 0.00040662288665771484, 0.0004551410675048828, 0.0005036592483520508, 0.0005521774291992188, 0.0006006956100463867, 0.0006492137908935547, 0.0006977319717407227, 0.0007462501525878906, 0.0007947683334350586, 0.0008432865142822266, 0.0008918046951293945, 0.0009403228759765625, 0.0009888410568237305, 0.0010373592376708984, 0.0010858774185180664, 0.0011343955993652344, 0.0011829137802124023, 0.0012314319610595703, 0.0012799501419067383, 0.0013284683227539062, 0.0013769865036010742, 0.0014255046844482422, 0.0014740228652954102, 0.0015225410461425781, 0.001571059226989746, 0.001619577407836914, 0.001668095588684082, 0.00171661376953125]}, "gradients/module.linear1_1.weight": {"_type": "histogram", "values": [1.0, 1.0, 0.0, 0.0, 1.0, 2.0, 5.0, 7.0, 4.0, 3.0, 15.0, 12.0, 18.0, 15.0, 19.0, 24.0, 39.0, 48.0, 67.0, 80.0, 92.0, 135.0, 212.0, 279.0, 438.0, 721.0, 1384.0, 3065.0, 7903.0, 29763.0, 978254.0, 50120240.0, 40533.0, 9013.0, 3355.0, 1652.0, 875.0, 511.0, 327.0, 198.0, 145.0, 118.0, 103.0, 51.0, 69.0, 42.0, 31.0, 31.0, 13.0, 23.0, 12.0, 11.0, 8.0, 5.0, 3.0, 6.0, 1.0, 5.0, 5.0, 3.0, 1.0, 2.0, 3.0, 2.0], "bins": [-242.5, -234.6953125, -226.890625, -219.0859375, -211.28125, -203.4765625, -195.671875, -187.8671875, -180.0625, -172.2578125, -164.453125, -156.6484375, -148.84375, -141.0390625, -133.234375, -125.4296875, -117.625, -109.8203125, -102.015625, -94.2109375, -86.40625, -78.6015625, -70.796875, -62.9921875, -55.1875, -47.3828125, -39.578125, -31.7734375, -23.96875, -16.1640625, -8.359375, -0.5546875, 7.25, 15.0546875, 22.859375, 30.6640625, 38.46875, 46.2734375, 54.078125, 61.8828125, 69.6875, 77.4921875, 85.296875, 93.1015625, 100.90625, 108.7109375, 116.515625, 124.3203125, 132.125, 139.9296875, 147.734375, 155.5390625, 163.34375, 171.1484375, 178.953125, 186.7578125, 194.5625, 202.3671875, 210.171875, 217.9765625, 225.78125, 233.5859375, 241.390625, 249.1953125, 257.0]}, "Train loss": 1.1054825879967622, "Train Accuracy Margin-0": 71.0355399073374, "Train Accuracy Margin-1": 97.47798760615764, "Train Accuracy Margin-2": 99.7302280176295, "Train Accuracy Missed Cleavages": 97.90506644565363, "Train Accuracy Modifications": 98.66670583875428, "Test loss": 2.0675661091060076, "Test Accuracy Margin-0": 66.16526472043543, "Test Accuracy Margin-1": 95.60531090219364, "Test Accuracy Margin-2": 99.255731486063, "Test Accuracy Missed Cleavages": 88.44322117763484, "Test Accuracy Modifications": 92.61875309252845, "_step": 156}