{"gradients/module.linear_out.bias": {"_type": "histogram", "values": [0.0, 0.0, 0.0, 0.0, 0.0, 0.0, 0.0, 0.0, 0.0, 0.0, 0.0, 0.0, 0.0, 0.0, 0.0, 0.0, 0.0, 0.0, 0.0, 0.0, 0.0, 0.0, 0.0, 0.0, 0.0, 0.0, 0.0, 0.0, 0.0, 0.0, 0.0, 0.0, 1.0, 0.0, 0.0, 0.0, 0.0, 0.0, 0.0, 0.0, 0.0, 0.0, 0.0, 0.0, 0.0, 0.0, 0.0, 0.0, 0.0, 0.0, 0.0, 0.0, 0.0, 0.0, 0.0, 0.0, 0.0, 0.0, 0.0, 0.0, 0.0, 0.0, 0.0, 0.0], "bins": [-809.5, -809.5, -809.5, -809.5, -809.5, -809.5, -809.5, -809.5, -809.5, -809.5, -809.5, -809.5, -809.5, -809.5, -809.5, -809.5, -809.5, -809.5, -809.5, -809.5, -809.5, -809.5, -809.5, -809.5, -809.5, -809.5, -809.5, -809.5, -809.5, -809.5, -809.5, -809.5, -809.5, -809.5, -809.5, -809.5, -809.5, -809.5, -809.5, -809.5, -809.5, -809.5, -809.5, -809.5, -809.5, -809.5, -809.5, -809.5, -809.5, -809.5, -809.5, -809.5, -809.5, -809.5, -809.5, -809.5, -809.5, -809.5, -809.5, -809.5, -809.5, -809.5, -809.5, -809.5, -809.5]}, "_timestamp": 1663604874.8094907, "_runtime": 245111.39791178703, "gradients/module.linear_out.weight": {"_type": "histogram", "values": [2.0, 0.0, 0.0, 1.0, 2.0, 3.0, 3.0, 3.0, 1.0, 0.0, 6.0, 5.0, 6.0, 3.0, 3.0, 5.0, 4.0, 4.0, 7.0, 4.0, 5.0, 1.0, 9.0, 3.0, 3.0, 2.0, 2.0, 2.0, 1.0, 2.0, 1.0, 1.0, 0.0, 4.0, 0.0, 1.0, 0.0, 1.0, 0.0, 1.0, 0.0, 0.0, 0.0, 1.0, 0.0, 1.0, 2.0, 4.0, 1.0, 3.0, 1.0, 1.0, 1.0, 0.0, 0.0, 3.0, 2.0, 2.0, 2.0, 0.0, 1.0, 1.0, 0.0, 1.0], "bins": [-22.015625, -21.676952362060547, -21.338279724121094, -20.99960708618164, -20.660934448242188, -20.322261810302734, -19.98358917236328, -19.644916534423828, -19.306243896484375, -18.967571258544922, -18.62889862060547, -18.290225982666016, -17.951553344726562, -17.61288070678711, -17.274208068847656, -16.935535430908203, -16.59686279296875, -16.258190155029297, -15.919517517089844, -15.58084487915039, -15.242172241210938, -14.903499603271484, -14.564826965332031, -14.226154327392578, -13.887481689453125, -13.548809051513672, -13.210136413574219, -12.871463775634766, -12.532791137695312, -12.19411849975586, -11.855445861816406, -11.516773223876953, -11.1781005859375, -10.839427947998047, -10.500755310058594, -10.16208267211914, -9.823410034179688, -9.484737396240234, -9.146064758300781, -8.807392120361328, -8.468719482421875, -8.130046844482422, -7.791374206542969, -7.452701568603516, -7.1140289306640625, -6.775356292724609, -6.436683654785156, -6.098011016845703, -5.75933837890625, -5.420665740966797, -5.081993103027344, -4.743320465087891, -4.4046478271484375, -4.065975189208984, -3.7273025512695312, -3.388629913330078, -3.049957275390625, -2.711284637451172, -2.3726119995117188, -2.0339393615722656, -1.6952667236328125, -1.3565940856933594, -1.0179214477539062, -0.6792488098144531, -0.340576171875]}, "gradients/module.bn4.weight": {"_type": "histogram", "values": [1.0, 1.0, 0.0, 0.0, 1.0, 0.0, 1.0, 3.0, 2.0, 0.0, 4.0, 2.0, 5.0, 4.0, 2.0, 6.0, 6.0, 10.0, 6.0, 4.0, 5.0, 8.0, 3.0, 6.0, 4.0, 8.0, 4.0, 0.0, 5.0, 0.0, 1.0, 1.0, 2.0, 1.0, 0.0, 1.0, 0.0, 0.0, 0.0, 0.0, 0.0, 0.0, 0.0, 0.0, 0.0, 0.0, 0.0, 0.0, 0.0, 1.0, 0.0, 0.0, 1.0, 0.0, 1.0, 2.0, 3.0, 0.0, 2.0, 4.0, 1.0, 1.0, 3.0, 2.0], "bins": [-1828.5103759765625, -1790.301513671875, -1752.0926513671875, -1713.8836669921875, -1675.6748046875, -1637.4659423828125, -1599.257080078125, -1561.048095703125, -1522.8392333984375, -1484.63037109375, -1446.4215087890625, -1408.2125244140625, -1370.003662109375, -1331.7947998046875, -1293.5859375, -1255.376953125, -1217.168212890625, -1178.9593505859375, -1140.75048828125, -1102.54150390625, -1064.3326416015625, -1026.123779296875, -987.9149169921875, -949.7059936523438, -911.4970703125, -873.2882080078125, -835.0792846679688, -796.8704223632812, -758.6614990234375, -720.45263671875, -682.2437744140625, -644.0348510742188, -605.8258666992188, -567.6170043945312, -529.4080810546875, -491.19921875, -452.99029541015625, -414.78143310546875, -376.5725402832031, -338.3636474609375, -300.1547546386719, -261.94586181640625, -223.73696899414062, -185.52809143066406, -147.31919860839844, -109.11030578613281, -70.90142822265625, -32.692535400390625, 5.516357421875, 43.72524642944336, 81.93413543701172, 120.14302062988281, 158.35191345214844, 196.56080627441406, 234.76968383789062, 272.97857666015625, 311.1874694824219, 349.3963623046875, 387.6052551269531, 425.81414794921875, 464.02301025390625, 502.23193359375, 540.4407958984375, 578.649658203125, 616.8585815429688]}, "gradients/module.bn4.bias": {"_type": "histogram", "values": [1.0, 2.0, 2.0, 5.0, 4.0, 3.0, 3.0, 3.0, 4.0, 9.0, 11.0, 13.0, 5.0, 7.0, 9.0, 4.0, 8.0, 4.0, 1.0, 2.0, 0.0, 0.0, 1.0, 0.0, 0.0, 0.0, 0.0, 0.0, 1.0, 0.0, 1.0, 0.0, 0.0, 3.0, 0.0, 0.0, 0.0, 0.0, 0.0, 1.0, 0.0, 0.0, 0.0, 0.0, 0.0, 0.0, 0.0, 1.0, 0.0, 0.0, 1.0, 1.0, 0.0, 1.0, 2.0, 0.0, 4.0, 2.0, 0.0, 4.0, 3.0, 0.0, 1.0, 1.0], "bins": [-1777.94384765625, -1738.7396240234375, -1699.5355224609375, -1660.331298828125, -1621.127197265625, -1581.9229736328125, -1542.71875, -1503.5146484375, -1464.3104248046875, -1425.106201171875, -1385.902099609375, -1346.6978759765625, -1307.49365234375, -1268.28955078125, -1229.0853271484375, -1189.881103515625, -1150.677001953125, -1111.4727783203125, -1072.2686767578125, -1033.064453125, -993.8602905273438, -954.6561279296875, -915.451904296875, -876.2477416992188, -837.0435791015625, -797.8394165039062, -758.63525390625, -719.4310302734375, -680.2268676757812, -641.022705078125, -601.8184814453125, -562.6143188476562, -523.4102783203125, -484.20611572265625, -445.0019226074219, -405.7977294921875, -366.59356689453125, -327.389404296875, -288.1852111816406, -248.98101806640625, -209.77685546875, -170.5726776123047, -131.36849975585938, -92.16432189941406, -52.96014404296875, -13.755966186523438, 25.448211669921875, 64.65240478515625, 103.8565673828125, 143.0607452392578, 182.26492309570312, 221.46910095214844, 260.67327880859375, 299.87744140625, 339.0816345214844, 378.28582763671875, 417.489990234375, 456.69415283203125, 495.8983459472656, 535.1025390625, 574.3067016601562, 613.5108642578125, 652.715087890625, 691.9192504882812, 731.1234130859375]}, "gradients/module.linear1_4.bias": {"_type": "histogram", "values": [1.0, 0.0, 1.0, 0.0, 0.0, 0.0, 0.0, 1.0, 0.0, 1.0, 0.0, 0.0, 0.0, 0.0, 1.0, 0.0, 1.0, 1.0, 0.0, 0.0, 0.0, 0.0, 0.0, 0.0, 1.0, 0.0, 0.0, 1.0, 2.0, 1.0, 1.0, 3.0, 1.0, 2.0, 4.0, 6.0, 1.0, 2.0, 6.0, 10.0, 9.0, 7.0, 9.0, 3.0, 4.0, 3.0, 4.0, 13.0, 7.0, 3.0, 4.0, 1.0, 3.0, 2.0, 1.0, 1.0, 0.0, 0.0, 2.0, 2.0, 1.0, 0.0, 0.0, 1.0], "bins": [-0.6533203125, -0.6379470825195312, -0.6225738525390625, -0.6072006225585938, -0.591827392578125, -0.5764541625976562, -0.5610809326171875, -0.5457077026367188, -0.53033447265625, -0.5149612426757812, -0.4995880126953125, -0.48421478271484375, -0.468841552734375, -0.45346832275390625, -0.4380950927734375, -0.42272186279296875, -0.4073486328125, -0.39197540283203125, -0.3766021728515625, -0.36122894287109375, -0.345855712890625, -0.33048248291015625, -0.3151092529296875, -0.29973602294921875, -0.28436279296875, -0.26898956298828125, -0.2536163330078125, -0.23824310302734375, -0.222869873046875, -0.20749664306640625, -0.1921234130859375, -0.17675018310546875, -0.161376953125, -0.14600372314453125, -0.1306304931640625, -0.11525726318359375, -0.099884033203125, -0.08451080322265625, -0.0691375732421875, -0.05376434326171875, -0.03839111328125, -0.02301788330078125, -0.0076446533203125, 0.00772857666015625, 0.023101806640625, 0.03847503662109375, 0.0538482666015625, 0.06922149658203125, 0.0845947265625, 0.09996795654296875, 0.1153411865234375, 0.13071441650390625, 0.146087646484375, 0.16146087646484375, 0.1768341064453125, 0.19220733642578125, 0.20758056640625, 0.22295379638671875, 0.2383270263671875, 0.25370025634765625, 0.269073486328125, 0.28444671630859375, 0.2998199462890625, 0.31519317626953125, 0.33056640625]}, "gradients/module.linear1_4.weight": {"_type": "histogram", "values": [1.0, 0.0, 0.0, 0.0, 0.0, 1.0, 0.0, 0.0, 0.0, 1.0, 2.0, 0.0, 0.0, 2.0, 1.0, 1.0, 2.0, 3.0, 5.0, 1.0, 6.0, 4.0, 3.0, 7.0, 8.0, 3.0, 3.0, 8.0, 12.0, 18.0, 9.0, 16.0, 24.0, 24.0, 37.0, 80.0, 91.0, 160.0, 328.0, 568.0, 1448.0, 22342.0, 5598.0, 972.0, 421.0, 191.0, 97.0, 52.0, 58.0, 44.0, 30.0, 18.0, 16.0, 9.0, 15.0, 2.0, 4.0, 4.0, 7.0, 4.0, 3.0, 1.0, 1.0, 2.0], "bins": [-280.25, -273.533203125, -266.81640625, -260.099609375, -253.3828125, -246.666015625, -239.94921875, -233.232421875, -226.515625, -219.798828125, -213.08203125, -206.365234375, -199.6484375, -192.931640625, -186.21484375, -179.498046875, -172.78125, -166.064453125, -159.34765625, -152.630859375, -145.9140625, -139.197265625, -132.48046875, -125.763671875, -119.046875, -112.330078125, -105.61328125, -98.896484375, -92.1796875, -85.462890625, -78.74609375, -72.029296875, -65.3125, -58.595703125, -51.87890625, -45.162109375, -38.4453125, -31.728515625, -25.01171875, -18.294921875, -11.578125, -4.861328125, 1.85546875, 8.572265625, 15.2890625, 22.005859375, 28.72265625, 35.439453125, 42.15625, 48.873046875, 55.58984375, 62.306640625, 69.0234375, 75.740234375, 82.45703125, 89.173828125, 95.890625, 102.607421875, 109.32421875, 116.041015625, 122.7578125, 129.474609375, 136.19140625, 142.908203125, 149.625]}, "gradients/module.linear_mod_2.bias": {"_type": "histogram", "values": [1.0, 0.0, 0.0, 0.0, 0.0, 0.0, 0.0, 0.0, 0.0, 0.0, 0.0, 0.0, 0.0, 0.0, 0.0, 0.0, 0.0, 0.0, 0.0, 0.0, 0.0, 0.0, 0.0, 0.0, 0.0, 0.0, 0.0, 0.0, 0.0, 0.0, 0.0, 0.0, 0.0, 0.0, 0.0, 0.0, 0.0, 0.0, 0.0, 0.0, 0.0, 0.0, 0.0, 0.0, 0.0, 0.0, 0.0, 0.0, 0.0, 0.0, 0.0, 0.0, 0.0, 0.0, 0.0, 0.0, 0.0, 0.0, 0.0, 0.0, 0.0, 0.0, 0.0, 1.0], "bins": [-19.53125, -18.9208984375, -18.310546875, -17.7001953125, -17.08984375, -16.4794921875, -15.869140625, -15.2587890625, -14.6484375, -14.0380859375, -13.427734375, -12.8173828125, -12.20703125, -11.5966796875, -10.986328125, -10.3759765625, -9.765625, -9.1552734375, -8.544921875, -7.9345703125, -7.32421875, -6.7138671875, -6.103515625, -5.4931640625, -4.8828125, -4.2724609375, -3.662109375, -3.0517578125, -2.44140625, -1.8310546875, -1.220703125, -0.6103515625, 0.0, 0.6103515625, 1.220703125, 1.8310546875, 2.44140625, 3.0517578125, 3.662109375, 4.2724609375, 4.8828125, 5.4931640625, 6.103515625, 6.7138671875, 7.32421875, 7.9345703125, 8.544921875, 9.1552734375, 9.765625, 10.3759765625, 10.986328125, 11.5966796875, 12.20703125, 12.8173828125, 13.427734375, 14.0380859375, 14.6484375, 15.2587890625, 15.869140625, 16.4794921875, 17.08984375, 17.7001953125, 18.310546875, 18.9208984375, 19.53125]}, "gradients/module.linear_mod_2.weight": {"_type": "histogram", "values": [2.0, 0.0, 5.0, 1.0, 1.0, 4.0, 6.0, 15.0, 9.0, 12.0, 10.0, 8.0, 7.0, 10.0, 8.0, 4.0, 4.0, 4.0, 2.0, 2.0, 1.0, 1.0, 0.0, 2.0, 0.0, 0.0, 0.0, 0.0, 0.0, 0.0, 0.0, 0.0, 20.0, 0.0, 0.0, 0.0, 0.0, 0.0, 0.0, 0.0, 2.0, 0.0, 1.0, 1.0, 2.0, 2.0, 4.0, 4.0, 4.0, 8.0, 10.0, 7.0, 8.0, 10.0, 12.0, 9.0, 15.0, 6.0, 4.0, 1.0, 1.0, 5.0, 0.0, 2.0], "bins": [-1.1240234375, -1.088897705078125, -1.05377197265625, -1.018646240234375, -0.9835205078125, -0.948394775390625, -0.91326904296875, -0.878143310546875, -0.843017578125, -0.807891845703125, -0.77276611328125, -0.737640380859375, -0.7025146484375, -0.667388916015625, -0.63226318359375, -0.597137451171875, -0.56201171875, -0.526885986328125, -0.49176025390625, -0.456634521484375, -0.4215087890625, -0.386383056640625, -0.35125732421875, -0.316131591796875, -0.281005859375, -0.245880126953125, -0.21075439453125, -0.175628662109375, -0.1405029296875, -0.105377197265625, -0.07025146484375, -0.035125732421875, 0.0, 0.035125732421875, 0.07025146484375, 0.105377197265625, 0.1405029296875, 0.175628662109375, 0.21075439453125, 0.245880126953125, 0.281005859375, 0.316131591796875, 0.35125732421875, 0.386383056640625, 0.4215087890625, 0.456634521484375, 0.49176025390625, 0.526885986328125, 0.56201171875, 0.597137451171875, 0.63226318359375, 0.667388916015625, 0.7025146484375, 0.737640380859375, 0.77276611328125, 0.807891845703125, 0.843017578125, 0.878143310546875, 0.91326904296875, 0.948394775390625, 0.9835205078125, 1.018646240234375, 1.05377197265625, 1.088897705078125, 1.1240234375]}, "gradients/module.linear_mod_1.bias": {"_type": "histogram", "values": [1.0, 1.0, 1.0, 0.0, 2.0, 2.0, 3.0, 3.0, 7.0, 2.0, 11.0, 3.0, 6.0, 4.0, 7.0, 3.0, 2.0, 1.0, 1.0, 1.0, 0.0, 0.0, 0.0, 0.0, 0.0, 0.0, 0.0, 0.0, 0.0, 0.0, 0.0, 0.0, 0.0, 0.0, 10.0, 0.0, 0.0, 0.0, 0.0, 0.0, 0.0, 0.0, 0.0, 0.0, 0.0, 0.0, 1.0, 2.0, 1.0, 3.0, 4.0, 6.0, 7.0, 5.0, 4.0, 7.0, 7.0, 5.0, 0.0, 2.0, 2.0, 0.0, 0.0, 1.0], "bins": [-32.15625, -31.234130859375, -30.31201171875, -29.389892578125, -28.4677734375, -27.545654296875, -26.62353515625, -25.701416015625, -24.779296875, -23.857177734375, -22.93505859375, -22.012939453125, -21.0908203125, -20.168701171875, -19.24658203125, -18.324462890625, -17.40234375, -16.480224609375, -15.55810546875, -14.635986328125, -13.7138671875, -12.791748046875, -11.86962890625, -10.947509765625, -10.025390625, -9.103271484375, -8.18115234375, -7.259033203125, -6.3369140625, -5.414794921875, -4.49267578125, -3.570556640625, -2.6484375, -1.726318359375, -0.80419921875, 0.117919921875, 1.0400390625, 1.962158203125, 2.88427734375, 3.806396484375, 4.728515625, 5.650634765625, 6.57275390625, 7.494873046875, 8.4169921875, 9.339111328125, 10.26123046875, 11.183349609375, 12.10546875, 13.027587890625, 13.94970703125, 14.871826171875, 15.7939453125, 16.716064453125, 17.63818359375, 18.560302734375, 19.482421875, 20.404541015625, 21.32666015625, 22.248779296875, 23.1708984375, 24.093017578125, 25.01513671875, 25.937255859375, 26.859375]}, "gradients/module.linear_mod_1.weight": {"_type": "histogram", "values": [1.0, 0.0, 0.0, 1.0, 3.0, 1.0, 5.0, 11.0, 8.0, 9.0, 16.0, 30.0, 13.0, 25.0, 32.0, 38.0, 45.0, 64.0, 67.0, 64.0, 76.0, 74.0, 95.0, 92.0, 93.0, 81.0, 125.0, 120.0, 146.0, 179.0, 265.0, 398.0, 745.0, 1597.0, 4217.0, 5121.0, 10028.0, 4854.0, 1545.0, 788.0, 371.0, 203.0, 149.0, 131.0, 106.0, 94.0, 91.0, 82.0, 85.0, 73.0, 62.0, 50.0, 42.0, 42.0, 33.0, 21.0, 19.0, 19.0, 9.0, 4.0, 4.0, 2.0, 2.0, 2.0], "bins": [-1.0078125, -0.9799652099609375, -0.952117919921875, -0.9242706298828125, -0.89642333984375, -0.8685760498046875, -0.840728759765625, -0.8128814697265625, -0.7850341796875, -0.7571868896484375, -0.729339599609375, -0.7014923095703125, -0.67364501953125, -0.6457977294921875, -0.617950439453125, -0.5901031494140625, -0.562255859375, -0.5344085693359375, -0.506561279296875, -0.4787139892578125, -0.45086669921875, -0.4230194091796875, -0.395172119140625, -0.3673248291015625, -0.3394775390625, -0.3116302490234375, -0.283782958984375, -0.2559356689453125, -0.22808837890625, -0.2002410888671875, -0.172393798828125, -0.1445465087890625, -0.11669921875, -0.0888519287109375, -0.061004638671875, -0.0331573486328125, -0.00531005859375, 0.0225372314453125, 0.050384521484375, 0.0782318115234375, 0.1060791015625, 0.1339263916015625, 0.161773681640625, 0.1896209716796875, 0.21746826171875, 0.2453155517578125, 0.273162841796875, 0.3010101318359375, 0.328857421875, 0.3567047119140625, 0.384552001953125, 0.4123992919921875, 0.44024658203125, 0.4680938720703125, 0.495941162109375, 0.5237884521484375, 0.5516357421875, 0.5794830322265625, 0.607330322265625, 0.6351776123046875, 0.66302490234375, 0.6908721923828125, 0.718719482421875, 0.7465667724609375, 0.7744140625]}, "gradients/module.linear_miss_clv_3.bias": {"_type": "histogram", "values": [1.0, 0.0, 0.0, 0.0, 0.0, 0.0, 0.0, 0.0, 0.0, 0.0, 0.0, 0.0, 0.0, 0.0, 0.0, 0.0, 0.0, 0.0, 0.0, 0.0, 0.0, 0.0, 0.0, 0.0, 0.0, 0.0, 0.0, 0.0, 0.0, 0.0, 1.0, 0.0, 0.0, 0.0, 0.0, 0.0, 0.0, 0.0, 0.0, 0.0, 0.0, 0.0, 0.0, 0.0, 0.0, 0.0, 0.0, 0.0, 0.0, 0.0, 0.0, 0.0, 0.0, 0.0, 0.0, 0.0, 0.0, 0.0, 0.0, 0.0, 0.0, 0.0, 0.0, 1.0], "bins": [-13.8203125, -13.3812255859375, -12.942138671875, -12.5030517578125, -12.06396484375, -11.6248779296875, -11.185791015625, -10.7467041015625, -10.3076171875, -9.8685302734375, -9.429443359375, -8.9903564453125, -8.55126953125, -8.1121826171875, -7.673095703125, -7.2340087890625, -6.794921875, -6.3558349609375, -5.916748046875, -5.4776611328125, -5.03857421875, -4.5994873046875, -4.160400390625, -3.7213134765625, -3.2822265625, -2.8431396484375, -2.404052734375, -1.9649658203125, -1.52587890625, -1.0867919921875, -0.647705078125, -0.2086181640625, 0.23046875, 0.6695556640625, 1.108642578125, 1.5477294921875, 1.98681640625, 2.4259033203125, 2.864990234375, 3.3040771484375, 3.7431640625, 4.1822509765625, 4.621337890625, 5.0604248046875, 5.49951171875, 5.9385986328125, 6.377685546875, 6.8167724609375, 7.255859375, 7.6949462890625, 8.134033203125, 8.5731201171875, 9.01220703125, 9.4512939453125, 9.890380859375, 10.3294677734375, 10.7685546875, 11.2076416015625, 11.646728515625, 12.0858154296875, 12.52490234375, 12.9639892578125, 13.403076171875, 13.8421630859375, 14.28125]}, "gradients/module.linear_miss_clv_3.weight": {"_type": "histogram", "values": [3.0, 1.0, 2.0, 0.0, 3.0, 1.0, 0.0, 2.0, 1.0, 1.0, 1.0, 1.0, 2.0, 1.0, 1.0, 3.0, 0.0, 2.0, 2.0, 0.0, 0.0, 0.0, 0.0, 0.0, 0.0, 0.0, 0.0, 6.0, 24.0, 38.0, 47.0, 14.0, 66.0, 28.0, 20.0, 21.0, 26.0, 13.0, 15.0, 7.0, 4.0, 0.0, 1.0, 0.0, 0.0, 0.0, 3.0, 1.0, 0.0, 3.0, 1.0, 2.0, 2.0, 0.0, 1.0, 2.0, 0.0, 2.0, 0.0, 2.0, 2.0, 2.0, 1.0, 3.0], "bins": [-6.82421875, -6.61669921875, -6.4091796875, -6.20166015625, -5.994140625, -5.78662109375, -5.5791015625, -5.37158203125, -5.1640625, -4.95654296875, -4.7490234375, -4.54150390625, -4.333984375, -4.12646484375, -3.9189453125, -3.71142578125, -3.50390625, -3.29638671875, -3.0888671875, -2.88134765625, -2.673828125, -2.46630859375, -2.2587890625, -2.05126953125, -1.84375, -1.63623046875, -1.4287109375, -1.22119140625, -1.013671875, -0.80615234375, -0.5986328125, -0.39111328125, -0.18359375, 0.02392578125, 0.2314453125, 0.43896484375, 0.646484375, 0.85400390625, 1.0615234375, 1.26904296875, 1.4765625, 1.68408203125, 1.8916015625, 2.09912109375, 2.306640625, 2.51416015625, 2.7216796875, 2.92919921875, 3.13671875, 3.34423828125, 3.5517578125, 3.75927734375, 3.966796875, 4.17431640625, 4.3818359375, 4.58935546875, 4.796875, 5.00439453125, 5.2119140625, 5.41943359375, 5.626953125, 5.83447265625, 6.0419921875, 6.24951171875, 6.45703125]}, "gradients/module.linear_miss_clv_2.bias": {"_type": "histogram", "values": [1.0, 0.0, 1.0, 1.0, 0.0, 2.0, 0.0, 1.0, 2.0, 0.0, 3.0, 2.0, 2.0, 2.0, 9.0, 4.0, 1.0, 1.0, 1.0, 5.0, 3.0, 2.0, 1.0, 1.0, 0.0, 2.0, 1.0, 2.0, 0.0, 0.0, 0.0, 0.0, 0.0, 0.0, 2.0, 7.0, 1.0, 18.0, 1.0, 0.0, 0.0, 2.0, 0.0, 3.0, 2.0, 0.0, 1.0, 2.0, 3.0, 3.0, 3.0, 6.0, 6.0, 2.0, 4.0, 5.0, 3.0, 0.0, 1.0, 2.0, 0.0, 0.0, 0.0, 1.0], "bins": [-32.25, -31.384033203125, -30.51806640625, -29.652099609375, -28.7861328125, -27.920166015625, -27.05419921875, -26.188232421875, -25.322265625, -24.456298828125, -23.59033203125, -22.724365234375, -21.8583984375, -20.992431640625, -20.12646484375, -19.260498046875, -18.39453125, -17.528564453125, -16.66259765625, -15.796630859375, -14.9306640625, -14.064697265625, -13.19873046875, -12.332763671875, -11.466796875, -10.600830078125, -9.73486328125, -8.868896484375, -8.0029296875, -7.136962890625, -6.27099609375, -5.405029296875, -4.5390625, -3.673095703125, -2.80712890625, -1.941162109375, -1.0751953125, -0.209228515625, 0.65673828125, 1.522705078125, 2.388671875, 3.254638671875, 4.12060546875, 4.986572265625, 5.8525390625, 6.718505859375, 7.58447265625, 8.450439453125, 9.31640625, 10.182373046875, 11.04833984375, 11.914306640625, 12.7802734375, 13.646240234375, 14.51220703125, 15.378173828125, 16.244140625, 17.110107421875, 17.97607421875, 18.842041015625, 19.7080078125, 20.573974609375, 21.43994140625, 22.305908203125, 23.171875]}, "gradients/module.linear_miss_clv_2.weight": {"_type": "histogram", "values": [4.0, 6.0, 6.0, 4.0, 4.0, 3.0, 5.0, 11.0, 7.0, 12.0, 13.0, 18.0, 16.0, 17.0, 24.0, 11.0, 27.0, 20.0, 15.0, 26.0, 27.0, 20.0, 31.0, 49.0, 47.0, 43.0, 49.0, 52.0, 73.0, 183.0, 219.0, 419.0, 806.0, 1742.0, 4549.0, 15358.0, 5744.0, 1545.0, 525.0, 258.0, 139.0, 110.0, 70.0, 66.0, 64.0, 31.0, 46.0, 32.0, 46.0, 41.0, 25.0, 30.0, 22.0, 19.0, 11.0, 8.0, 5.0, 4.0, 2.0, 4.0, 1.0, 2.0, 1.0, 1.0], "bins": [-1.17578125, -1.1427764892578125, -1.109771728515625, -1.0767669677734375, -1.04376220703125, -1.0107574462890625, -0.977752685546875, -0.9447479248046875, -0.9117431640625, -0.8787384033203125, -0.845733642578125, -0.8127288818359375, -0.77972412109375, -0.7467193603515625, -0.713714599609375, -0.6807098388671875, -0.647705078125, -0.6147003173828125, -0.581695556640625, -0.5486907958984375, -0.51568603515625, -0.4826812744140625, -0.449676513671875, -0.4166717529296875, -0.3836669921875, -0.3506622314453125, -0.317657470703125, -0.2846527099609375, -0.25164794921875, -0.2186431884765625, -0.185638427734375, -0.1526336669921875, -0.11962890625, -0.0866241455078125, -0.053619384765625, -0.0206146240234375, 0.01239013671875, 0.0453948974609375, 0.078399658203125, 0.1114044189453125, 0.1444091796875, 0.1774139404296875, 0.210418701171875, 0.2434234619140625, 0.27642822265625, 0.3094329833984375, 0.342437744140625, 0.3754425048828125, 0.408447265625, 0.4414520263671875, 0.474456787109375, 0.5074615478515625, 0.54046630859375, 0.5734710693359375, 0.606475830078125, 0.6394805908203125, 0.6724853515625, 0.7054901123046875, 0.738494873046875, 0.7714996337890625, 0.80450439453125, 0.8375091552734375, 0.870513916015625, 0.9035186767578125, 0.9365234375]}, "gradients/module.bn3.weight": {"_type": "histogram", "values": [3.0, 0.0, 0.0, 1.0, 1.0, 0.0, 1.0, 0.0, 1.0, 2.0, 1.0, 2.0, 0.0, 1.0, 1.0, 4.0, 0.0, 0.0, 1.0, 1.0, 2.0, 5.0, 2.0, 4.0, 2.0, 4.0, 3.0, 7.0, 3.0, 1.0, 4.0, 7.0, 1.0, 5.0, 6.0, 6.0, 7.0, 3.0, 9.0, 6.0, 14.0, 32.0, 19.0, 17.0, 5.0, 8.0, 10.0, 7.0, 3.0, 8.0, 2.0, 4.0, 4.0, 5.0, 2.0, 4.0, 0.0, 0.0, 1.0, 0.0, 2.0, 1.0, 0.0, 1.0], "bins": [-4105.08349609375, -4005.799072265625, -3906.5146484375, -3807.230224609375, -3707.94580078125, -3608.66162109375, -3509.377197265625, -3410.0927734375, -3310.808349609375, -3211.52392578125, -3112.239501953125, -3012.955078125, -2913.6708984375, -2814.386474609375, -2715.10205078125, -2615.817626953125, -2516.533203125, -2417.248779296875, -2317.96435546875, -2218.679931640625, -2119.3955078125, -2020.1112060546875, -1920.826904296875, -1821.54248046875, -1722.258056640625, -1622.9736328125, -1523.689208984375, -1424.4049072265625, -1325.1204833984375, -1225.8360595703125, -1126.5517578125, -1027.267333984375, -927.98291015625, -828.698486328125, -729.4141235351562, -630.1297607421875, -530.8453369140625, -431.5609436035156, -332.27655029296875, -232.9921875, -133.707763671875, -34.423370361328125, 64.86102294921875, 164.14541625976562, 263.4298095703125, 362.7142028808594, 461.99859619140625, 561.282958984375, 660.5673828125, 759.851806640625, 859.1361694335938, 958.4205322265625, 1057.7049560546875, 1156.9893798828125, 1256.273681640625, 1355.55810546875, 1454.842529296875, 1554.126953125, 1653.411376953125, 1752.6956787109375, 1851.9801025390625, 1951.2645263671875, 2050.548828125, 2149.833251953125, 2249.11767578125]}, "gradients/module.bn3.bias": {"_type": "histogram", "values": [1.0, 0.0, 0.0, 0.0, 0.0, 0.0, 0.0, 0.0, 0.0, 0.0, 0.0, 0.0, 0.0, 0.0, 0.0, 0.0, 1.0, 0.0, 1.0, 3.0, 1.0, 0.0, 0.0, 0.0, 3.0, 0.0, 1.0, 3.0, 2.0, 1.0, 0.0, 2.0, 3.0, 5.0, 1.0, 3.0, 2.0, 2.0, 9.0, 7.0, 7.0, 8.0, 10.0, 10.0, 16.0, 19.0, 27.0, 18.0, 30.0, 20.0, 12.0, 15.0, 6.0, 2.0, 0.0, 0.0, 3.0, 0.0, 0.0, 1.0, 0.0, 0.0, 0.0, 1.0], "bins": [-8082.87255859375, -7910.43994140625, -7738.00732421875, -7565.5751953125, -7393.142578125, -7220.7099609375, -7048.27734375, -6875.8447265625, -6703.412109375, -6530.9794921875, -6358.546875, -6186.1142578125, -6013.68212890625, -5841.24951171875, -5668.81689453125, -5496.38427734375, -5323.9521484375, -5151.51953125, -4979.0869140625, -4806.654296875, -4634.22216796875, -4461.78955078125, -4289.35693359375, -4116.92431640625, -3944.49169921875, -3772.05908203125, -3599.626708984375, -3427.194091796875, -3254.761474609375, -3082.3291015625, -2909.896484375, -2737.4638671875, -2565.03125, -2392.5986328125, -2220.166259765625, -2047.733642578125, -1875.301025390625, -1702.8685302734375, -1530.43603515625, -1358.00341796875, -1185.5709228515625, -1013.1383666992188, -840.705810546875, -668.2733154296875, -495.84075927734375, -323.408203125, -150.9757080078125, 21.4569091796875, 193.889404296875, 366.32196044921875, 538.7545166015625, 711.18701171875, 883.6195678710938, 1056.0521240234375, 1228.484619140625, 1400.917236328125, 1573.3497314453125, 1745.7822265625, 1918.21484375, 2090.6474609375, 2263.079833984375, 2435.512451171875, 2607.94482421875, 2780.37744140625, 2952.81005859375]}, "gradients/module.linear1_3.bias": {"_type": "histogram", "values": [1.0, 0.0, 0.0, 0.0, 1.0, 1.0, 2.0, 0.0, 1.0, 0.0, 0.0, 1.0, 0.0, 1.0, 2.0, 1.0, 2.0, 3.0, 6.0, 1.0, 2.0, 6.0, 2.0, 7.0, 6.0, 12.0, 10.0, 17.0, 14.0, 15.0, 19.0, 17.0, 11.0, 10.0, 10.0, 10.0, 9.0, 12.0, 9.0, 3.0, 6.0, 6.0, 2.0, 2.0, 4.0, 3.0, 1.0, 4.0, 0.0, 1.0, 0.0, 1.0, 1.0, 0.0, 0.0, 0.0, 0.0, 0.0, 0.0, 0.0, 0.0, 0.0, 0.0, 1.0], "bins": [-0.81298828125, -0.7862319946289062, -0.7594757080078125, -0.7327194213867188, -0.705963134765625, -0.6792068481445312, -0.6524505615234375, -0.6256942749023438, -0.59893798828125, -0.5721817016601562, -0.5454254150390625, -0.5186691284179688, -0.491912841796875, -0.46515655517578125, -0.4384002685546875, -0.41164398193359375, -0.3848876953125, -0.35813140869140625, -0.3313751220703125, -0.30461883544921875, -0.277862548828125, -0.25110626220703125, -0.2243499755859375, -0.19759368896484375, -0.17083740234375, -0.14408111572265625, -0.1173248291015625, -0.09056854248046875, -0.063812255859375, -0.03705596923828125, -0.0102996826171875, 0.01645660400390625, 0.043212890625, 0.06996917724609375, 0.0967254638671875, 0.12348175048828125, 0.150238037109375, 0.17699432373046875, 0.2037506103515625, 0.23050689697265625, 0.25726318359375, 0.28401947021484375, 0.3107757568359375, 0.33753204345703125, 0.364288330078125, 0.39104461669921875, 0.4178009033203125, 0.44455718994140625, 0.4713134765625, 0.49806976318359375, 0.5248260498046875, 0.5515823364257812, 0.578338623046875, 0.6050949096679688, 0.6318511962890625, 0.6586074829101562, 0.68536376953125, 0.7121200561523438, 0.7388763427734375, 0.7656326293945312, 0.792388916015625, 0.8191452026367188, 0.8459014892578125, 0.8726577758789062, 0.8994140625]}, "gradients/module.linear1_3.weight": {"_type": "histogram", "values": [1.0, 0.0, 0.0, 1.0, 1.0, 0.0, 1.0, 1.0, 1.0, 1.0, 1.0, 0.0, 0.0, 1.0, 3.0, 3.0, 3.0, 2.0, 7.0, 4.0, 11.0, 14.0, 15.0, 20.0, 40.0, 56.0, 81.0, 142.0, 348.0, 820.0, 2175.0, 7980.0, 90735.0, 22078.0, 3971.0, 1249.0, 537.0, 257.0, 143.0, 85.0, 67.0, 56.0, 31.0, 28.0, 29.0, 16.0, 8.0, 11.0, 10.0, 8.0, 5.0, 2.0, 2.0, 2.0, 3.0, 2.0, 0.0, 0.0, 1.0, 0.0, 0.0, 2.0, 0.0, 1.0], "bins": [-146.125, -141.6640625, -137.203125, -132.7421875, -128.28125, -123.8203125, -119.359375, -114.8984375, -110.4375, -105.9765625, -101.515625, -97.0546875, -92.59375, -88.1328125, -83.671875, -79.2109375, -74.75, -70.2890625, -65.828125, -61.3671875, -56.90625, -52.4453125, -47.984375, -43.5234375, -39.0625, -34.6015625, -30.140625, -25.6796875, -21.21875, -16.7578125, -12.296875, -7.8359375, -3.375, 1.0859375, 5.546875, 10.0078125, 14.46875, 18.9296875, 23.390625, 27.8515625, 32.3125, 36.7734375, 41.234375, 45.6953125, 50.15625, 54.6171875, 59.078125, 63.5390625, 68.0, 72.4609375, 76.921875, 81.3828125, 85.84375, 90.3046875, 94.765625, 99.2265625, 103.6875, 108.1484375, 112.609375, 117.0703125, 121.53125, 125.9921875, 130.453125, 134.9140625, 139.375]}, "gradients/module.bn2.weight": {"_type": "histogram", "values": [1.0, 0.0, 0.0, 0.0, 0.0, 0.0, 0.0, 0.0, 1.0, 0.0, 0.0, 0.0, 1.0, 0.0, 0.0, 1.0, 1.0, 1.0, 0.0, 1.0, 1.0, 2.0, 0.0, 3.0, 4.0, 0.0, 2.0, 2.0, 2.0, 2.0, 4.0, 1.0, 2.0, 6.0, 12.0, 11.0, 16.0, 14.0, 10.0, 17.0, 20.0, 40.0, 32.0, 79.0, 44.0, 33.0, 26.0, 24.0, 16.0, 22.0, 20.0, 6.0, 7.0, 5.0, 3.0, 1.0, 5.0, 3.0, 5.0, 1.0, 0.0, 0.0, 1.0, 1.0], "bins": [-4850.1875, -4739.533203125, -4628.87841796875, -4518.22412109375, -4407.56982421875, -4296.9150390625, -4186.2607421875, -4075.6064453125, -3964.951904296875, -3854.29736328125, -3743.64306640625, -3632.988525390625, -3522.333984375, -3411.6796875, -3301.025146484375, -3190.37060546875, -3079.71630859375, -2969.061767578125, -2858.407470703125, -2747.7529296875, -2637.098388671875, -2526.444091796875, -2415.78955078125, -2305.13525390625, -2194.48046875, -2083.825927734375, -1973.1715087890625, -1862.51708984375, -1751.8626708984375, -1641.208251953125, -1530.5537109375, -1419.8992919921875, -1309.244873046875, -1198.5904541015625, -1087.9359130859375, -977.281494140625, -866.6270751953125, -755.9725952148438, -645.318115234375, -534.6636962890625, -424.00921630859375, -313.3547668457031, -202.70030212402344, -92.04583740234375, 18.608612060546875, 129.2630615234375, 239.91754150390625, 350.57196044921875, 461.2264404296875, 571.8809204101562, 682.5353393554688, 793.1898193359375, 903.84423828125, 1014.4987182617188, 1125.1531982421875, 1235.8076171875, 1346.462158203125, 1457.1165771484375, 1567.7711181640625, 1678.425537109375, 1789.0799560546875, 1899.734375, 2010.388916015625, 2121.04345703125, 2231.69775390625]}, "gradients/module.bn2.bias": {"_type": "histogram", "values": [1.0, 0.0, 1.0, 1.0, 1.0, 0.0, 0.0, 0.0, 1.0, 2.0, 3.0, 3.0, 2.0, 3.0, 5.0, 5.0, 7.0, 7.0, 10.0, 20.0, 16.0, 27.0, 18.0, 39.0, 42.0, 80.0, 42.0, 29.0, 25.0, 18.0, 20.0, 15.0, 12.0, 11.0, 12.0, 8.0, 10.0, 6.0, 3.0, 1.0, 3.0, 1.0, 1.0, 0.0, 0.0, 0.0, 0.0, 0.0, 0.0, 0.0, 0.0, 0.0, 0.0, 0.0, 0.0, 0.0, 0.0, 0.0, 0.0, 0.0, 0.0, 0.0, 0.0, 1.0], "bins": [-3436.46142578125, -3300.419189453125, -3164.376953125, -3028.334716796875, -2892.29248046875, -2756.25048828125, -2620.208251953125, -2484.166015625, -2348.123779296875, -2212.08154296875, -2076.039306640625, -1939.9971923828125, -1803.9549560546875, -1667.9127197265625, -1531.87060546875, -1395.828369140625, -1259.7861328125, -1123.743896484375, -987.7017211914062, -851.6595458984375, -715.6173095703125, -579.5750732421875, -443.53289794921875, -307.49072265625, -171.448486328125, -35.406280517578125, 100.63592529296875, 236.67813110351562, 372.7203369140625, 508.7625732421875, 644.8047485351562, 780.846923828125, 916.8896484375, 1052.931884765625, 1188.97412109375, 1325.0162353515625, 1461.0584716796875, 1597.1007080078125, 1733.142822265625, 1869.18505859375, 2005.227294921875, 2141.26953125, 2277.311767578125, 2413.35400390625, 2549.39599609375, 2685.4384765625, 2821.48046875, 2957.522705078125, 3093.56494140625, 3229.607177734375, 3365.6494140625, 3501.691650390625, 3637.73388671875, 3773.77587890625, 3909.818115234375, 4045.8603515625, 4181.90234375, 4317.9443359375, 4453.98681640625, 4590.02880859375, 4726.0712890625, 4862.11328125, 4998.15576171875, 5134.19775390625, 5270.240234375]}, "gradients/module.linear_ch_3.bias": {"_type": "histogram", "values": [1.0, 0.0, 1.0, 2.0, 1.0, 2.0, 3.0, 2.0, 4.0, 3.0, 2.0, 2.0, 4.0, 7.0, 11.0, 6.0, 9.0, 11.0, 16.0, 8.0, 19.0, 18.0, 14.0, 19.0, 37.0, 82.0, 36.0, 32.0, 26.0, 29.0, 18.0, 13.0, 12.0, 17.0, 7.0, 8.0, 4.0, 1.0, 3.0, 5.0, 6.0, 2.0, 1.0, 2.0, 2.0, 1.0, 0.0, 0.0, 1.0, 0.0, 0.0, 0.0, 0.0, 0.0, 0.0, 0.0, 0.0, 0.0, 0.0, 0.0, 1.0, 0.0, 0.0, 1.0], "bins": [-0.720703125, -0.69287109375, -0.6650390625, -0.63720703125, -0.609375, -0.58154296875, -0.5537109375, -0.52587890625, -0.498046875, -0.47021484375, -0.4423828125, -0.41455078125, -0.38671875, -0.35888671875, -0.3310546875, -0.30322265625, -0.275390625, -0.24755859375, -0.2197265625, -0.19189453125, -0.1640625, -0.13623046875, -0.1083984375, -0.08056640625, -0.052734375, -0.02490234375, 0.0029296875, 0.03076171875, 0.05859375, 0.08642578125, 0.1142578125, 0.14208984375, 0.169921875, 0.19775390625, 0.2255859375, 0.25341796875, 0.28125, 0.30908203125, 0.3369140625, 0.36474609375, 0.392578125, 0.42041015625, 0.4482421875, 0.47607421875, 0.50390625, 0.53173828125, 0.5595703125, 0.58740234375, 0.615234375, 0.64306640625, 0.6708984375, 0.69873046875, 0.7265625, 0.75439453125, 0.7822265625, 0.81005859375, 0.837890625, 0.86572265625, 0.8935546875, 0.92138671875, 0.94921875, 0.97705078125, 1.0048828125, 1.03271484375, 1.060546875]}, "gradients/module.linear_ch_3.weight": {"_type": "histogram", "values": [1.0, 0.0, 0.0, 0.0, 0.0, 1.0, 0.0, 2.0, 1.0, 1.0, 0.0, 3.0, 6.0, 5.0, 10.0, 8.0, 15.0, 27.0, 35.0, 44.0, 66.0, 113.0, 132.0, 231.0, 365.0, 597.0, 1075.0, 2107.0, 4403.0, 10983.0, 79470.0, 19328.0, 6346.0, 2627.0, 1190.0, 707.0, 412.0, 282.0, 148.0, 116.0, 56.0, 49.0, 27.0, 14.0, 16.0, 17.0, 8.0, 7.0, 6.0, 1.0, 4.0, 2.0, 0.0, 0.0, 2.0, 0.0, 2.0, 0.0, 2.0, 0.0, 1.0, 0.0, 0.0, 1.0], "bins": [-47.96875, -46.40869140625, -44.8486328125, -43.28857421875, -41.728515625, -40.16845703125, -38.6083984375, -37.04833984375, -35.48828125, -33.92822265625, -32.3681640625, -30.80810546875, -29.248046875, -27.68798828125, -26.1279296875, -24.56787109375, -23.0078125, -21.44775390625, -19.8876953125, -18.32763671875, -16.767578125, -15.20751953125, -13.6474609375, -12.08740234375, -10.52734375, -8.96728515625, -7.4072265625, -5.84716796875, -4.287109375, -2.72705078125, -1.1669921875, 0.39306640625, 1.953125, 3.51318359375, 5.0732421875, 6.63330078125, 8.193359375, 9.75341796875, 11.3134765625, 12.87353515625, 14.43359375, 15.99365234375, 17.5537109375, 19.11376953125, 20.673828125, 22.23388671875, 23.7939453125, 25.35400390625, 26.9140625, 28.47412109375, 30.0341796875, 31.59423828125, 33.154296875, 34.71435546875, 36.2744140625, 37.83447265625, 39.39453125, 40.95458984375, 42.5146484375, 44.07470703125, 45.634765625, 47.19482421875, 48.7548828125, 50.31494140625, 51.875]}, "gradients/module.bn_ch_2.weight": {"_type": "histogram", "values": [2.0, 0.0, 0.0, 0.0, 0.0, 1.0, 0.0, 1.0, 0.0, 0.0, 2.0, 1.0, 3.0, 3.0, 5.0, 3.0, 6.0, 3.0, 10.0, 9.0, 3.0, 6.0, 4.0, 6.0, 7.0, 7.0, 69.0, 7.0, 8.0, 9.0, 6.0, 6.0, 5.0, 6.0, 5.0, 5.0, 5.0, 6.0, 3.0, 2.0, 2.0, 4.0, 1.0, 4.0, 3.0, 5.0, 1.0, 4.0, 2.0, 1.0, 2.0, 1.0, 0.0, 1.0, 0.0, 0.0, 0.0, 0.0, 0.0, 0.0, 0.0, 0.0, 0.0, 1.0], "bins": [-1384.697509765625, -1331.9368896484375, -1279.1763916015625, -1226.415771484375, -1173.6552734375, -1120.8946533203125, -1068.134033203125, -1015.37353515625, -962.6129150390625, -909.8523559570312, -857.091796875, -804.3311767578125, -751.5706176757812, -698.81005859375, -646.0494995117188, -593.2889404296875, -540.5283813476562, -487.767822265625, -435.0072326660156, -382.2466735839844, -329.486083984375, -276.72552490234375, -223.9649658203125, -171.20437622070312, -118.44381713867188, -65.68324279785156, -12.922676086425781, 39.837890625, 92.59846496582031, 145.35903930664062, 198.11959838867188, 250.88018798828125, 303.6407470703125, 356.40130615234375, 409.1618957519531, 461.9224548339844, 514.6830444335938, 567.443603515625, 620.2041625976562, 672.9647216796875, 725.725341796875, 778.4859008789062, 831.2464599609375, 884.007080078125, 936.7676391601562, 989.5281982421875, 1042.288818359375, 1095.04931640625, 1147.809814453125, 1200.5704345703125, 1253.3309326171875, 1306.091552734375, 1358.85205078125, 1411.6126708984375, 1464.373291015625, 1517.1337890625, 1569.8944091796875, 1622.655029296875, 1675.41552734375, 1728.1761474609375, 1780.9366455078125, 1833.697265625, 1886.457763671875, 1939.2183837890625, 1991.97900390625]}, "gradients/module.bn_ch_2.bias": {"_type": "histogram", "values": [1.0, 0.0, 0.0, 1.0, 0.0, 1.0, 0.0, 1.0, 0.0, 0.0, 3.0, 1.0, 4.0, 3.0, 3.0, 3.0, 2.0, 6.0, 5.0, 5.0, 4.0, 8.0, 3.0, 6.0, 6.0, 5.0, 7.0, 3.0, 70.0, 11.0, 5.0, 2.0, 14.0, 9.0, 2.0, 8.0, 1.0, 5.0, 1.0, 3.0, 7.0, 1.0, 3.0, 6.0, 5.0, 2.0, 3.0, 2.0, 3.0, 2.0, 1.0, 1.0, 2.0, 0.0, 1.0, 1.0, 0.0, 0.0, 1.0, 1.0, 0.0, 1.0, 0.0, 1.0], "bins": [-1164.0635986328125, -1123.3548583984375, -1082.64599609375, -1041.937255859375, -1001.2283935546875, -960.5196533203125, -919.8108520507812, -879.10205078125, -838.3932495117188, -797.6844482421875, -756.9756469726562, -716.266845703125, -675.55810546875, -634.8492431640625, -594.1405029296875, -553.4317016601562, -512.722900390625, -472.01409912109375, -431.3052978515625, -390.5965270996094, -349.8877258300781, -309.1789245605469, -268.47015380859375, -227.7613525390625, -187.05255126953125, -146.34375, -105.63496398925781, -64.9261703491211, -24.217376708984375, 16.491424560546875, 57.20021057128906, 97.90899658203125, 138.617919921875, 179.32672119140625, 220.03550720214844, 260.7442932128906, 301.4530944824219, 342.1618957519531, 382.87066650390625, 423.5794677734375, 464.28826904296875, 504.9970703125, 545.7058715820312, 586.4146728515625, 627.1234130859375, 667.832275390625, 708.541015625, 749.2498168945312, 789.9586181640625, 830.6674194335938, 871.376220703125, 912.0850219726562, 952.7938232421875, 993.5025634765625, 1034.21142578125, 1074.920166015625, 1115.62890625, 1156.337646484375, 1197.0465087890625, 1237.7552490234375, 1278.464111328125, 1319.1728515625, 1359.8817138671875, 1400.5904541015625, 1441.29931640625]}, "gradients/module.linear_ch_2.bias": {"_type": "histogram", "values": [1.0, 0.0, 0.0, 0.0, 0.0, 0.0, 0.0, 1.0, 1.0, 0.0, 0.0, 0.0, 0.0, 2.0, 0.0, 2.0, 3.0, 1.0, 2.0, 1.0, 3.0, 3.0, 5.0, 3.0, 7.0, 6.0, 9.0, 10.0, 9.0, 12.0, 16.0, 76.0, 10.0, 7.0, 13.0, 8.0, 8.0, 10.0, 5.0, 2.0, 7.0, 0.0, 2.0, 3.0, 2.0, 0.0, 1.0, 0.0, 1.0, 0.0, 0.0, 2.0, 0.0, 0.0, 1.0, 0.0, 0.0, 0.0, 0.0, 0.0, 0.0, 0.0, 0.0, 1.0], "bins": [-0.420166015625, -0.40670013427734375, -0.3932342529296875, -0.37976837158203125, -0.366302490234375, -0.35283660888671875, -0.3393707275390625, -0.32590484619140625, -0.31243896484375, -0.29897308349609375, -0.2855072021484375, -0.27204132080078125, -0.258575439453125, -0.24510955810546875, -0.2316436767578125, -0.21817779541015625, -0.2047119140625, -0.19124603271484375, -0.1777801513671875, -0.16431427001953125, -0.150848388671875, -0.13738250732421875, -0.1239166259765625, -0.11045074462890625, -0.09698486328125, -0.08351898193359375, -0.0700531005859375, -0.05658721923828125, -0.043121337890625, -0.02965545654296875, -0.0161895751953125, -0.00272369384765625, 0.0107421875, 0.02420806884765625, 0.0376739501953125, 0.05113983154296875, 0.064605712890625, 0.07807159423828125, 0.0915374755859375, 0.10500335693359375, 0.11846923828125, 0.13193511962890625, 0.1454010009765625, 0.15886688232421875, 0.172332763671875, 0.18579864501953125, 0.1992645263671875, 0.21273040771484375, 0.2261962890625, 0.23966217041015625, 0.2531280517578125, 0.26659393310546875, 0.280059814453125, 0.29352569580078125, 0.3069915771484375, 0.32045745849609375, 0.33392333984375, 0.34738922119140625, 0.3608551025390625, 0.37432098388671875, 0.387786865234375, 0.40125274658203125, 0.4147186279296875, 0.42818450927734375, 0.441650390625]}, "gradients/module.linear_ch_2.weight": {"_type": "histogram", "values": [1.0, 0.0, 0.0, 0.0, 0.0, 0.0, 0.0, 1.0, 0.0, 0.0, 0.0, 1.0, 5.0, 3.0, 6.0, 1.0, 8.0, 17.0, 23.0, 43.0, 48.0, 85.0, 166.0, 330.0, 622.0, 1767.0, 6132.0, 19105.0, 2269.0, 977.0, 502.0, 258.0, 146.0, 88.0, 60.0, 32.0, 23.0, 11.0, 12.0, 4.0, 3.0, 1.0, 2.0, 3.0, 3.0, 4.0, 1.0, 2.0, 2.0, 0.0, 0.0, 0.0, 0.0, 0.0, 0.0, 0.0, 0.0, 0.0, 0.0, 0.0, 0.0, 0.0, 0.0, 1.0], "bins": [-41.59375, -40.06298828125, -38.5322265625, -37.00146484375, -35.470703125, -33.93994140625, -32.4091796875, -30.87841796875, -29.34765625, -27.81689453125, -26.2861328125, -24.75537109375, -23.224609375, -21.69384765625, -20.1630859375, -18.63232421875, -17.1015625, -15.57080078125, -14.0400390625, -12.50927734375, -10.978515625, -9.44775390625, -7.9169921875, -6.38623046875, -4.85546875, -3.32470703125, -1.7939453125, -0.26318359375, 1.267578125, 2.79833984375, 4.3291015625, 5.85986328125, 7.390625, 8.92138671875, 10.4521484375, 11.98291015625, 13.513671875, 15.04443359375, 16.5751953125, 18.10595703125, 19.63671875, 21.16748046875, 22.6982421875, 24.22900390625, 25.759765625, 27.29052734375, 28.8212890625, 30.35205078125, 31.8828125, 33.41357421875, 34.9443359375, 36.47509765625, 38.005859375, 39.53662109375, 41.0673828125, 42.59814453125, 44.12890625, 45.65966796875, 47.1904296875, 48.72119140625, 50.251953125, 51.78271484375, 53.3134765625, 54.84423828125, 56.375]}, "gradients/module.bn_ch_1.weight": {"_type": "histogram", "values": [1.0, 0.0, 0.0, 0.0, 0.0, 0.0, 0.0, 0.0, 0.0, 0.0, 0.0, 0.0, 0.0, 0.0, 0.0, 0.0, 0.0, 0.0, 0.0, 2.0, 1.0, 1.0, 0.0, 1.0, 1.0, 1.0, 1.0, 2.0, 1.0, 2.0, 1.0, 4.0, 2.0, 4.0, 6.0, 12.0, 9.0, 4.0, 8.0, 2.0, 10.0, 6.0, 3.0, 6.0, 4.0, 6.0, 1.0, 0.0, 8.0, 3.0, 1.0, 0.0, 1.0, 1.0, 2.0, 1.0, 2.0, 0.0, 0.0, 4.0, 0.0, 1.0, 0.0, 2.0], "bins": [-1277.6456298828125, -1242.0477294921875, -1206.44970703125, -1170.851806640625, -1135.2537841796875, -1099.6558837890625, -1064.057861328125, -1028.4599609375, -992.8619995117188, -957.2640380859375, -921.6660766601562, -886.068115234375, -850.47021484375, -814.8721923828125, -779.2742919921875, -743.6763305664062, -708.078369140625, -672.4804077148438, -636.8824462890625, -601.2844848632812, -565.6865234375, -530.088623046875, -494.49066162109375, -458.8927001953125, -423.29473876953125, -387.69677734375, -352.09881591796875, -316.5008850097656, -280.9029235839844, -245.30496215820312, -209.70701599121094, -174.10906982421875, -138.510986328125, -102.91303253173828, -67.31507873535156, -31.717124938964844, 3.880828857421875, 39.478790283203125, 75.07673645019531, 110.6746826171875, 146.27264404296875, 181.87060546875, 217.4685516357422, 253.06649780273438, 288.6644592285156, 324.2624206542969, 359.8603515625, 395.45831298828125, 431.0562744140625, 466.65423583984375, 502.252197265625, 537.8501586914062, 573.4481201171875, 609.0460205078125, 644.6439819335938, 680.241943359375, 715.8399047851562, 751.4378662109375, 787.0358276367188, 822.6337890625, 858.231689453125, 893.8297119140625, 929.4276123046875, 965.0255737304688, 1000.62353515625]}, "gradients/module.bn_ch_1.bias": {"_type": "histogram", "values": [1.0, 0.0, 0.0, 1.0, 1.0, 0.0, 0.0, 3.0, 0.0, 0.0, 1.0, 2.0, 2.0, 1.0, 4.0, 4.0, 1.0, 3.0, 5.0, 7.0, 2.0, 7.0, 13.0, 4.0, 4.0, 5.0, 7.0, 5.0, 2.0, 4.0, 4.0, 4.0, 5.0, 3.0, 1.0, 2.0, 3.0, 1.0, 3.0, 0.0, 0.0, 2.0, 1.0, 1.0, 1.0, 0.0, 0.0, 1.0, 0.0, 1.0, 0.0, 0.0, 1.0, 1.0, 0.0, 0.0, 1.0, 1.0, 0.0, 0.0, 0.0, 0.0, 1.0, 1.0], "bins": [-722.1699829101562, -689.336181640625, -656.50244140625, -623.6686401367188, -590.8348388671875, -558.0010375976562, -525.167236328125, -492.33349609375, -459.49969482421875, -426.6658935546875, -393.8321228027344, -360.99835205078125, -328.16455078125, -295.33074951171875, -262.4969787597656, -229.66319274902344, -196.82940673828125, -163.99562072753906, -131.16183471679688, -98.32804870605469, -65.4942626953125, -32.66047668457031, 0.173309326171875, 33.00709533691406, 65.84088134765625, 98.67466735839844, 131.50845336914062, 164.3422393798828, 197.176025390625, 230.0098114013672, 262.8435974121094, 295.6773681640625, 328.51123046875, 361.34503173828125, 394.1788024902344, 427.0125732421875, 459.84637451171875, 492.68017578125, 525.513916015625, 558.3477172851562, 591.1815185546875, 624.0153198242188, 656.84912109375, 689.682861328125, 722.5166625976562, 755.3504638671875, 788.1842041015625, 821.0180053710938, 853.851806640625, 886.6856079101562, 919.5194091796875, 952.3531494140625, 985.1869506835938, 1018.020751953125, 1050.8544921875, 1083.6883544921875, 1116.5220947265625, 1149.3558349609375, 1182.189697265625, 1215.0234375, 1247.857177734375, 1280.6910400390625, 1313.5247802734375, 1346.358642578125, 1379.1923828125]}, "gradients/module.linear_ch_1.bias": {"_type": "histogram", "values": [1.0, 0.0, 0.0, 0.0, 0.0, 0.0, 0.0, 0.0, 0.0, 0.0, 0.0, 0.0, 0.0, 0.0, 0.0, 0.0, 1.0, 0.0, 0.0, 0.0, 2.0, 2.0, 0.0, 1.0, 0.0, 3.0, 1.0, 1.0, 4.0, 5.0, 4.0, 3.0, 2.0, 3.0, 5.0, 6.0, 9.0, 7.0, 4.0, 7.0, 6.0, 6.0, 7.0, 8.0, 7.0, 2.0, 3.0, 1.0, 6.0, 3.0, 2.0, 0.0, 1.0, 0.0, 1.0, 0.0, 0.0, 2.0, 0.0, 1.0, 0.0, 0.0, 0.0, 1.0], "bins": [-0.0208587646484375, -0.020321249961853027, -0.019783735275268555, -0.019246220588684082, -0.01870870590209961, -0.018171191215515137, -0.017633676528930664, -0.01709616184234619, -0.01655864715576172, -0.016021132469177246, -0.015483617782592773, -0.0149461030960083, -0.014408588409423828, -0.013871073722839355, -0.013333559036254883, -0.01279604434967041, -0.012258529663085938, -0.011721014976501465, -0.011183500289916992, -0.01064598560333252, -0.010108470916748047, -0.009570956230163574, -0.009033441543579102, -0.008495926856994629, -0.007958412170410156, -0.007420897483825684, -0.006883382797241211, -0.006345868110656738, -0.005808353424072266, -0.005270838737487793, -0.00473332405090332, -0.004195809364318848, -0.003658294677734375, -0.0031207799911499023, -0.0025832653045654297, -0.002045750617980957, -0.0015082359313964844, -0.0009707212448120117, -0.00043320655822753906, 0.0001043081283569336, 0.0006418228149414062, 0.001179337501525879, 0.0017168521881103516, 0.0022543668746948242, 0.002791881561279297, 0.0033293962478637695, 0.003866910934448242, 0.004404425621032715, 0.0049419403076171875, 0.00547945499420166, 0.006016969680786133, 0.0065544843673706055, 0.007091999053955078, 0.007629513740539551, 0.008167028427124023, 0.008704543113708496, 0.009242057800292969, 0.009779572486877441, 0.010317087173461914, 0.010854601860046387, 0.01139211654663086, 0.011929631233215332, 0.012467145919799805, 0.013004660606384277, 0.01354217529296875]}, "gradients/module.linear_ch_1.weight": {"_type": "histogram", "values": [1.0, 0.0, 0.0, 1.0, 0.0, 0.0, 0.0, 0.0, 0.0, 1.0, 3.0, 1.0, 2.0, 5.0, 3.0, 7.0, 5.0, 18.0, 9.0, 14.0, 30.0, 35.0, 62.0, 64.0, 91.0, 147.0, 174.0, 226.0, 248.0, 1238.0, 277.0, 190.0, 161.0, 118.0, 83.0, 54.0, 56.0, 35.0, 22.0, 18.0, 12.0, 12.0, 9.0, 8.0, 3.0, 4.0, 1.0, 0.0, 2.0, 1.0, 1.0, 1.0, 0.0, 0.0, 0.0, 1.0, 1.0, 0.0, 0.0, 0.0, 0.0, 0.0, 0.0, 1.0], "bins": [-80.375, -77.6337890625, -74.892578125, -72.1513671875, -69.41015625, -66.6689453125, -63.927734375, -61.1865234375, -58.4453125, -55.7041015625, -52.962890625, -50.2216796875, -47.48046875, -44.7392578125, -41.998046875, -39.2568359375, -36.515625, -33.7744140625, -31.033203125, -28.2919921875, -25.55078125, -22.8095703125, -20.068359375, -17.3271484375, -14.5859375, -11.8447265625, -9.103515625, -6.3623046875, -3.62109375, -0.8798828125, 1.861328125, 4.6025390625, 7.34375, 10.0849609375, 12.826171875, 15.5673828125, 18.30859375, 21.0498046875, 23.791015625, 26.5322265625, 29.2734375, 32.0146484375, 34.755859375, 37.4970703125, 40.23828125, 42.9794921875, 45.720703125, 48.4619140625, 51.203125, 53.9443359375, 56.685546875, 59.4267578125, 62.16796875, 64.9091796875, 67.650390625, 70.3916015625, 73.1328125, 75.8740234375, 78.615234375, 81.3564453125, 84.09765625, 86.8388671875, 89.580078125, 92.3212890625, 95.0625]}, "gradients/module.linear1_2.bias": {"_type": "histogram", "values": [1.0, 0.0, 1.0, 2.0, 1.0, 2.0, 3.0, 2.0, 4.0, 3.0, 2.0, 2.0, 4.0, 7.0, 11.0, 6.0, 9.0, 11.0, 16.0, 8.0, 19.0, 18.0, 14.0, 19.0, 37.0, 82.0, 36.0, 32.0, 26.0, 29.0, 18.0, 13.0, 12.0, 17.0, 7.0, 8.0, 4.0, 1.0, 3.0, 5.0, 6.0, 2.0, 1.0, 2.0, 2.0, 1.0, 0.0, 0.0, 1.0, 0.0, 0.0, 0.0, 0.0, 0.0, 0.0, 0.0, 0.0, 0.0, 0.0, 0.0, 1.0, 0.0, 0.0, 1.0], "bins": [-0.720703125, -0.69287109375, -0.6650390625, -0.63720703125, -0.609375, -0.58154296875, -0.5537109375, -0.52587890625, -0.498046875, -0.47021484375, -0.4423828125, -0.41455078125, -0.38671875, -0.35888671875, -0.3310546875, -0.30322265625, -0.275390625, -0.24755859375, -0.2197265625, -0.19189453125, -0.1640625, -0.13623046875, -0.1083984375, -0.08056640625, -0.052734375, -0.02490234375, 0.0029296875, 0.03076171875, 0.05859375, 0.08642578125, 0.1142578125, 0.14208984375, 0.169921875, 0.19775390625, 0.2255859375, 0.25341796875, 0.28125, 0.30908203125, 0.3369140625, 0.36474609375, 0.392578125, 0.42041015625, 0.4482421875, 0.47607421875, 0.50390625, 0.53173828125, 0.5595703125, 0.58740234375, 0.615234375, 0.64306640625, 0.6708984375, 0.69873046875, 0.7265625, 0.75439453125, 0.7822265625, 0.81005859375, 0.837890625, 0.86572265625, 0.8935546875, 0.92138671875, 0.94921875, 0.97705078125, 1.0048828125, 1.03271484375, 1.060546875]}, "gradients/module.linear1_2.weight": {"_type": "histogram", "values": [1.0, 0.0, 0.0, 0.0, 1.0, 0.0, 0.0, 0.0, 0.0, 1.0, 0.0, 2.0, 5.0, 1.0, 1.0, 4.0, 3.0, 7.0, 7.0, 5.0, 4.0, 7.0, 13.0, 14.0, 23.0, 32.0, 44.0, 48.0, 82.0, 123.0, 192.0, 269.0, 421.0, 760.0, 1284.0, 2605.0, 5872.0, 18726.0, 115272.0, 330659.0, 31008.0, 9086.0, 3708.0, 1783.0, 852.0, 469.0, 288.0, 198.0, 114.0, 90.0, 63.0, 48.0, 23.0, 18.0, 17.0, 8.0, 8.0, 9.0, 4.0, 1.0, 2.0, 1.0, 1.0, 1.0], "bins": [-77.9375, -75.9501953125, -73.962890625, -71.9755859375, -69.98828125, -68.0009765625, -66.013671875, -64.0263671875, -62.0390625, -60.0517578125, -58.064453125, -56.0771484375, -54.08984375, -52.1025390625, -50.115234375, -48.1279296875, -46.140625, -44.1533203125, -42.166015625, -40.1787109375, -38.19140625, -36.2041015625, -34.216796875, -32.2294921875, -30.2421875, -28.2548828125, -26.267578125, -24.2802734375, -22.29296875, -20.3056640625, -18.318359375, -16.3310546875, -14.34375, -12.3564453125, -10.369140625, -8.3818359375, -6.39453125, -4.4072265625, -2.419921875, -0.4326171875, 1.5546875, 3.5419921875, 5.529296875, 7.5166015625, 9.50390625, 11.4912109375, 13.478515625, 15.4658203125, 17.453125, 19.4404296875, 21.427734375, 23.4150390625, 25.40234375, 27.3896484375, 29.376953125, 31.3642578125, 33.3515625, 35.3388671875, 37.326171875, 39.3134765625, 41.30078125, 43.2880859375, 45.275390625, 47.2626953125, 49.25]}, "gradients/module.bn1.weight": {"_type": "histogram", "values": [2.0, 0.0, 1.0, 3.0, 3.0, 1.0, 4.0, 4.0, 4.0, 5.0, 4.0, 5.0, 7.0, 6.0, 7.0, 6.0, 10.0, 16.0, 18.0, 24.0, 28.0, 31.0, 39.0, 36.0, 32.0, 33.0, 39.0, 44.0, 48.0, 55.0, 50.0, 53.0, 46.0, 35.0, 46.0, 30.0, 30.0, 35.0, 32.0, 24.0, 23.0, 16.0, 12.0, 17.0, 10.0, 9.0, 3.0, 12.0, 5.0, 9.0, 2.0, 0.0, 2.0, 1.0, 2.0, 1.0, 1.0, 0.0, 0.0, 0.0, 0.0, 1.0, 1.0, 1.0], "bins": [-2930.169677734375, -2834.534423828125, -2738.899169921875, -2643.263916015625, -2547.62841796875, -2451.9931640625, -2356.35791015625, -2260.72265625, -2165.08740234375, -2069.4521484375, -1973.81689453125, -1878.1815185546875, -1782.5462646484375, -1686.9110107421875, -1591.275634765625, -1495.640380859375, -1400.005126953125, -1304.369873046875, -1208.734619140625, -1113.0992431640625, -1017.4639892578125, -921.8287353515625, -826.1934204101562, -730.55810546875, -634.9228515625, -539.28759765625, -443.65228271484375, -348.0169982910156, -252.3817138671875, -156.74642944335938, -61.11114501953125, 34.524169921875, 130.15966796875, 225.79495239257812, 321.43023681640625, 417.0655212402344, 512.7008056640625, 608.3360595703125, 703.9713745117188, 799.606689453125, 895.241943359375, 990.877197265625, 1086.512451171875, 1182.1478271484375, 1277.7830810546875, 1373.4183349609375, 1469.0537109375, 1564.68896484375, 1660.32421875, 1755.95947265625, 1851.5947265625, 1947.2301025390625, 2042.8653564453125, 2138.500732421875, 2234.135986328125, 2329.771240234375, 2425.406494140625, 2521.041748046875, 2616.677001953125, 2712.312255859375, 2807.94775390625, 2903.5830078125, 2999.21826171875, 3094.853515625, 3190.48876953125]}, "gradients/module.bn1.bias": {"_type": "histogram", "values": [1.0, 0.0, 0.0, 0.0, 0.0, 1.0, 0.0, 1.0, 1.0, 2.0, 1.0, 3.0, 1.0, 3.0, 5.0, 5.0, 6.0, 3.0, 7.0, 5.0, 10.0, 10.0, 8.0, 26.0, 28.0, 40.0, 28.0, 34.0, 42.0, 44.0, 46.0, 49.0, 44.0, 71.0, 72.0, 58.0, 51.0, 49.0, 25.0, 47.0, 41.0, 28.0, 21.0, 28.0, 13.0, 13.0, 12.0, 9.0, 3.0, 9.0, 4.0, 4.0, 4.0, 2.0, 0.0, 1.0, 2.0, 0.0, 0.0, 1.0, 0.0, 0.0, 0.0, 2.0], "bins": [-2753.896484375, -2672.888427734375, -2591.88037109375, -2510.8720703125, -2429.864013671875, -2348.85595703125, -2267.847900390625, -2186.83984375, -2105.83154296875, -2024.823486328125, -1943.8153076171875, -1862.8072509765625, -1781.799072265625, -1700.791015625, -1619.782958984375, -1538.7747802734375, -1457.7667236328125, -1376.7586669921875, -1295.75048828125, -1214.742431640625, -1133.7342529296875, -1052.7261962890625, -971.7180786132812, -890.7099609375, -809.7018432617188, -728.6937255859375, -647.6856079101562, -566.677490234375, -485.6694030761719, -404.6612854003906, -323.6531982421875, -242.64508056640625, -161.636962890625, -80.62885284423828, 0.3792572021484375, 81.38735961914062, 162.39547729492188, 243.40359497070312, 324.41168212890625, 405.4197998046875, 486.42791748046875, 567.43603515625, 648.4441528320312, 729.4522705078125, 810.4603271484375, 891.468505859375, 972.4765625, 1053.484619140625, 1134.4927978515625, 1215.5008544921875, 1296.509033203125, 1377.51708984375, 1458.5252685546875, 1539.5333251953125, 1620.54150390625, 1701.549560546875, 1782.5576171875, 1863.565673828125, 1944.5738525390625, 2025.5819091796875, 2106.590087890625, 2187.59814453125, 2268.606201171875, 2349.6142578125, 2430.62255859375]}, "gradients/module.linear1_1.bias": {"_type": "histogram", "values": [1.0, 0.0, 0.0, 0.0, 1.0, 1.0, 0.0, 1.0, 2.0, 0.0, 1.0, 3.0, 4.0, 3.0, 2.0, 7.0, 9.0, 9.0, 11.0, 15.0, 27.0, 24.0, 34.0, 36.0, 50.0, 38.0, 64.0, 78.0, 76.0, 82.0, 64.0, 69.0, 45.0, 61.0, 36.0, 33.0, 30.0, 22.0, 19.0, 15.0, 9.0, 13.0, 4.0, 4.0, 5.0, 3.0, 1.0, 3.0, 1.0, 1.0, 4.0, 0.0, 0.0, 1.0, 0.0, 1.0, 0.0, 0.0, 0.0, 0.0, 0.0, 0.0, 0.0, 1.0], "bins": [-0.0025043487548828125, -0.002418428659439087, -0.0023325085639953613, -0.0022465884685516357, -0.00216066837310791, -0.0020747482776641846, -0.001988828182220459, -0.0019029080867767334, -0.0018169879913330078, -0.0017310678958892822, -0.0016451478004455566, -0.001559227705001831, -0.0014733076095581055, -0.0013873875141143799, -0.0013014674186706543, -0.0012155473232269287, -0.0011296272277832031, -0.0010437071323394775, -0.000957787036895752, -0.0008718669414520264, -0.0007859468460083008, -0.0007000267505645752, -0.0006141066551208496, -0.000528186559677124, -0.00044226646423339844, -0.00035634636878967285, -0.00027042627334594727, -0.00018450617790222168, -9.85860824584961e-05, -1.2665987014770508e-05, 7.325410842895508e-05, 0.00015917420387268066, 0.00024509429931640625, 0.00033101439476013184, 0.0004169344902038574, 0.000502854585647583, 0.0005887746810913086, 0.0006746947765350342, 0.0007606148719787598, 0.0008465349674224854, 0.0009324550628662109, 0.0010183751583099365, 0.0011042952537536621, 0.0011902153491973877, 0.0012761354446411133, 0.0013620555400848389, 0.0014479756355285645, 0.00153389573097229, 0.0016198158264160156, 0.0017057359218597412, 0.0017916560173034668, 0.0018775761127471924, 0.001963496208190918, 0.0020494163036346436, 0.002135336399078369, 0.0022212564945220947, 0.0023071765899658203, 0.002393096685409546, 0.0024790167808532715, 0.002564936876296997, 0.0026508569717407227, 0.0027367770671844482, 0.002822697162628174, 0.0029086172580718994, 0.002994537353515625]}, "gradients/module.linear1_1.weight": {"_type": "histogram", "values": [1.0, 1.0, 0.0, 0.0, 0.0, 0.0, 1.0, 0.0, 0.0, 0.0, 2.0, 2.0, 2.0, 0.0, 1.0, 5.0, 1.0, 10.0, 7.0, 7.0, 13.0, 15.0, 16.0, 27.0, 27.0, 36.0, 71.0, 129.0, 214.0, 403.0, 890.0, 2226.0, 8939.0, 138049.0, 51026800.0, 16041.0, 3561.0, 1211.0, 548.0, 259.0, 150.0, 125.0, 62.0, 46.0, 26.0, 17.0, 10.0, 7.0, 9.0, 8.0, 4.0, 7.0, 2.0, 1.0, 0.0, 3.0, 3.0, 4.0, 0.0, 0.0, 0.0, 0.0, 1.0, 1.0], "bins": [-433.75, -421.05078125, -408.3515625, -395.65234375, -382.953125, -370.25390625, -357.5546875, -344.85546875, -332.15625, -319.45703125, -306.7578125, -294.05859375, -281.359375, -268.66015625, -255.9609375, -243.26171875, -230.5625, -217.86328125, -205.1640625, -192.46484375, -179.765625, -167.06640625, -154.3671875, -141.66796875, -128.96875, -116.26953125, -103.5703125, -90.87109375, -78.171875, -65.47265625, -52.7734375, -40.07421875, -27.375, -14.67578125, -1.9765625, 10.72265625, 23.421875, 36.12109375, 48.8203125, 61.51953125, 74.21875, 86.91796875, 99.6171875, 112.31640625, 125.015625, 137.71484375, 150.4140625, 163.11328125, 175.8125, 188.51171875, 201.2109375, 213.91015625, 226.609375, 239.30859375, 252.0078125, 264.70703125, 277.40625, 290.10546875, 302.8046875, 315.50390625, 328.203125, 340.90234375, 353.6015625, 366.30078125, 379.0]}, "Train loss": 0.5254518745498853, "Train Accuracy Margin-0": 85.01488962473879, "Train Accuracy Margin-1": 99.43028681698097, "Train Accuracy Margin-2": 99.9467894288332, "Train Accuracy Missed Cleavages": 98.60452276518934, "Train Accuracy Modifications": 98.92585326951621, "Test loss": 0.44952956710914177, "Test Accuracy Margin-0": 92.7276315859663, "Test Accuracy Margin-1": 99.37507668179855, "Test Accuracy Margin-2": 99.88504398201245, "Test Accuracy Missed Cleavages": 97.28239705968645, "Test Accuracy Modifications": 97.53498023609993, "_step": 385, "_wandb": {"runtime": 245120}}