{"gradients/module.linear_out.bias": {"_type": "histogram", "values": [0.0, 0.0, 0.0, 0.0, 0.0, 0.0, 0.0, 0.0, 0.0, 0.0, 0.0, 0.0, 0.0, 0.0, 0.0, 0.0, 0.0, 0.0, 0.0, 0.0, 0.0, 0.0, 0.0, 0.0, 0.0, 0.0, 0.0, 0.0, 0.0, 0.0, 0.0, 0.0, 1.0, 0.0, 0.0, 0.0, 0.0, 0.0, 0.0, 0.0, 0.0, 0.0, 0.0, 0.0, 0.0, 0.0, 0.0, 0.0, 0.0, 0.0, 0.0, 0.0, 0.0, 0.0, 0.0, 0.0, 0.0, 0.0, 0.0, 0.0, 0.0, 0.0, 0.0, 0.0], "bins": [-872.0, -872.0, -872.0, -872.0, -872.0, -872.0, -872.0, -872.0, -872.0, -872.0, -872.0, -872.0, -872.0, -872.0, -872.0, -872.0, -872.0, -872.0, -872.0, -872.0, -872.0, -872.0, -872.0, -872.0, -872.0, -872.0, -872.0, -872.0, -872.0, -872.0, -872.0, -872.0, -872.0, -872.0, -872.0, -872.0, -872.0, -872.0, -872.0, -872.0, -872.0, -872.0, -872.0, -872.0, -872.0, -872.0, -872.0, -872.0, -872.0, -872.0, -872.0, -872.0, -872.0, -872.0, -872.0, -872.0, -872.0, -872.0, -872.0, -872.0, -872.0, -872.0, -872.0, -872.0, -872.0]}, "_timestamp": 1663359172.8100276, "_runtime": 703.6296966075897, "gradients/module.linear_out.weight": {"_type": "histogram", "values": [1.0, 0.0, 0.0, 0.0, 0.0, 0.0, 1.0, 1.0, 0.0, 0.0, 0.0, 2.0, 1.0, 1.0, 2.0, 4.0, 2.0, 1.0, 2.0, 1.0, 2.0, 1.0, 1.0, 0.0, 1.0, 1.0, 5.0, 5.0, 2.0, 5.0, 1.0, 4.0, 4.0, 3.0, 3.0, 2.0, 6.0, 4.0, 6.0, 2.0, 2.0, 0.0, 1.0, 1.0, 1.0, 0.0, 0.0, 1.0, 1.0, 0.0, 0.0, 0.0, 1.0, 1.0, 1.0, 0.0, 1.0, 1.0, 3.0, 3.0, 6.0, 17.0, 6.0, 4.0], "bins": [-604.5, -595.94384765625, -587.3876953125, -578.83154296875, -570.275390625, -561.71923828125, -553.1630859375, -544.60693359375, -536.05078125, -527.49462890625, -518.9384765625, -510.38232421875, -501.826171875, -493.27001953125, -484.7138671875, -476.15771484375, -467.6015625, -459.04541015625, -450.4892578125, -441.93310546875, -433.376953125, -424.82080078125, -416.2646484375, -407.70849609375, -399.15234375, -390.59619140625, -382.0400390625, -373.48388671875, -364.927734375, -356.37158203125, -347.8154296875, -339.25927734375, -330.703125, -322.14697265625, -313.5908203125, -305.03466796875, -296.478515625, -287.92236328125, -279.3662109375, -270.81005859375, -262.25390625, -253.69775390625, -245.1416015625, -236.58544921875, -228.029296875, -219.47314453125, -210.9169921875, -202.36083984375, -193.8046875, -185.24853515625, -176.6923828125, -168.13623046875, -159.580078125, -151.02392578125, -142.4677734375, -133.91162109375, -125.35546875, -116.79931640625, -108.2431640625, -99.68701171875, -91.130859375, -82.57470703125, -74.0185546875, -65.46240234375, -56.90625]}, "gradients/module.bn4.weight": {"_type": "histogram", "values": [3.0, 1.0, 1.0, 0.0, 0.0, 2.0, 1.0, 2.0, 2.0, 1.0, 3.0, 1.0, 4.0, 2.0, 2.0, 2.0, 5.0, 2.0, 0.0, 2.0, 2.0, 6.0, 7.0, 1.0, 1.0, 2.0, 2.0, 0.0, 5.0, 1.0, 6.0, 2.0, 2.0, 0.0, 1.0, 1.0, 2.0, 3.0, 4.0, 9.0, 2.0, 2.0, 7.0, 5.0, 5.0, 5.0, 3.0, 0.0, 0.0, 0.0, 0.0, 0.0, 2.0, 0.0, 1.0, 1.0, 0.0, 1.0, 0.0, 0.0, 0.0, 0.0, 0.0, 1.0], "bins": [-87.62529754638672, -85.28035736083984, -82.93541717529297, -80.5904769897461, -78.24553680419922, -75.90060424804688, -73.5556640625, -71.21072387695312, -68.86578369140625, -66.52084350585938, -64.1759033203125, -61.830963134765625, -59.486026763916016, -57.14108657836914, -54.796146392822266, -52.451210021972656, -50.106266021728516, -47.76132583618164, -45.416385650634766, -43.071449279785156, -40.72650909423828, -38.381568908691406, -36.03662872314453, -33.691688537597656, -31.346750259399414, -29.00181007385254, -26.656871795654297, -24.311931610107422, -21.966991424560547, -19.622053146362305, -17.27711296081543, -14.932174682617188, -12.587234497070312, -10.242295265197754, -7.897355556488037, -5.55241584777832, -3.2074766159057617, -0.8625373840332031, 1.4824028015136719, 3.827341079711914, 6.172281265258789, 8.517220497131348, 10.862159729003906, 13.207099914550781, 15.55203914642334, 17.8969783782959, 20.241918563842773, 22.586856842041016, 24.93179702758789, 27.276737213134766, 29.621675491333008, 31.966615676879883, 34.311553955078125, 36.656494140625, 39.001434326171875, 41.34637451171875, 43.691314697265625, 46.0362548828125, 48.381195068359375, 50.72613525390625, 53.07107162475586, 55.416011810302734, 57.76095199584961, 60.10588836669922, 62.450828552246094]}, "gradients/module.bn4.bias": {"_type": "histogram", "values": [1.0, 0.0, 1.0, 1.0, 0.0, 0.0, 0.0, 2.0, 1.0, 3.0, 3.0, 3.0, 2.0, 0.0, 2.0, 3.0, 3.0, 2.0, 2.0, 3.0, 1.0, 4.0, 2.0, 3.0, 7.0, 2.0, 2.0, 1.0, 3.0, 1.0, 3.0, 2.0, 6.0, 3.0, 0.0, 1.0, 1.0, 2.0, 1.0, 1.0, 4.0, 3.0, 3.0, 3.0, 3.0, 2.0, 1.0, 4.0, 1.0, 2.0, 1.0, 0.0, 2.0, 3.0, 1.0, 1.0, 3.0, 1.0, 3.0, 1.0, 2.0, 3.0, 0.0, 3.0], "bins": [-123.5950698852539, -120.44512176513672, -117.29518127441406, -114.14523315429688, -110.99529266357422, -107.84534454345703, -104.69540405273438, -101.54545593261719, -98.3955078125, -95.24555969238281, -92.09561920166016, -88.94567108154297, -85.79573059082031, -82.64578247070312, -79.49583435058594, -76.34589385986328, -73.19595336914062, -70.04600524902344, -66.89606475830078, -63.746116638183594, -60.59617614746094, -57.44622802734375, -54.29628372192383, -51.146339416503906, -47.996395111083984, -44.84645080566406, -41.69650650024414, -38.54656219482422, -35.39661407470703, -32.246673583984375, -29.096725463867188, -25.946781158447266, -22.796844482421875, -19.646900177001953, -16.49695587158203, -13.347009658813477, -10.197065353393555, -7.047121047973633, -3.897174835205078, -0.7472305297851562, 2.4027137756347656, 5.552658557891846, 8.702603340148926, 11.852548599243164, 15.002492904663086, 18.152437210083008, 21.302383422851562, 24.452327728271484, 27.602272033691406, 30.752216339111328, 33.90216064453125, 37.05210876464844, 40.202049255371094, 43.35199737548828, 46.5019416809082, 49.651885986328125, 52.80183029174805, 55.95177459716797, 59.10171890258789, 62.25166320800781, 65.401611328125, 68.55155181884766, 71.70149993896484, 74.8514404296875, 78.00138854980469]}, "gradients/module.linear1_4.bias": {"_type": "histogram", "values": [1.0, 0.0, 0.0, 0.0, 0.0, 0.0, 1.0, 0.0, 0.0, 0.0, 0.0, 0.0, 0.0, 2.0, 1.0, 0.0, 0.0, 0.0, 1.0, 0.0, 1.0, 1.0, 0.0, 1.0, 1.0, 0.0, 2.0, 2.0, 2.0, 0.0, 1.0, 1.0, 1.0, 3.0, 3.0, 3.0, 9.0, 13.0, 11.0, 14.0, 5.0, 10.0, 6.0, 6.0, 6.0, 5.0, 4.0, 2.0, 0.0, 0.0, 0.0, 0.0, 0.0, 0.0, 1.0, 1.0, 1.0, 1.0, 1.0, 0.0, 2.0, 0.0, 1.0, 1.0], "bins": [-0.00498199462890625, -0.004853367805480957, -0.004724740982055664, -0.004596114158630371, -0.004467487335205078, -0.004338860511779785, -0.004210233688354492, -0.004081606864929199, -0.003952980041503906, -0.0038243532180786133, -0.0036957263946533203, -0.0035670995712280273, -0.0034384727478027344, -0.0033098459243774414, -0.0031812191009521484, -0.0030525922775268555, -0.0029239654541015625, -0.0027953386306762695, -0.0026667118072509766, -0.0025380849838256836, -0.0024094581604003906, -0.0022808313369750977, -0.0021522045135498047, -0.0020235776901245117, -0.0018949508666992188, -0.0017663240432739258, -0.0016376972198486328, -0.0015090703964233398, -0.0013804435729980469, -0.001251816749572754, -0.001123189926147461, -0.000994563102722168, -0.000865936279296875, -0.000737309455871582, -0.0006086826324462891, -0.0004800558090209961, -0.0003514289855957031, -0.00022280216217041016, -9.417533874511719e-05, 3.445148468017578e-05, 0.00016307830810546875, 0.0002917051315307617, 0.0004203319549560547, 0.0005489587783813477, 0.0006775856018066406, 0.0008062124252319336, 0.0009348392486572266, 0.0010634660720825195, 0.0011920928955078125, 0.0013207197189331055, 0.0014493465423583984, 0.0015779733657836914, 0.0017066001892089844, 0.0018352270126342773, 0.0019638538360595703, 0.0020924806594848633, 0.0022211074829101562, 0.0023497343063354492, 0.002478361129760742, 0.002606987953186035, 0.002735614776611328, 0.002864241600036621, 0.002992868423461914, 0.003121495246887207, 0.0032501220703125]}, "gradients/module.linear1_4.weight": {"_type": "histogram", "values": [4.0, 4.0, 3.0, 7.0, 5.0, 3.0, 7.0, 9.0, 19.0, 13.0, 22.0, 24.0, 25.0, 27.0, 39.0, 32.0, 31.0, 60.0, 65.0, 61.0, 73.0, 78.0, 74.0, 102.0, 122.0, 118.0, 143.0, 139.0, 138.0, 167.0, 216.0, 266.0, 352.0, 463.0, 578.0, 860.0, 1540.0, 4271.0, 12861.0, 5645.0, 1906.0, 761.0, 383.0, 264.0, 169.0, 150.0, 91.0, 94.0, 79.0, 48.0, 37.0, 32.0, 17.0, 17.0, 17.0, 12.0, 9.0, 3.0, 4.0, 5.0, 2.0, 1.0, 0.0, 1.0], "bins": [-58.5, -56.97900390625, -55.4580078125, -53.93701171875, -52.416015625, -50.89501953125, -49.3740234375, -47.85302734375, -46.33203125, -44.81103515625, -43.2900390625, -41.76904296875, -40.248046875, -38.72705078125, -37.2060546875, -35.68505859375, -34.1640625, -32.64306640625, -31.1220703125, -29.60107421875, -28.080078125, -26.55908203125, -25.0380859375, -23.51708984375, -21.99609375, -20.47509765625, -18.9541015625, -17.43310546875, -15.912109375, -14.39111328125, -12.8701171875, -11.34912109375, -9.828125, -8.30712890625, -6.7861328125, -5.26513671875, -3.744140625, -2.22314453125, -0.7021484375, 0.81884765625, 2.33984375, 3.86083984375, 5.3818359375, 6.90283203125, 8.423828125, 9.94482421875, 11.4658203125, 12.98681640625, 14.5078125, 16.02880859375, 17.5498046875, 19.07080078125, 20.591796875, 22.11279296875, 23.6337890625, 25.15478515625, 26.67578125, 28.19677734375, 29.7177734375, 31.23876953125, 32.759765625, 34.28076171875, 35.8017578125, 37.32275390625, 38.84375]}, "gradients/module.linear_mod_2.bias": {"_type": "histogram", "values": [1.0, 0.0, 0.0, 0.0, 0.0, 0.0, 0.0, 0.0, 0.0, 0.0, 0.0, 0.0, 0.0, 0.0, 0.0, 0.0, 0.0, 0.0, 0.0, 0.0, 0.0, 0.0, 0.0, 0.0, 0.0, 0.0, 0.0, 0.0, 0.0, 0.0, 0.0, 0.0, 0.0, 0.0, 0.0, 0.0, 0.0, 0.0, 0.0, 0.0, 0.0, 0.0, 0.0, 0.0, 0.0, 0.0, 0.0, 0.0, 0.0, 0.0, 0.0, 0.0, 0.0, 0.0, 0.0, 0.0, 0.0, 0.0, 0.0, 0.0, 0.0, 0.0, 0.0, 1.0], "bins": [-0.0936279296875, -0.09070301055908203, -0.08777809143066406, -0.0848531723022461, -0.08192825317382812, -0.07900333404541016, -0.07607841491699219, -0.07315349578857422, -0.07022857666015625, -0.06730365753173828, -0.06437873840332031, -0.061453819274902344, -0.058528900146484375, -0.055603981018066406, -0.05267906188964844, -0.04975414276123047, -0.0468292236328125, -0.04390430450439453, -0.04097938537597656, -0.038054466247558594, -0.035129547119140625, -0.032204627990722656, -0.029279708862304688, -0.02635478973388672, -0.02342987060546875, -0.02050495147705078, -0.017580032348632812, -0.014655113220214844, -0.011730194091796875, -0.008805274963378906, -0.0058803558349609375, -0.0029554367065429688, -3.0517578125e-05, 0.0028944015502929688, 0.0058193206787109375, 0.008744239807128906, 0.011669158935546875, 0.014594078063964844, 0.017518997192382812, 0.02044391632080078, 0.02336883544921875, 0.02629375457763672, 0.029218673706054688, 0.032143592834472656, 0.035068511962890625, 0.037993431091308594, 0.04091835021972656, 0.04384326934814453, 0.0467681884765625, 0.04969310760498047, 0.05261802673339844, 0.055542945861816406, 0.058467864990234375, 0.061392784118652344, 0.06431770324707031, 0.06724262237548828, 0.07016754150390625, 0.07309246063232422, 0.07601737976074219, 0.07894229888916016, 0.08186721801757812, 0.0847921371459961, 0.08771705627441406, 0.09064197540283203, 0.09356689453125]}, "gradients/module.linear_mod_2.weight": {"_type": "histogram", "values": [1.0, 0.0, 0.0, 0.0, 0.0, 0.0, 0.0, 0.0, 0.0, 0.0, 0.0, 0.0, 0.0, 0.0, 0.0, 0.0, 0.0, 1.0, 3.0, 5.0, 3.0, 1.0, 2.0, 6.0, 3.0, 8.0, 3.0, 15.0, 16.0, 17.0, 17.0, 27.0, 27.0, 17.0, 17.0, 16.0, 15.0, 3.0, 8.0, 3.0, 6.0, 2.0, 1.0, 3.0, 5.0, 3.0, 1.0, 0.0, 0.0, 0.0, 0.0, 0.0, 0.0, 0.0, 0.0, 0.0, 0.0, 0.0, 0.0, 0.0, 0.0, 0.0, 0.0, 1.0], "bins": [-7.72265625, -7.4813232421875, -7.239990234375, -6.9986572265625, -6.75732421875, -6.5159912109375, -6.274658203125, -6.0333251953125, -5.7919921875, -5.5506591796875, -5.309326171875, -5.0679931640625, -4.82666015625, -4.5853271484375, -4.343994140625, -4.1026611328125, -3.861328125, -3.6199951171875, -3.378662109375, -3.1373291015625, -2.89599609375, -2.6546630859375, -2.413330078125, -2.1719970703125, -1.9306640625, -1.6893310546875, -1.447998046875, -1.2066650390625, -0.96533203125, -0.7239990234375, -0.482666015625, -0.2413330078125, 0.0, 0.2413330078125, 0.482666015625, 0.7239990234375, 0.96533203125, 1.2066650390625, 1.447998046875, 1.6893310546875, 1.9306640625, 2.1719970703125, 2.413330078125, 2.6546630859375, 2.89599609375, 3.1373291015625, 3.378662109375, 3.6199951171875, 3.861328125, 4.1026611328125, 4.343994140625, 4.5853271484375, 4.82666015625, 5.0679931640625, 5.309326171875, 5.5506591796875, 5.7919921875, 6.0333251953125, 6.274658203125, 6.5159912109375, 6.75732421875, 6.9986572265625, 7.239990234375, 7.4813232421875, 7.72265625]}, "gradients/module.linear_mod_1.bias": {"_type": "histogram", "values": [1.0, 0.0, 0.0, 1.0, 0.0, 0.0, 0.0, 2.0, 0.0, 0.0, 1.0, 0.0, 0.0, 1.0, 1.0, 1.0, 2.0, 2.0, 2.0, 4.0, 4.0, 2.0, 4.0, 5.0, 9.0, 5.0, 9.0, 14.0, 11.0, 6.0, 4.0, 4.0, 4.0, 3.0, 1.0, 4.0, 4.0, 4.0, 0.0, 1.0, 1.0, 0.0, 1.0, 0.0, 1.0, 2.0, 2.0, 0.0, 0.0, 3.0, 0.0, 0.0, 0.0, 0.0, 1.0, 0.0, 0.0, 0.0, 0.0, 0.0, 0.0, 0.0, 0.0, 1.0], "bins": [-0.68701171875, -0.6614761352539062, -0.6359405517578125, -0.6104049682617188, -0.584869384765625, -0.5593338012695312, -0.5337982177734375, -0.5082626342773438, -0.48272705078125, -0.45719146728515625, -0.4316558837890625, -0.40612030029296875, -0.380584716796875, -0.35504913330078125, -0.3295135498046875, -0.30397796630859375, -0.2784423828125, -0.25290679931640625, -0.2273712158203125, -0.20183563232421875, -0.176300048828125, -0.15076446533203125, -0.1252288818359375, -0.09969329833984375, -0.07415771484375, -0.04862213134765625, -0.0230865478515625, 0.00244903564453125, 0.027984619140625, 0.05352020263671875, 0.0790557861328125, 0.10459136962890625, 0.130126953125, 0.15566253662109375, 0.1811981201171875, 0.20673370361328125, 0.232269287109375, 0.25780487060546875, 0.2833404541015625, 0.30887603759765625, 0.33441162109375, 0.35994720458984375, 0.3854827880859375, 0.41101837158203125, 0.436553955078125, 0.46208953857421875, 0.4876251220703125, 0.5131607055664062, 0.5386962890625, 0.5642318725585938, 0.5897674560546875, 0.6153030395507812, 0.640838623046875, 0.6663742065429688, 0.6919097900390625, 0.7174453735351562, 0.74298095703125, 0.7685165405273438, 0.7940521240234375, 0.8195877075195312, 0.845123291015625, 0.8706588745117188, 0.8961944580078125, 0.9217300415039062, 0.947265625]}, "gradients/module.linear_mod_1.weight": {"_type": "histogram", "values": [1.0, 0.0, 1.0, 1.0, 8.0, 14.0, 18.0, 25.0, 35.0, 54.0, 63.0, 86.0, 110.0, 154.0, 191.0, 240.0, 319.0, 417.0, 637.0, 877.0, 1364.0, 2199.0, 4064.0, 8898.0, 4732.0, 2441.0, 1574.0, 1138.0, 796.0, 547.0, 422.0, 309.0, 223.0, 173.0, 130.0, 90.0, 74.0, 50.0, 46.0, 34.0, 36.0, 32.0, 29.0, 15.0, 21.0, 10.0, 8.0, 8.0, 4.0, 4.0, 6.0, 9.0, 6.0, 4.0, 4.0, 3.0, 2.0, 1.0, 1.0, 4.0, 2.0, 1.0, 0.0, 3.0], "bins": [-1.1572265625, -1.10809326171875, -1.0589599609375, -1.00982666015625, -0.960693359375, -0.91156005859375, -0.8624267578125, -0.81329345703125, -0.76416015625, -0.71502685546875, -0.6658935546875, -0.61676025390625, -0.567626953125, -0.51849365234375, -0.4693603515625, -0.42022705078125, -0.37109375, -0.32196044921875, -0.2728271484375, -0.22369384765625, -0.174560546875, -0.12542724609375, -0.0762939453125, -0.02716064453125, 0.02197265625, 0.07110595703125, 0.1202392578125, 0.16937255859375, 0.218505859375, 0.26763916015625, 0.3167724609375, 0.36590576171875, 0.4150390625, 0.46417236328125, 0.5133056640625, 0.56243896484375, 0.611572265625, 0.66070556640625, 0.7098388671875, 0.75897216796875, 0.80810546875, 0.85723876953125, 0.9063720703125, 0.95550537109375, 1.004638671875, 1.05377197265625, 1.1029052734375, 1.15203857421875, 1.201171875, 1.25030517578125, 1.2994384765625, 1.34857177734375, 1.397705078125, 1.44683837890625, 1.4959716796875, 1.54510498046875, 1.59423828125, 1.64337158203125, 1.6925048828125, 1.74163818359375, 1.790771484375, 1.83990478515625, 1.8890380859375, 1.93817138671875, 1.9873046875]}, "gradients/module.linear_miss_clv_3.bias": {"_type": "histogram", "values": [1.0, 0.0, 0.0, 0.0, 0.0, 0.0, 0.0, 0.0, 0.0, 0.0, 0.0, 0.0, 0.0, 0.0, 0.0, 0.0, 0.0, 0.0, 0.0, 0.0, 0.0, 0.0, 0.0, 0.0, 0.0, 0.0, 0.0, 0.0, 0.0, 0.0, 0.0, 1.0, 0.0, 0.0, 0.0, 0.0, 0.0, 0.0, 0.0, 0.0, 0.0, 0.0, 0.0, 0.0, 0.0, 0.0, 0.0, 0.0, 0.0, 0.0, 0.0, 0.0, 0.0, 0.0, 0.0, 0.0, 0.0, 0.0, 0.0, 0.0, 0.0, 0.0, 0.0, 1.0], "bins": [-1.0556640625, -1.0226287841796875, -0.989593505859375, -0.9565582275390625, -0.92352294921875, -0.8904876708984375, -0.857452392578125, -0.8244171142578125, -0.7913818359375, -0.7583465576171875, -0.725311279296875, -0.6922760009765625, -0.65924072265625, -0.6262054443359375, -0.593170166015625, -0.5601348876953125, -0.527099609375, -0.4940643310546875, -0.461029052734375, -0.4279937744140625, -0.39495849609375, -0.3619232177734375, -0.328887939453125, -0.2958526611328125, -0.2628173828125, -0.2297821044921875, -0.196746826171875, -0.1637115478515625, -0.13067626953125, -0.0976409912109375, -0.064605712890625, -0.0315704345703125, 0.00146484375, 0.0345001220703125, 0.067535400390625, 0.1005706787109375, 0.13360595703125, 0.1666412353515625, 0.199676513671875, 0.2327117919921875, 0.2657470703125, 0.2987823486328125, 0.331817626953125, 0.3648529052734375, 0.39788818359375, 0.4309234619140625, 0.463958740234375, 0.4969940185546875, 0.530029296875, 0.5630645751953125, 0.596099853515625, 0.6291351318359375, 0.66217041015625, 0.6952056884765625, 0.728240966796875, 0.7612762451171875, 0.7943115234375, 0.8273468017578125, 0.860382080078125, 0.8934173583984375, 0.92645263671875, 0.9594879150390625, 0.992523193359375, 1.0255584716796875, 1.05859375]}, "gradients/module.linear_miss_clv_3.weight": {"_type": "histogram", "values": [1.0, 0.0, 0.0, 0.0, 0.0, 0.0, 0.0, 0.0, 0.0, 0.0, 0.0, 0.0, 2.0, 0.0, 0.0, 0.0, 1.0, 0.0, 0.0, 2.0, 1.0, 1.0, 2.0, 2.0, 2.0, 3.0, 3.0, 3.0, 4.0, 9.0, 12.0, 13.0, 53.0, 169.0, 44.0, 19.0, 11.0, 4.0, 5.0, 2.0, 4.0, 1.0, 2.0, 2.0, 1.0, 1.0, 1.0, 1.0, 0.0, 0.0, 0.0, 0.0, 0.0, 2.0, 0.0, 0.0, 0.0, 0.0, 0.0, 0.0, 0.0, 0.0, 0.0, 1.0], "bins": [-16.890625, -16.383056640625, -15.87548828125, -15.367919921875, -14.8603515625, -14.352783203125, -13.84521484375, -13.337646484375, -12.830078125, -12.322509765625, -11.81494140625, -11.307373046875, -10.7998046875, -10.292236328125, -9.78466796875, -9.277099609375, -8.76953125, -8.261962890625, -7.75439453125, -7.246826171875, -6.7392578125, -6.231689453125, -5.72412109375, -5.216552734375, -4.708984375, -4.201416015625, -3.69384765625, -3.186279296875, -2.6787109375, -2.171142578125, -1.66357421875, -1.156005859375, -0.6484375, -0.140869140625, 0.36669921875, 0.874267578125, 1.3818359375, 1.889404296875, 2.39697265625, 2.904541015625, 3.412109375, 3.919677734375, 4.42724609375, 4.934814453125, 5.4423828125, 5.949951171875, 6.45751953125, 6.965087890625, 7.47265625, 7.980224609375, 8.48779296875, 8.995361328125, 9.5029296875, 10.010498046875, 10.51806640625, 11.025634765625, 11.533203125, 12.040771484375, 12.54833984375, 13.055908203125, 13.5634765625, 14.071044921875, 14.57861328125, 15.086181640625, 15.59375]}, "gradients/module.linear_miss_clv_2.bias": {"_type": "histogram", "values": [1.0, 1.0, 0.0, 0.0, 0.0, 0.0, 0.0, 0.0, 0.0, 0.0, 0.0, 0.0, 1.0, 0.0, 0.0, 0.0, 2.0, 1.0, 3.0, 3.0, 2.0, 2.0, 1.0, 8.0, 4.0, 1.0, 1.0, 3.0, 3.0, 8.0, 7.0, 5.0, 11.0, 10.0, 8.0, 6.0, 4.0, 2.0, 5.0, 9.0, 0.0, 3.0, 3.0, 2.0, 0.0, 1.0, 1.0, 1.0, 2.0, 1.0, 0.0, 0.0, 0.0, 0.0, 0.0, 0.0, 0.0, 0.0, 0.0, 0.0, 0.0, 1.0, 0.0, 1.0], "bins": [-0.8544921875, -0.8285675048828125, -0.802642822265625, -0.7767181396484375, -0.75079345703125, -0.7248687744140625, -0.698944091796875, -0.6730194091796875, -0.6470947265625, -0.6211700439453125, -0.595245361328125, -0.5693206787109375, -0.54339599609375, -0.5174713134765625, -0.491546630859375, -0.4656219482421875, -0.439697265625, -0.4137725830078125, -0.387847900390625, -0.3619232177734375, -0.33599853515625, -0.3100738525390625, -0.284149169921875, -0.2582244873046875, -0.2322998046875, -0.2063751220703125, -0.180450439453125, -0.1545257568359375, -0.12860107421875, -0.1026763916015625, -0.076751708984375, -0.0508270263671875, -0.02490234375, 0.0010223388671875, 0.026947021484375, 0.0528717041015625, 0.07879638671875, 0.1047210693359375, 0.130645751953125, 0.1565704345703125, 0.1824951171875, 0.2084197998046875, 0.234344482421875, 0.2602691650390625, 0.28619384765625, 0.3121185302734375, 0.338043212890625, 0.3639678955078125, 0.389892578125, 0.4158172607421875, 0.441741943359375, 0.4676666259765625, 0.49359130859375, 0.5195159912109375, 0.545440673828125, 0.5713653564453125, 0.5972900390625, 0.6232147216796875, 0.649139404296875, 0.6750640869140625, 0.70098876953125, 0.7269134521484375, 0.752838134765625, 0.7787628173828125, 0.8046875]}, "gradients/module.linear_miss_clv_2.weight": {"_type": "histogram", "values": [1.0, 0.0, 0.0, 2.0, 3.0, 3.0, 3.0, 2.0, 4.0, 9.0, 14.0, 22.0, 31.0, 32.0, 44.0, 69.0, 104.0, 133.0, 201.0, 292.0, 461.0, 715.0, 1039.0, 1895.0, 3457.0, 9630.0, 6869.0, 2964.0, 1609.0, 994.0, 605.0, 411.0, 299.0, 192.0, 142.0, 107.0, 76.0, 59.0, 43.0, 43.0, 35.0, 26.0, 27.0, 25.0, 6.0, 13.0, 8.0, 12.0, 3.0, 4.0, 10.0, 2.0, 4.0, 3.0, 4.0, 1.0, 2.0, 1.0, 0.0, 2.0, 0.0, 0.0, 0.0, 1.0], "bins": [-1.6396484375, -1.5763092041015625, -1.512969970703125, -1.4496307373046875, -1.38629150390625, -1.3229522705078125, -1.259613037109375, -1.1962738037109375, -1.1329345703125, -1.0695953369140625, -1.006256103515625, -0.9429168701171875, -0.87957763671875, -0.8162384033203125, -0.752899169921875, -0.6895599365234375, -0.626220703125, -0.5628814697265625, -0.499542236328125, -0.4362030029296875, -0.37286376953125, -0.3095245361328125, -0.246185302734375, -0.1828460693359375, -0.1195068359375, -0.0561676025390625, 0.007171630859375, 0.0705108642578125, 0.13385009765625, 0.1971893310546875, 0.260528564453125, 0.3238677978515625, 0.38720703125, 0.4505462646484375, 0.513885498046875, 0.5772247314453125, 0.64056396484375, 0.7039031982421875, 0.767242431640625, 0.8305816650390625, 0.8939208984375, 0.9572601318359375, 1.020599365234375, 1.0839385986328125, 1.14727783203125, 1.2106170654296875, 1.273956298828125, 1.3372955322265625, 1.400634765625, 1.4639739990234375, 1.527313232421875, 1.5906524658203125, 1.65399169921875, 1.7173309326171875, 1.780670166015625, 1.8440093994140625, 1.9073486328125, 1.9706878662109375, 2.034027099609375, 2.0973663330078125, 2.16070556640625, 2.2240447998046875, 2.287384033203125, 2.3507232666015625, 2.4140625]}, "gradients/module.bn3.weight": {"_type": "histogram", "values": [1.0, 1.0, 0.0, 1.0, 0.0, 0.0, 0.0, 1.0, 1.0, 0.0, 2.0, 1.0, 0.0, 0.0, 0.0, 1.0, 0.0, 1.0, 2.0, 3.0, 1.0, 1.0, 4.0, 1.0, 1.0, 3.0, 2.0, 3.0, 3.0, 7.0, 11.0, 8.0, 18.0, 26.0, 21.0, 22.0, 25.0, 21.0, 12.0, 12.0, 6.0, 4.0, 4.0, 3.0, 1.0, 4.0, 4.0, 4.0, 2.0, 1.0, 4.0, 1.0, 0.0, 0.0, 0.0, 0.0, 0.0, 0.0, 0.0, 0.0, 0.0, 0.0, 0.0, 1.0], "bins": [-26.463275909423828, -25.69419288635254, -24.92510986328125, -24.15602684020996, -23.386943817138672, -22.617860794067383, -21.848777770996094, -21.079694747924805, -20.310611724853516, -19.541528701782227, -18.772445678710938, -18.00336265563965, -17.23427963256836, -16.46519660949707, -15.696113586425781, -14.927030563354492, -14.157947540283203, -13.388864517211914, -12.619781494140625, -11.850698471069336, -11.081615447998047, -10.312532424926758, -9.543449401855469, -8.77436637878418, -8.00528335571289, -7.236200332641602, -6.4671173095703125, -5.698034286499023, -4.928951263427734, -4.159868240356445, -3.3907852172851562, -2.621702194213867, -1.852621078491211, -1.0835380554199219, -0.3144550323486328, 0.45462799072265625, 1.2237110137939453, 1.9927940368652344, 2.7618770599365234, 3.5309600830078125, 4.300043106079102, 5.069126129150391, 5.83820915222168, 6.607292175292969, 7.376375198364258, 8.145458221435547, 8.914541244506836, 9.683624267578125, 10.452707290649414, 11.221790313720703, 11.990873336791992, 12.759956359863281, 13.52903938293457, 14.29812240600586, 15.067205429077148, 15.836288452148438, 16.605371475219727, 17.374454498291016, 18.143537521362305, 18.912620544433594, 19.681703567504883, 20.450786590576172, 21.21986961364746, 21.98895263671875, 22.75803565979004]}, "gradients/module.bn3.bias": {"_type": "histogram", "values": [1.0, 4.0, 1.0, 2.0, 0.0, 1.0, 2.0, 7.0, 3.0, 1.0, 4.0, 2.0, 6.0, 4.0, 1.0, 6.0, 11.0, 7.0, 9.0, 10.0, 9.0, 10.0, 4.0, 8.0, 11.0, 8.0, 3.0, 10.0, 10.0, 16.0, 7.0, 11.0, 7.0, 7.0, 9.0, 5.0, 5.0, 1.0, 4.0, 4.0, 5.0, 2.0, 3.0, 1.0, 4.0, 2.0, 0.0, 0.0, 0.0, 2.0, 0.0, 0.0, 0.0, 2.0, 0.0, 2.0, 0.0, 0.0, 0.0, 0.0, 0.0, 0.0, 0.0, 2.0], "bins": [-6.974696159362793, -6.6540937423706055, -6.333491325378418, -6.012888431549072, -5.692286014556885, -5.371683597564697, -5.051080703735352, -4.730478286743164, -4.409875869750977, -4.089273452758789, -3.7686707973480225, -3.448068141937256, -3.1274657249450684, -2.806863307952881, -2.4862606525421143, -2.1656579971313477, -1.8450555801391602, -1.524453043937683, -1.203850507736206, -0.883247971534729, -0.562645435333252, -0.2420428991317749, 0.07855963706970215, 0.39916229248046875, 0.7197647094726562, 1.0403672456741333, 1.3609697818756104, 1.6815723180770874, 2.0021748542785645, 2.322777271270752, 2.6433799266815186, 2.963982582092285, 3.2845840454101562, 3.6051864624023438, 3.9257891178131104, 4.246391773223877, 4.5669941902160645, 4.887596607208252, 5.208199501037598, 5.528801918029785, 5.849404335021973, 6.17000675201416, 6.490609169006348, 6.811212062835693, 7.131814479827881, 7.452416896820068, 7.773019790649414, 8.093622207641602, 8.414224624633789, 8.734827041625977, 9.055429458618164, 9.376031875610352, 9.696634292602539, 10.017237663269043, 10.33784008026123, 10.658442497253418, 10.979044914245605, 11.299647331237793, 11.62024974822998, 11.940852165222168, 12.261455535888672, 12.58205795288086, 12.902660369873047, 13.223262786865234, 13.543865203857422]}, "gradients/module.linear1_3.bias": {"_type": "histogram", "values": [2.0, 0.0, 0.0, 0.0, 1.0, 1.0, 0.0, 0.0, 0.0, 0.0, 2.0, 1.0, 1.0, 0.0, 1.0, 2.0, 1.0, 4.0, 4.0, 3.0, 2.0, 1.0, 2.0, 9.0, 0.0, 6.0, 6.0, 6.0, 11.0, 4.0, 7.0, 13.0, 11.0, 11.0, 7.0, 11.0, 7.0, 12.0, 11.0, 11.0, 13.0, 3.0, 6.0, 6.0, 5.0, 4.0, 6.0, 2.0, 5.0, 4.0, 6.0, 3.0, 1.0, 3.0, 0.0, 2.0, 3.0, 3.0, 4.0, 1.0, 1.0, 2.0, 1.0, 1.0], "bins": [-0.0017795562744140625, -0.0017300248146057129, -0.0016804933547973633, -0.0016309618949890137, -0.001581430435180664, -0.0015318989753723145, -0.0014823675155639648, -0.0014328360557556152, -0.0013833045959472656, -0.001333773136138916, -0.0012842416763305664, -0.0012347102165222168, -0.0011851787567138672, -0.0011356472969055176, -0.001086115837097168, -0.0010365843772888184, -0.0009870529174804688, -0.0009375214576721191, -0.0008879899978637695, -0.0008384585380554199, -0.0007889270782470703, -0.0007393956184387207, -0.0006898641586303711, -0.0006403326988220215, -0.0005908012390136719, -0.0005412697792053223, -0.0004917383193969727, -0.00044220685958862305, -0.00039267539978027344, -0.00034314393997192383, -0.0002936124801635742, -0.0002440810203552246, -0.000194549560546875, -0.0001450181007385254, -9.548664093017578e-05, -4.595518112182617e-05, 3.5762786865234375e-06, 5.310773849487305e-05, 0.00010263919830322266, 0.00015217065811157227, 0.00020170211791992188, 0.0002512335777282715, 0.0003007650375366211, 0.0003502964973449707, 0.0003998279571533203, 0.0004493594169616699, 0.0004988908767700195, 0.0005484223365783691, 0.0005979537963867188, 0.0006474852561950684, 0.000697016716003418, 0.0007465481758117676, 0.0007960796356201172, 0.0008456110954284668, 0.0008951425552368164, 0.000944674015045166, 0.0009942054748535156, 0.0010437369346618652, 0.0010932683944702148, 0.0011427998542785645, 0.001192331314086914, 0.0012418627738952637, 0.0012913942337036133, 0.0013409256935119629, 0.0013904571533203125]}, "gradients/module.linear1_3.weight": {"_type": "histogram", "values": [1.0, 1.0, 0.0, 1.0, 1.0, 0.0, 2.0, 1.0, 1.0, 5.0, 2.0, 4.0, 5.0, 4.0, 7.0, 8.0, 13.0, 15.0, 29.0, 24.0, 44.0, 51.0, 72.0, 93.0, 102.0, 167.0, 222.0, 303.0, 437.0, 626.0, 863.0, 1240.0, 1874.0, 3093.0, 5734.0, 11632.0, 24509.0, 34425.0, 23081.0, 10763.0, 4840.0, 2387.0, 1378.0, 842.0, 604.0, 394.0, 264.0, 210.0, 166.0, 119.0, 86.0, 76.0, 57.0, 52.0, 37.0, 26.0, 19.0, 24.0, 10.0, 9.0, 4.0, 7.0, 2.0, 4.0], "bins": [-35.25, -34.30810546875, -33.3662109375, -32.42431640625, -31.482421875, -30.54052734375, -29.5986328125, -28.65673828125, -27.71484375, -26.77294921875, -25.8310546875, -24.88916015625, -23.947265625, -23.00537109375, -22.0634765625, -21.12158203125, -20.1796875, -19.23779296875, -18.2958984375, -17.35400390625, -16.412109375, -15.47021484375, -14.5283203125, -13.58642578125, -12.64453125, -11.70263671875, -10.7607421875, -9.81884765625, -8.876953125, -7.93505859375, -6.9931640625, -6.05126953125, -5.109375, -4.16748046875, -3.2255859375, -2.28369140625, -1.341796875, -0.39990234375, 0.5419921875, 1.48388671875, 2.42578125, 3.36767578125, 4.3095703125, 5.25146484375, 6.193359375, 7.13525390625, 8.0771484375, 9.01904296875, 9.9609375, 10.90283203125, 11.8447265625, 12.78662109375, 13.728515625, 14.67041015625, 15.6123046875, 16.55419921875, 17.49609375, 18.43798828125, 19.3798828125, 20.32177734375, 21.263671875, 22.20556640625, 23.1474609375, 24.08935546875, 25.03125]}, "gradients/module.bn2.weight": {"_type": "histogram", "values": [1.0, 0.0, 0.0, 0.0, 0.0, 0.0, 1.0, 2.0, 1.0, 1.0, 0.0, 0.0, 1.0, 1.0, 4.0, 1.0, 2.0, 0.0, 5.0, 6.0, 2.0, 5.0, 5.0, 8.0, 7.0, 14.0, 11.0, 19.0, 14.0, 21.0, 20.0, 27.0, 23.0, 24.0, 33.0, 25.0, 36.0, 24.0, 28.0, 20.0, 18.0, 22.0, 12.0, 10.0, 11.0, 8.0, 7.0, 8.0, 7.0, 3.0, 3.0, 1.0, 2.0, 1.0, 0.0, 3.0, 0.0, 1.0, 1.0, 1.0, 0.0, 0.0, 0.0, 1.0], "bins": [-10.843205451965332, -10.529826164245605, -10.216445922851562, -9.903066635131836, -9.58968734741211, -9.276307106018066, -8.96292781829834, -8.649547576904297, -8.33616828918457, -8.022789001464844, -7.709408760070801, -7.396029472351074, -7.0826497077941895, -6.769269943237305, -6.455890655517578, -6.142510890960693, -5.829131126403809, -5.515751361846924, -5.202371597290039, -4.8889923095703125, -4.575612545013428, -4.262232780456543, -3.9488532543182373, -3.6354737281799316, -3.322093963623047, -3.008714199066162, -2.6953346729278564, -2.381955146789551, -2.068575382232666, -1.7551957368850708, -1.4418160915374756, -1.12843656539917, -0.8150558471679688, -0.5016762018203735, -0.18829655647277832, 0.1250830888748169, 0.4384627342224121, 0.7518423795700073, 1.0652220249176025, 1.3786015510559082, 1.691981315612793, 2.0053610801696777, 2.3187406063079834, 2.632120132446289, 2.945499897003174, 3.2588796615600586, 3.5722591876983643, 3.88563871383667, 4.199018478393555, 4.5123982429504395, 4.825778007507324, 5.139157295227051, 5.4525370597839355, 5.76591682434082, 6.079296112060547, 6.392675876617432, 6.706055641174316, 7.019435405731201, 7.332815170288086, 7.6461944580078125, 7.959574222564697, 8.272953987121582, 8.586333274841309, 8.899713516235352, 9.213092803955078]}, "gradients/module.bn2.bias": {"_type": "histogram", "values": [2.0, 0.0, 0.0, 1.0, 1.0, 0.0, 0.0, 0.0, 0.0, 4.0, 5.0, 5.0, 5.0, 10.0, 7.0, 9.0, 12.0, 12.0, 14.0, 18.0, 20.0, 22.0, 38.0, 18.0, 24.0, 30.0, 17.0, 28.0, 31.0, 22.0, 23.0, 30.0, 18.0, 17.0, 14.0, 8.0, 12.0, 4.0, 6.0, 7.0, 1.0, 5.0, 1.0, 4.0, 3.0, 0.0, 0.0, 1.0, 1.0, 0.0, 1.0, 0.0, 0.0, 0.0, 0.0, 0.0, 0.0, 0.0, 0.0, 0.0, 0.0, 0.0, 0.0, 1.0], "bins": [-6.101042747497559, -5.85361385345459, -5.606184959411621, -5.358756065368652, -5.111327171325684, -4.863898277282715, -4.616469383239746, -4.369040489196777, -4.121611595153809, -3.87418270111084, -3.626753807067871, -3.3793249130249023, -3.1318960189819336, -2.884467124938965, -2.637038230895996, -2.3896093368530273, -2.1421804428100586, -1.8947515487670898, -1.647322654724121, -1.3998937606811523, -1.1524648666381836, -0.9050359725952148, -0.6576070785522461, -0.41017818450927734, -0.1627492904663086, 0.08467960357666016, 0.3321084976196289, 0.5795373916625977, 0.8269662857055664, 1.0743951797485352, 1.321824073791504, 1.5692529678344727, 1.8166818618774414, 2.06411075592041, 2.311539649963379, 2.5589685440063477, 2.8063974380493164, 3.053826332092285, 3.301255226135254, 3.5486841201782227, 3.7961130142211914, 4.04354190826416, 4.290970802307129, 4.538399696350098, 4.785828590393066, 5.033257484436035, 5.280686378479004, 5.528115272521973, 5.775544166564941, 6.02297306060791, 6.270401954650879, 6.517830848693848, 6.765259742736816, 7.012688636779785, 7.260117530822754, 7.507546424865723, 7.754975318908691, 8.00240421295166, 8.249833106994629, 8.497262001037598, 8.744690895080566, 8.992119789123535, 9.239548683166504, 9.486977577209473, 9.734406471252441]}, "gradients/module.linear_ch_3.bias": {"_type": "histogram", "values": [2.0, 0.0, 1.0, 0.0, 1.0, 2.0, 0.0, 1.0, 1.0, 2.0, 2.0, 4.0, 4.0, 2.0, 6.0, 10.0, 13.0, 6.0, 13.0, 15.0, 23.0, 31.0, 30.0, 28.0, 42.0, 31.0, 35.0, 35.0, 33.0, 33.0, 23.0, 18.0, 13.0, 8.0, 10.0, 6.0, 10.0, 3.0, 3.0, 4.0, 2.0, 1.0, 0.0, 2.0, 1.0, 0.0, 0.0, 0.0, 0.0, 1.0, 0.0, 0.0, 0.0, 0.0, 0.0, 0.0, 0.0, 0.0, 0.0, 0.0, 0.0, 0.0, 0.0, 1.0], "bins": [-0.0013818740844726562, -0.0013271719217300415, -0.0012724697589874268, -0.001217767596244812, -0.0011630654335021973, -0.0011083632707595825, -0.0010536611080169678, -0.000998958945274353, -0.0009442567825317383, -0.0008895546197891235, -0.0008348524570465088, -0.000780150294303894, -0.0007254481315612793, -0.0006707459688186646, -0.0006160438060760498, -0.0005613416433334351, -0.0005066394805908203, -0.00045193731784820557, -0.0003972351551055908, -0.0003425329923629761, -0.00028783082962036133, -0.00023312866687774658, -0.00017842650413513184, -0.0001237243413925171, -6.902217864990234e-05, -1.4320015907287598e-05, 4.038214683532715e-05, 9.50843095779419e-05, 0.00014978647232055664, 0.0002044886350631714, 0.00025919079780578613, 0.0003138929605484009, 0.0003685951232910156, 0.00042329728603363037, 0.0004779994487762451, 0.0005327016115188599, 0.0005874037742614746, 0.0006421059370040894, 0.0006968080997467041, 0.0007515102624893188, 0.0008062124252319336, 0.0008609145879745483, 0.0009156167507171631, 0.0009703189134597778, 0.0010250210762023926, 0.0010797232389450073, 0.001134425401687622, 0.0011891275644302368, 0.0012438297271728516, 0.0012985318899154663, 0.001353234052658081, 0.0014079362154006958, 0.0014626383781433105, 0.0015173405408859253, 0.00157204270362854, 0.0016267448663711548, 0.0016814470291137695, 0.0017361491918563843, 0.001790851354598999, 0.0018455535173416138, 0.0019002556800842285, 0.0019549578428268433, 0.002009660005569458, 0.0020643621683120728, 0.0021190643310546875]}, "gradients/module.linear_ch_3.weight": {"_type": "histogram", "values": [1.0, 0.0, 1.0, 0.0, 0.0, 0.0, 1.0, 2.0, 4.0, 2.0, 5.0, 7.0, 11.0, 17.0, 21.0, 36.0, 46.0, 49.0, 76.0, 107.0, 152.0, 231.0, 357.0, 513.0, 752.0, 1155.0, 1794.0, 2665.0, 3788.0, 5453.0, 7671.0, 10439.0, 12903.0, 15084.0, 15353.0, 13765.0, 11457.0, 8403.0, 6213.0, 4374.0, 2751.0, 1884.0, 1209.0, 797.0, 530.0, 359.0, 219.0, 152.0, 73.0, 65.0, 39.0, 23.0, 20.0, 12.0, 7.0, 5.0, 3.0, 5.0, 3.0, 2.0, 4.0, 1.0, 0.0, 1.0], "bins": [-9.4609375, -9.183349609375, -8.90576171875, -8.628173828125, -8.3505859375, -8.072998046875, -7.79541015625, -7.517822265625, -7.240234375, -6.962646484375, -6.68505859375, -6.407470703125, -6.1298828125, -5.852294921875, -5.57470703125, -5.297119140625, -5.01953125, -4.741943359375, -4.46435546875, -4.186767578125, -3.9091796875, -3.631591796875, -3.35400390625, -3.076416015625, -2.798828125, -2.521240234375, -2.24365234375, -1.966064453125, -1.6884765625, -1.410888671875, -1.13330078125, -0.855712890625, -0.578125, -0.300537109375, -0.02294921875, 0.254638671875, 0.5322265625, 0.809814453125, 1.08740234375, 1.364990234375, 1.642578125, 1.920166015625, 2.19775390625, 2.475341796875, 2.7529296875, 3.030517578125, 3.30810546875, 3.585693359375, 3.86328125, 4.140869140625, 4.41845703125, 4.696044921875, 4.9736328125, 5.251220703125, 5.52880859375, 5.806396484375, 6.083984375, 6.361572265625, 6.63916015625, 6.916748046875, 7.1943359375, 7.471923828125, 7.74951171875, 8.027099609375, 8.3046875]}, "gradients/module.bn_ch_2.weight": {"_type": "histogram", "values": [1.0, 1.0, 0.0, 0.0, 0.0, 0.0, 0.0, 0.0, 0.0, 1.0, 1.0, 0.0, 0.0, 0.0, 0.0, 2.0, 1.0, 2.0, 1.0, 2.0, 2.0, 5.0, 1.0, 4.0, 5.0, 2.0, 9.0, 7.0, 9.0, 6.0, 11.0, 5.0, 10.0, 14.0, 10.0, 13.0, 8.0, 14.0, 7.0, 11.0, 9.0, 10.0, 8.0, 12.0, 9.0, 8.0, 1.0, 1.0, 5.0, 5.0, 5.0, 3.0, 4.0, 2.0, 0.0, 0.0, 2.0, 1.0, 2.0, 1.0, 0.0, 1.0, 0.0, 2.0], "bins": [-6.523515224456787, -6.3405022621154785, -6.157488822937012, -5.974475860595703, -5.791462421417236, -5.608449459075928, -5.425436019897461, -5.242423057556152, -5.059410095214844, -4.876397132873535, -4.693383693695068, -4.51037073135376, -4.327357292175293, -4.144344329833984, -3.9613311290740967, -3.778317928314209, -3.595304489135742, -3.4122912883758545, -3.229278087615967, -3.046265125274658, -2.8632516860961914, -2.680238723754883, -2.497225522994995, -2.3142123222351074, -2.1311991214752197, -1.948185920715332, -1.7651727199554443, -1.5821596384048462, -1.3991464376449585, -1.2161332368850708, -1.0331201553344727, -0.850106954574585, -0.6670942306518555, -0.48408105969429016, -0.30106788873672485, -0.11805474758148193, 0.06495845317840576, 0.24797165393829346, 0.4309847354888916, 0.6139979362487793, 0.797011137008667, 0.9800243377685547, 1.1630375385284424, 1.3460506200790405, 1.5290638208389282, 1.712077021598816, 1.895090103149414, 2.0781033039093018, 2.2611165046691895, 2.444129705429077, 2.627142906188965, 2.8101558685302734, 2.9931693077087402, 3.176182270050049, 3.3591954708099365, 3.542208671569824, 3.725221872329712, 3.9082350730895996, 4.091248035430908, 4.274261474609375, 4.457274436950684, 4.64028787612915, 4.823300838470459, 5.006314277648926, 5.189327239990234]}, "gradients/module.bn_ch_2.bias": {"_type": "histogram", "values": [1.0, 0.0, 0.0, 0.0, 0.0, 0.0, 0.0, 0.0, 1.0, 1.0, 0.0, 1.0, 0.0, 1.0, 4.0, 1.0, 3.0, 1.0, 7.0, 8.0, 6.0, 5.0, 10.0, 15.0, 9.0, 9.0, 9.0, 13.0, 19.0, 16.0, 15.0, 12.0, 12.0, 6.0, 11.0, 7.0, 10.0, 7.0, 7.0, 8.0, 2.0, 1.0, 2.0, 0.0, 1.0, 2.0, 5.0, 0.0, 1.0, 1.0, 1.0, 1.0, 1.0, 0.0, 0.0, 1.0, 1.0, 0.0, 0.0, 0.0, 0.0, 0.0, 0.0, 1.0], "bins": [-6.625455856323242, -6.401957035064697, -6.178458213806152, -5.954959392547607, -5.7314605712890625, -5.507961750030518, -5.284462928771973, -5.060964107513428, -4.837465286254883, -4.613966464996338, -4.390467643737793, -4.166968822479248, -3.943470001220703, -3.719971179962158, -3.4964723587036133, -3.2729735374450684, -3.0494747161865234, -2.8259758949279785, -2.6024770736694336, -2.3789782524108887, -2.1554794311523438, -1.9319806098937988, -1.708481788635254, -1.484982967376709, -1.261484146118164, -1.0379853248596191, -0.8144865036010742, -0.5909876823425293, -0.3674888610839844, -0.14399003982543945, 0.07950878143310547, 0.3030076026916504, 0.5265069007873535, 0.7500057220458984, 0.9735045433044434, 1.1970033645629883, 1.4205021858215332, 1.6440010070800781, 1.867499828338623, 2.090998649597168, 2.314497470855713, 2.537996292114258, 2.7614951133728027, 2.9849939346313477, 3.2084927558898926, 3.4319915771484375, 3.6554903984069824, 3.8789892196655273, 4.102488040924072, 4.325986862182617, 4.549485683441162, 4.772984504699707, 4.996483325958252, 5.219982147216797, 5.443480968475342, 5.666979789733887, 5.890478610992432, 6.113977432250977, 6.3374762535095215, 6.560975074768066, 6.784473896026611, 7.007972717285156, 7.231471538543701, 7.454970359802246, 7.678469181060791]}, "gradients/module.linear_ch_2.bias": {"_type": "histogram", "values": [2.0, 0.0, 0.0, 1.0, 0.0, 0.0, 2.0, 2.0, 3.0, 2.0, 2.0, 2.0, 2.0, 1.0, 1.0, 2.0, 0.0, 4.0, 5.0, 8.0, 5.0, 5.0, 6.0, 12.0, 12.0, 6.0, 11.0, 8.0, 11.0, 8.0, 11.0, 11.0, 12.0, 7.0, 8.0, 8.0, 7.0, 4.0, 8.0, 5.0, 8.0, 3.0, 5.0, 5.0, 7.0, 3.0, 3.0, 3.0, 2.0, 2.0, 0.0, 2.0, 1.0, 2.0, 1.0, 0.0, 2.0, 0.0, 0.0, 2.0, 0.0, 0.0, 0.0, 1.0], "bins": [-0.0021305084228515625, -0.002061814069747925, -0.001993119716644287, -0.0019244253635406494, -0.0018557310104370117, -0.001787036657333374, -0.0017183423042297363, -0.0016496479511260986, -0.001580953598022461, -0.0015122592449188232, -0.0014435648918151855, -0.0013748705387115479, -0.0013061761856079102, -0.0012374818325042725, -0.0011687874794006348, -0.001100093126296997, -0.0010313987731933594, -0.0009627044200897217, -0.000894010066986084, -0.0008253157138824463, -0.0007566213607788086, -0.0006879270076751709, -0.0006192326545715332, -0.0005505383014678955, -0.0004818439483642578, -0.0004131495952606201, -0.0003444552421569824, -0.0002757608890533447, -0.00020706653594970703, -0.00013837218284606934, -6.967782974243164e-05, -9.834766387939453e-07, 6.771087646484375e-05, 0.00013640522956848145, 0.00020509958267211914, 0.00027379393577575684, 0.00034248828887939453, 0.0004111826419830322, 0.0004798769950866699, 0.0005485713481903076, 0.0006172657012939453, 0.000685960054397583, 0.0007546544075012207, 0.0008233487606048584, 0.0008920431137084961, 0.0009607374668121338, 0.0010294318199157715, 0.0010981261730194092, 0.0011668205261230469, 0.0012355148792266846, 0.0013042092323303223, 0.00137290358543396, 0.0014415979385375977, 0.0015102922916412354, 0.001578986644744873, 0.0016476809978485107, 0.0017163753509521484, 0.0017850697040557861, 0.0018537640571594238, 0.0019224584102630615, 0.0019911527633666992, 0.002059847116470337, 0.0021285414695739746, 0.0021972358226776123, 0.00226593017578125]}, "gradients/module.linear_ch_2.weight": {"_type": "histogram", "values": [1.0, 0.0, 0.0, 0.0, 1.0, 0.0, 0.0, 2.0, 3.0, 4.0, 4.0, 2.0, 6.0, 11.0, 17.0, 20.0, 31.0, 31.0, 36.0, 73.0, 97.0, 104.0, 143.0, 198.0, 283.0, 394.0, 550.0, 739.0, 953.0, 1286.0, 1596.0, 1991.0, 2371.0, 2562.0, 2816.0, 2774.0, 2573.0, 2277.0, 1926.0, 1708.0, 1314.0, 972.0, 809.0, 555.0, 419.0, 300.0, 226.0, 155.0, 127.0, 66.0, 58.0, 52.0, 35.0, 21.0, 15.0, 15.0, 17.0, 6.0, 8.0, 4.0, 2.0, 3.0, 5.0, 1.0], "bins": [-14.671875, -14.2518310546875, -13.831787109375, -13.4117431640625, -12.99169921875, -12.5716552734375, -12.151611328125, -11.7315673828125, -11.3115234375, -10.8914794921875, -10.471435546875, -10.0513916015625, -9.63134765625, -9.2113037109375, -8.791259765625, -8.3712158203125, -7.951171875, -7.5311279296875, -7.111083984375, -6.6910400390625, -6.27099609375, -5.8509521484375, -5.430908203125, -5.0108642578125, -4.5908203125, -4.1707763671875, -3.750732421875, -3.3306884765625, -2.91064453125, -2.4906005859375, -2.070556640625, -1.6505126953125, -1.23046875, -0.8104248046875, -0.390380859375, 0.0296630859375, 0.44970703125, 0.8697509765625, 1.289794921875, 1.7098388671875, 2.1298828125, 2.5499267578125, 2.969970703125, 3.3900146484375, 3.81005859375, 4.2301025390625, 4.650146484375, 5.0701904296875, 5.490234375, 5.9102783203125, 6.330322265625, 6.7503662109375, 7.17041015625, 7.5904541015625, 8.010498046875, 8.4305419921875, 8.8505859375, 9.2706298828125, 9.690673828125, 10.1107177734375, 10.53076171875, 10.9508056640625, 11.370849609375, 11.7908935546875, 12.2109375]}, "gradients/module.bn_ch_1.weight": {"_type": "histogram", "values": [1.0, 0.0, 0.0, 0.0, 0.0, 1.0, 0.0, 1.0, 3.0, 0.0, 0.0, 2.0, 0.0, 1.0, 0.0, 1.0, 0.0, 0.0, 1.0, 2.0, 2.0, 2.0, 3.0, 3.0, 3.0, 0.0, 2.0, 2.0, 7.0, 5.0, 0.0, 2.0, 1.0, 3.0, 3.0, 6.0, 4.0, 6.0, 5.0, 6.0, 6.0, 3.0, 4.0, 3.0, 7.0, 3.0, 1.0, 4.0, 0.0, 2.0, 2.0, 5.0, 1.0, 1.0, 1.0, 1.0, 1.0, 0.0, 0.0, 1.0, 0.0, 2.0, 0.0, 2.0], "bins": [-10.338010787963867, -10.050395965576172, -9.762781143188477, -9.475166320800781, -9.187552452087402, -8.899937629699707, -8.612322807312012, -8.324707984924316, -8.037093162536621, -7.749478340148926, -7.461863994598389, -7.174249172210693, -6.886634349822998, -6.599020004272461, -6.311405181884766, -6.02379035949707, -5.736176013946533, -5.448561191558838, -5.160946846008301, -4.8733320236206055, -4.58571720123291, -4.298102378845215, -4.010488033294678, -3.7228732109069824, -3.435258626937866, -3.14764404296875, -2.8600292205810547, -2.5724146366119385, -2.2848000526428223, -1.997185230255127, -1.7095706462860107, -1.4219558238983154, -1.1343412399291992, -0.8467265367507935, -0.5591118931770325, -0.2714972496032715, 0.016117453575134277, 0.30373215675354004, 0.5913467407226562, 0.8789615631103516, 1.1665761470794678, 1.4541908502578735, 1.7418055534362793, 2.0294201374053955, 2.3170347213745117, 2.604649543762207, 2.8922641277313232, 3.1798789501190186, 3.4674935340881348, 3.755108118057251, 4.042722702026367, 4.3303375244140625, 4.617952346801758, 4.905567169189453, 5.19318151473999, 5.4807963371276855, 5.768410682678223, 6.056025505065918, 6.343639850616455, 6.63125467300415, 6.918869495391846, 7.206483840942383, 7.494098663330078, 7.781713485717773, 8.069328308105469]}, "gradients/module.bn_ch_1.bias": {"_type": "histogram", "values": [1.0, 1.0, 0.0, 1.0, 0.0, 1.0, 0.0, 1.0, 1.0, 1.0, 0.0, 2.0, 3.0, 2.0, 5.0, 1.0, 5.0, 4.0, 4.0, 4.0, 3.0, 11.0, 5.0, 5.0, 1.0, 4.0, 4.0, 2.0, 6.0, 5.0, 7.0, 5.0, 2.0, 4.0, 3.0, 1.0, 3.0, 4.0, 1.0, 4.0, 1.0, 1.0, 1.0, 2.0, 1.0, 0.0, 1.0, 0.0, 1.0, 1.0, 0.0, 0.0, 0.0, 0.0, 0.0, 0.0, 0.0, 0.0, 0.0, 0.0, 0.0, 0.0, 1.0, 1.0], "bins": [-8.345512390136719, -8.024104118347168, -7.702694892883301, -7.381286144256592, -7.059877395629883, -6.738469123840332, -6.417060375213623, -6.095651626586914, -5.774242877960205, -5.452834129333496, -5.131425380706787, -4.810016632080078, -4.488608360290527, -4.16719913482666, -3.8457908630371094, -3.5243821144104004, -3.2029733657836914, -2.8815646171569824, -2.5601558685302734, -2.2387473583221436, -1.9173386096954346, -1.5959298610687256, -1.2745212316513062, -0.9531126022338867, -0.6317038536071777, -0.3102951645851135, 0.011113524436950684, 0.3325222134590149, 0.6539309024810791, 0.9753396511077881, 1.2967482805252075, 1.618156909942627, 1.939565658569336, 2.260974407196045, 2.582383155822754, 2.903791666030884, 3.2252004146575928, 3.5466091632843018, 3.8680176734924316, 4.189426422119141, 4.51083517074585, 4.832243919372559, 5.153652667999268, 5.475061416625977, 5.796469688415527, 6.1178789138793945, 6.439287185668945, 6.760695934295654, 7.082104682922363, 7.403513431549072, 7.724922180175781, 8.046330451965332, 8.3677396774292, 8.68914794921875, 9.010557174682617, 9.331965446472168, 9.653373718261719, 9.97478199005127, 10.296191215515137, 10.617599487304688, 10.939008712768555, 11.260416984558105, 11.581826210021973, 11.903234481811523, 12.22464370727539]}, "gradients/module.linear_ch_1.bias": {"_type": "histogram", "values": [1.0, 0.0, 0.0, 0.0, 0.0, 0.0, 0.0, 1.0, 0.0, 0.0, 0.0, 0.0, 1.0, 0.0, 0.0, 1.0, 0.0, 0.0, 0.0, 1.0, 0.0, 1.0, 0.0, 2.0, 1.0, 4.0, 0.0, 6.0, 6.0, 4.0, 3.0, 2.0, 5.0, 4.0, 10.0, 10.0, 7.0, 7.0, 4.0, 4.0, 2.0, 6.0, 4.0, 4.0, 0.0, 9.0, 3.0, 2.0, 1.0, 3.0, 1.0, 2.0, 2.0, 1.0, 0.0, 0.0, 1.0, 0.0, 1.0, 0.0, 0.0, 0.0, 0.0, 1.0], "bins": [-0.0161895751953125, -0.01576101779937744, -0.015332460403442383, -0.014903903007507324, -0.014475345611572266, -0.014046788215637207, -0.013618230819702148, -0.01318967342376709, -0.012761116027832031, -0.012332558631896973, -0.011904001235961914, -0.011475443840026855, -0.011046886444091797, -0.010618329048156738, -0.01018977165222168, -0.009761214256286621, -0.009332656860351562, -0.008904099464416504, -0.008475542068481445, -0.008046984672546387, -0.007618427276611328, -0.0071898698806762695, -0.006761312484741211, -0.006332755088806152, -0.005904197692871094, -0.005475640296936035, -0.0050470829010009766, -0.004618525505065918, -0.004189968109130859, -0.0037614107131958008, -0.003332853317260742, -0.0029042959213256836, -0.002475738525390625, -0.0020471811294555664, -0.0016186237335205078, -0.0011900663375854492, -0.0007615089416503906, -0.00033295154571533203, 9.560585021972656e-05, 0.0005241632461547852, 0.0009527206420898438, 0.0013812780380249023, 0.001809835433959961, 0.0022383928298950195, 0.002666950225830078, 0.0030955076217651367, 0.0035240650177001953, 0.003952622413635254, 0.0043811798095703125, 0.004809737205505371, 0.00523829460144043, 0.005666851997375488, 0.006095409393310547, 0.0065239667892456055, 0.006952524185180664, 0.007381081581115723, 0.007809638977050781, 0.00823819637298584, 0.008666753768920898, 0.009095311164855957, 0.009523868560791016, 0.009952425956726074, 0.010380983352661133, 0.010809540748596191, 0.01123809814453125]}, "gradients/module.linear_ch_1.weight": {"_type": "histogram", "values": [2.0, 2.0, 1.0, 2.0, 0.0, 5.0, 8.0, 2.0, 7.0, 9.0, 14.0, 13.0, 38.0, 45.0, 73.0, 74.0, 129.0, 139.0, 185.0, 209.0, 232.0, 1097.0, 221.0, 214.0, 185.0, 126.0, 93.0, 88.0, 65.0, 38.0, 33.0, 26.0, 22.0, 5.0, 11.0, 7.0, 8.0, 7.0, 3.0, 3.0, 1.0, 4.0, 1.0, 3.0, 0.0, 3.0, 0.0, 0.0, 1.0, 1.0, 0.0, 0.0, 0.0, 0.0, 0.0, 0.0, 0.0, 0.0, 0.0, 0.0, 0.0, 0.0, 0.0, 1.0], "bins": [-40.625, -38.734375, -36.84375, -34.953125, -33.0625, -31.171875, -29.28125, -27.390625, -25.5, -23.609375, -21.71875, -19.828125, -17.9375, -16.046875, -14.15625, -12.265625, -10.375, -8.484375, -6.59375, -4.703125, -2.8125, -0.921875, 0.96875, 2.859375, 4.75, 6.640625, 8.53125, 10.421875, 12.3125, 14.203125, 16.09375, 17.984375, 19.875, 21.765625, 23.65625, 25.546875, 27.4375, 29.328125, 31.21875, 33.109375, 35.0, 36.890625, 38.78125, 40.671875, 42.5625, 44.453125, 46.34375, 48.234375, 50.125, 52.015625, 53.90625, 55.796875, 57.6875, 59.578125, 61.46875, 63.359375, 65.25, 67.140625, 69.03125, 70.921875, 72.8125, 74.703125, 76.59375, 78.484375, 80.375]}, "gradients/module.linear1_2.bias": {"_type": "histogram", "values": [2.0, 0.0, 1.0, 0.0, 1.0, 2.0, 0.0, 1.0, 1.0, 2.0, 2.0, 4.0, 4.0, 2.0, 6.0, 10.0, 13.0, 6.0, 13.0, 15.0, 23.0, 31.0, 30.0, 28.0, 42.0, 31.0, 35.0, 35.0, 33.0, 33.0, 23.0, 18.0, 13.0, 8.0, 10.0, 6.0, 10.0, 3.0, 3.0, 4.0, 2.0, 1.0, 0.0, 2.0, 1.0, 0.0, 0.0, 0.0, 0.0, 1.0, 0.0, 0.0, 0.0, 0.0, 0.0, 0.0, 0.0, 0.0, 0.0, 0.0, 0.0, 0.0, 0.0, 1.0], "bins": [-0.0013818740844726562, -0.0013271719217300415, -0.0012724697589874268, -0.001217767596244812, -0.0011630654335021973, -0.0011083632707595825, -0.0010536611080169678, -0.000998958945274353, -0.0009442567825317383, -0.0008895546197891235, -0.0008348524570465088, -0.000780150294303894, -0.0007254481315612793, -0.0006707459688186646, -0.0006160438060760498, -0.0005613416433334351, -0.0005066394805908203, -0.00045193731784820557, -0.0003972351551055908, -0.0003425329923629761, -0.00028783082962036133, -0.00023312866687774658, -0.00017842650413513184, -0.0001237243413925171, -6.902217864990234e-05, -1.4320015907287598e-05, 4.038214683532715e-05, 9.50843095779419e-05, 0.00014978647232055664, 0.0002044886350631714, 0.00025919079780578613, 0.0003138929605484009, 0.0003685951232910156, 0.00042329728603363037, 0.0004779994487762451, 0.0005327016115188599, 0.0005874037742614746, 0.0006421059370040894, 0.0006968080997467041, 0.0007515102624893188, 0.0008062124252319336, 0.0008609145879745483, 0.0009156167507171631, 0.0009703189134597778, 0.0010250210762023926, 0.0010797232389450073, 0.001134425401687622, 0.0011891275644302368, 0.0012438297271728516, 0.0012985318899154663, 0.001353234052658081, 0.0014079362154006958, 0.0014626383781433105, 0.0015173405408859253, 0.00157204270362854, 0.0016267448663711548, 0.0016814470291137695, 0.0017361491918563843, 0.001790851354598999, 0.0018455535173416138, 0.0019002556800842285, 0.0019549578428268433, 0.002009660005569458, 0.0020643621683120728, 0.0021190643310546875]}, "gradients/module.linear1_2.weight": {"_type": "histogram", "values": [1.0, 0.0, 2.0, 2.0, 1.0, 3.0, 5.0, 4.0, 6.0, 9.0, 10.0, 26.0, 27.0, 61.0, 74.0, 114.0, 175.0, 237.0, 375.0, 574.0, 924.0, 1433.0, 2243.0, 3602.0, 5595.0, 9185.0, 14940.0, 25718.0, 44644.0, 71913.0, 93017.0, 88766.0, 62869.0, 38374.0, 22552.0, 13672.0, 8364.0, 5225.0, 3228.0, 2141.0, 1402.0, 925.0, 611.0, 385.0, 277.0, 178.0, 143.0, 96.0, 48.0, 34.0, 24.0, 17.0, 12.0, 11.0, 4.0, 6.0, 2.0, 0.0, 0.0, 0.0, 1.0, 0.0, 0.0, 1.0], "bins": [-15.359375, -14.862060546875, -14.36474609375, -13.867431640625, -13.3701171875, -12.872802734375, -12.37548828125, -11.878173828125, -11.380859375, -10.883544921875, -10.38623046875, -9.888916015625, -9.3916015625, -8.894287109375, -8.39697265625, -7.899658203125, -7.40234375, -6.905029296875, -6.40771484375, -5.910400390625, -5.4130859375, -4.915771484375, -4.41845703125, -3.921142578125, -3.423828125, -2.926513671875, -2.42919921875, -1.931884765625, -1.4345703125, -0.937255859375, -0.43994140625, 0.057373046875, 0.5546875, 1.052001953125, 1.54931640625, 2.046630859375, 2.5439453125, 3.041259765625, 3.53857421875, 4.035888671875, 4.533203125, 5.030517578125, 5.52783203125, 6.025146484375, 6.5224609375, 7.019775390625, 7.51708984375, 8.014404296875, 8.51171875, 9.009033203125, 9.50634765625, 10.003662109375, 10.5009765625, 10.998291015625, 11.49560546875, 11.992919921875, 12.490234375, 12.987548828125, 13.48486328125, 13.982177734375, 14.4794921875, 14.976806640625, 15.47412109375, 15.971435546875, 16.46875]}, "gradients/module.bn1.weight": {"_type": "histogram", "values": [1.0, 0.0, 0.0, 2.0, 1.0, 0.0, 1.0, 3.0, 1.0, 1.0, 1.0, 1.0, 4.0, 5.0, 6.0, 8.0, 14.0, 9.0, 13.0, 16.0, 17.0, 25.0, 20.0, 23.0, 38.0, 46.0, 42.0, 48.0, 61.0, 62.0, 61.0, 63.0, 58.0, 68.0, 46.0, 41.0, 34.0, 29.0, 23.0, 26.0, 22.0, 13.0, 18.0, 9.0, 7.0, 5.0, 6.0, 5.0, 3.0, 4.0, 5.0, 0.0, 2.0, 0.0, 3.0, 1.0, 0.0, 0.0, 0.0, 0.0, 0.0, 0.0, 1.0, 2.0], "bins": [-6.028007507324219, -5.832423686981201, -5.636839866638184, -5.441255569458008, -5.24567174911499, -5.050087928771973, -4.854503631591797, -4.658919811248779, -4.463335990905762, -4.267752170562744, -4.072168350219727, -3.876584053039551, -3.681000232696533, -3.4854164123535156, -3.289832353591919, -3.0942482948303223, -2.8986644744873047, -2.703080654144287, -2.5074965953826904, -2.3119125366210938, -2.116328716278076, -1.920744776725769, -1.725160837173462, -1.5295768976211548, -1.3339929580688477, -1.1384090185165405, -0.9428250789642334, -0.7472411394119263, -0.5516571998596191, -0.356073260307312, -0.16048932075500488, 0.035094618797302246, 0.23067808151245117, 0.4262620210647583, 0.6218459606170654, 0.8174299001693726, 1.0130138397216797, 1.2085977792739868, 1.404181718826294, 1.599765658378601, 1.7953495979309082, 1.9909335374832153, 2.1865174770355225, 2.382101535797119, 2.5776853561401367, 2.7732691764831543, 2.968853235244751, 3.1644372940063477, 3.3600211143493652, 3.555604934692383, 3.7511889934539795, 3.946773052215576, 4.142356872558594, 4.337940692901611, 4.533524513244629, 4.729108810424805, 4.924692630767822, 5.12027645111084, 5.315860748291016, 5.511444568634033, 5.707028388977051, 5.902612209320068, 6.098196029663086, 6.293780326843262, 6.489364147186279]}, "gradients/module.bn1.bias": {"_type": "histogram", "values": [1.0, 0.0, 0.0, 0.0, 1.0, 0.0, 0.0, 0.0, 0.0, 0.0, 0.0, 1.0, 0.0, 1.0, 3.0, 0.0, 2.0, 0.0, 2.0, 1.0, 2.0, 6.0, 5.0, 7.0, 12.0, 4.0, 5.0, 11.0, 13.0, 10.0, 27.0, 33.0, 32.0, 39.0, 46.0, 55.0, 43.0, 51.0, 50.0, 51.0, 64.0, 47.0, 47.0, 41.0, 44.0, 27.0, 36.0, 32.0, 36.0, 24.0, 21.0, 24.0, 12.0, 13.0, 7.0, 8.0, 6.0, 2.0, 6.0, 2.0, 1.0, 1.0, 5.0, 4.0], "bins": [-5.809648036956787, -5.663348197937012, -5.5170488357543945, -5.370748996734619, -5.224449634552002, -5.078149795532227, -4.931850433349609, -4.785550594329834, -4.639250755310059, -4.492950916290283, -4.346651554107666, -4.200351715087891, -4.054052352905273, -3.907752513885498, -3.7614529132843018, -3.6151533126831055, -3.468853712081909, -3.322554111480713, -3.1762545108795166, -3.0299549102783203, -2.883655071258545, -2.7373554706573486, -2.5910558700561523, -2.444756031036377, -2.2984566688537598, -2.1521570682525635, -2.005857467651367, -1.8595577478408813, -1.7132580280303955, -1.5669584274291992, -1.420658826828003, -1.274359107017517, -1.1280593872070312, -0.9817597270011902, -0.8354600667953491, -0.6891604661941528, -0.5428608059883118, -0.3965611457824707, -0.2502615451812744, -0.10396182537078857, 0.042337775230407715, 0.18863742053508759, 0.33493706583976746, 0.48123669624328613, 0.6275363564491272, 0.7738360166549683, 0.9201356172561646, 1.0664353370666504, 1.2127349376678467, 1.359034538269043, 1.5053342580795288, 1.651633858680725, 1.797933578491211, 1.9442331790924072, 2.0905327796936035, 2.236832618713379, 2.383131980895996, 2.5294315814971924, 2.6757311820983887, 2.822031021118164, 2.9683306217193604, 3.1146302223205566, 3.260929822921753, 3.407229423522949, 3.5535292625427246]}, "gradients/module.linear1_1.bias": {"_type": "histogram", "values": [1.0, 0.0, 0.0, 0.0, 0.0, 1.0, 0.0, 1.0, 0.0, 0.0, 4.0, 1.0, 3.0, 5.0, 8.0, 6.0, 11.0, 13.0, 4.0, 12.0, 17.0, 15.0, 19.0, 26.0, 32.0, 32.0, 31.0, 32.0, 41.0, 40.0, 63.0, 40.0, 42.0, 47.0, 43.0, 40.0, 29.0, 44.0, 37.0, 36.0, 24.0, 30.0, 31.0, 22.0, 14.0, 20.0, 21.0, 10.0, 18.0, 8.0, 10.0, 6.0, 8.0, 5.0, 0.0, 6.0, 3.0, 4.0, 2.0, 0.0, 2.0, 0.0, 1.0, 3.0], "bins": [-0.0014438629150390625, -0.0014009475708007812, -0.0013580322265625, -0.0013151168823242188, -0.0012722015380859375, -0.0012292861938476562, -0.001186370849609375, -0.0011434555053710938, -0.0011005401611328125, -0.0010576248168945312, -0.00101470947265625, -0.0009717941284179688, -0.0009288787841796875, -0.0008859634399414062, -0.000843048095703125, -0.0008001327514648438, -0.0007572174072265625, -0.0007143020629882812, -0.00067138671875, -0.0006284713745117188, -0.0005855560302734375, -0.0005426406860351562, -0.000499725341796875, -0.00045680999755859375, -0.0004138946533203125, -0.00037097930908203125, -0.00032806396484375, -0.00028514862060546875, -0.0002422332763671875, -0.00019931793212890625, -0.000156402587890625, -0.00011348724365234375, -7.05718994140625e-05, -2.765655517578125e-05, 1.52587890625e-05, 5.817413330078125e-05, 0.0001010894775390625, 0.00014400482177734375, 0.000186920166015625, 0.00022983551025390625, 0.0002727508544921875, 0.00031566619873046875, 0.00035858154296875, 0.00040149688720703125, 0.0004444122314453125, 0.00048732757568359375, 0.000530242919921875, 0.0005731582641601562, 0.0006160736083984375, 0.0006589889526367188, 0.000701904296875, 0.0007448196411132812, 0.0007877349853515625, 0.0008306503295898438, 0.000873565673828125, 0.0009164810180664062, 0.0009593963623046875, 0.0010023117065429688, 0.00104522705078125, 0.0010881423950195312, 0.0011310577392578125, 0.0011739730834960938, 0.001216888427734375, 0.0012598037719726562, 0.0013027191162109375]}, "gradients/module.linear1_1.weight": {"_type": "histogram", "values": [1.0, 0.0, 0.0, 0.0, 0.0, 0.0, 0.0, 3.0, 2.0, 0.0, 7.0, 3.0, 3.0, 6.0, 4.0, 7.0, 9.0, 20.0, 20.0, 38.0, 51.0, 70.0, 89.0, 178.0, 284.0, 479.0, 881.0, 1775.0, 4332.0, 15456.0, 202140.0, 50896064.0, 63429.0, 8435.0, 2725.0, 1301.0, 689.0, 468.0, 294.0, 193.0, 139.0, 108.0, 71.0, 55.0, 39.0, 46.0, 18.0, 14.0, 13.0, 7.0, 7.0, 5.0, 9.0, 5.0, 1.0, 4.0, 3.0, 1.0, 1.0, 0.0, 0.0, 0.0, 0.0, 2.0], "bins": [-301.25, -291.63671875, -282.0234375, -272.41015625, -262.796875, -253.18359375, -243.5703125, -233.95703125, -224.34375, -214.73046875, -205.1171875, -195.50390625, -185.890625, -176.27734375, -166.6640625, -157.05078125, -147.4375, -137.82421875, -128.2109375, -118.59765625, -108.984375, -99.37109375, -89.7578125, -80.14453125, -70.53125, -60.91796875, -51.3046875, -41.69140625, -32.078125, -22.46484375, -12.8515625, -3.23828125, 6.375, 15.98828125, 25.6015625, 35.21484375, 44.828125, 54.44140625, 64.0546875, 73.66796875, 83.28125, 92.89453125, 102.5078125, 112.12109375, 121.734375, 131.34765625, 140.9609375, 150.57421875, 160.1875, 169.80078125, 179.4140625, 189.02734375, 198.640625, 208.25390625, 217.8671875, 227.48046875, 237.09375, 246.70703125, 256.3203125, 265.93359375, 275.546875, 285.16015625, 294.7734375, 304.38671875, 314.0]}, "Train loss": 23.118340874369235, "Train Accuracy Margin-0": 20.563952038471644, "Train Accuracy Margin-1": 52.25451456355996, "Train Accuracy Margin-2": 71.11306112814412, "Train Accuracy Missed Cleavages": 63.8967608231502, "Train Accuracy Modifications": 82.55620116529818, "Test loss": 4.40836996993187, "Test Accuracy Margin-0": 44.66187994430901, "Test Accuracy Margin-1": 88.29582370921194, "Test Accuracy Margin-2": 97.04955111141932, "Test Accuracy Missed Cleavages": 69.61747118097972, "Test Accuracy Modifications": 83.81680651648593, "_step": 0, "_wandb": {"runtime": 703}}